-0.0215295
-0.02246
-0.0138881
-0.00823341
-0.0083399
-0.00530103
0.0108048
-0.0176414
0.0296704
0.0032435
0.0165741
-0.00985586
0.0375775
-0.0233929
-0.0455376
-0.0387222
0.0780748
0.0131755
0.0325295
0.00879607
-0.01095
0.0145211
-0.0537924
-0.0251506
0.00898736
-3.24465e-06
-0.0817152
0.0131698
0.00873076
-0.0113104
0.0557519
-0.021819
-0.00511647
0.0205295
0.0586178
-0.0240213
0.0668363
0.0222681
0.00700148
0.0372246
0.00735496
0.0324829
-0.00685497
-0.025958
0.0491631
-0.0235104
0.0381438
0.0709736
0.0470158
0.0150888
-0.00603437
0.00190794
0.0327473
0.0268475
0.0559971
-0.0267638
0.0339354
-0.043393
0.0376991
-0.0125514
0.0112178
-0.0515098
0.0484258
-0.0223813
0.0869208
0.0109296
0.0191138
-0.0597917
0.0585157
0.0203225
0.0430961
0.0303098
-0.0193154
0.0550662
0.0832036
-0.00137004
0.0205729
0.0455503
0.0862109
0.00687408
0.000886356
0.000736113
0.0208516
0.00805077
0.00300639
0.0433348
0.0290219
-0.0697456
0.0130832
0.000492992
0.00127044
0.0493625
-0.0140218
-0.0199969
0.0309211
-0.0185746
-0.0116615
0.0741879
-0.0989584
-0.0159584
-0.00155345
0.0489926
0.0102364
0.0640031
-0.0349211
-0.0425637
0.0178507
0.0247123
-0.00306356
0.00995019
0.0371126
-0.0320138
-0.0531995
0.0227032
0.00203642
0.0657716
0.0456327
0.00175219
0.0466507
0.00804465
