-0.00439877
0.0559562
-0.0376121
0.0280893
0.0318711
0.00840304
0.0398977
0.0168392
0.00438319
-0.089965
0.00223699
-0.0145708
-0.010985
0.00528777
0.0813071
0.00240905
0.040658
0.0157172
0.0154553
0.0455292
0.00544154
-0.0224035
0.0562624
-0.0188865
0.0105447
0.0239159
-0.0115028
0.0530125
0.0616164
0.0561433
0.0355511
0.0219786
-0.0252863
0.00875314
0.0346772
0.00522902
-0.0203769
-0.0461728
-0.00182273
0.0429851
0.00360535
-0.0158815
-0.0250159
-0.0182244
0.0308777
0.0146642
0.00281262
0.030739
-0.021166
0.0228587
0.00525873
0.0133536
-0.0202126
-0.0125078
-0.0721862
-0.000104969
0.00651923
-0.0317002
-0.104411
0.0481996
0.051474
0.044441
0.0115011
-0.0150886
-0.00611388
0.0280458
0.0377621
0.0188654
-0.0684545
-0.0896258
-0.0263944
-0.0638232
0.0515144
0.0204331
0.0347795
-0.02203
-0.0251242
-0.0616285
-0.0542284
0.0585276
-0.0569384
-0.0409143
0.000560477
-0.0392996
-0.000876783
0.111278
0.0298684
0.00348894
0.0167514
0.00240989
-0.000490602
-0.00955606
-0.0104739
0.0319428
-0.0108635
-0.0171758
-0.0233246
-0.0416069
0.00901981
0.0210764
0.00502813
-0.0209368
-0.0194092
-0.0568314
-0.0374995
-0.00928133
0.0269996
0.00261164
0.00939218
0.00218036
-0.0524644
-0.0022324
0.0110891
0.025388
-0.00331976
-0.069846
-0.00161491
-0.0530652
0.0100658
-0.00993013
-0.00849785
-0.00814026
0.0352486
-0.0444152
0.0446696
-0.0109822
0.0632366
-0.00113697
-0.00676111
-0.0545689
-0.0375127
-0.0108462
-0.0375705
-0.005283
-0.00642576
0.0353537
0.00514356
0.009901
-0.0222344
-0.0275885
-0.0125521
0.060551
-0.0178967
-0.0632958
-0.0323627
-0.00112114
0.00853115
0.0310588
0.0295389
0.0320016
0.0245628
-0.0798763
0.0539222
0.0145776
-0.00299723
0.0615317
-0.0180246
-0.014757
0.0767497
0.0380882
0.0859524
0.0570241
0.00553513
0.0326069
0.0471617
0.0902629
-0.0230437
-0.0472323
0.0141411
0.00307128
0.10967
0.0435027
0.054822
0.0695682
0.00319803
0.0373597
-0.00899449
-0.00177838
-0.0431372
-0.0318206
-0.0206761
0.0638053
0.0661292
0.042559
-0.00591336
-0.0178575
0.0104153
-0.0165517
-0.0181134
-0.0607415
-0.0249218
-0.0719409
0.00101765
0.0305957
0.0420798
0.011422
-0.0195016
-0.0097965
0.0300524
0.0341676
0.0180818
0.0326383
-0.0197369
-0.054415
0.0272906
0.0498551
0.0238672
-0.00216075
0.0344433
0.0165169
0.00960768
0.0450895
0.000616921
-0.015752
-0.0143163
-0.00853559
-0.0637961
-0.0236911
-0.0358457
0.0309282
0.0187388
0.00154488
-0.065525
-0.0163867
0.0223132
-0.0678155
-0.0105878
-0.0449363
-0.0424226
0.0132075
-0.0115079
0.0125227
-0.0344219
-0.0495257
-0.0170638
-0.0299024
0.0441059
0.0254842
0.0427438
0.0190922
0.0338717
0.0436843
0.00380319
-0.025318
-0.0298954
-0.0222549
-0.0198749
0.0209887
-0.0169525
0.0335378
0.0671859
0.031687
0.0478453
-0.0363822
-0.0174446
-0.0212473
0.0176684
-0.013781
0.0130976
-0.00219466
-0.0403756
0.0311926
-0.00839717
-0.0338303
0.0189103
-0.0627985
-0.11817
-0.0249682
-0.0217928
-0.0075788
-0.0435442
-0.0582656
-0.059653
-0.0185296
-0.0054828
-0.0195978
-0.0434006
-0.0499988
0.00508485
0.0668296
0.0826294
0.0272227
0.0299071
0.0290859
0.0178549
-0.00233171
-0.0358478
-0.0561804
0.0537955
0.0020691
0.0725863
-0.0241008
0.0246679
0.0756015
0.065116
0.0774215
0.0272143
-0.0707636
0.0321036
-0.00420672
0.0277639
-0.033743
0.0103123
0.129233
0.0546821
-0.0224508
-0.0289769
0.0591002
0.0278985
0.0374356
0.0598055
-0.0138562
-0.0724817
0.0267083
0.0889579
0.0554418
0.00860137
-0.00352028
0.0242344
0.0800166
0.0305887
0.0176291
-0.0402847
-0.0505312
0.0832638
-0.00763834
0.0788917
0.0381987
-0.0525078
0.0142164
-0.0178454
0.0357405
-0.023606
0.0412317
0.058644
0.00961839
-0.00695736
0.0392914
0.00250248
-0.0231978
0.0396894
-0.100969
-0.0618948
-0.0171934
0.048266
0.0135864
0.0195666
0.0710956
-0.0382093
0.0373998
-0.0110645
-0.0769824
0.0373932
-0.00908189
-0.012151
0.053885
0.0695706
-0.040396
-0.00930113
0.0136926
0.0128028
0.00046904
0.032832
-0.0158261
-0.0189675
-0.0458609
0.0338522
-0.0056847
-0.00865326
0.0749794
0.00927762
-0.0695027
-0.0207277
-0.0114317
0.00779317
-0.0230616
-0.028164
0.0816482
0.0387271
0.00479155
0.0702599
0.00124247
0.0603932
-0.00202267
0.0345044
-0.0174958
0.0606456
0.0155085
0.077945
0.059909
0.0117353
0.0124806
0.0772984
0.0270802
-0.0587456
0.0327828
-0.0208057
-0.0294669
-0.0388293
0.0211201
-0.026337
0.0314717
0.0331546
0.0135801
0.0940464
-0.00636843
0.0342194
0.0260492
-0.0143677
0.00120592
0.0396909
-0.0528102
0.0490809
0.0210861
-0.0514238
-0.0226909
0.0483655
-0.016918
-0.0216878
-0.0190108
0.00547945
-0.0259852
-0.0301777
0.0242281
-0.0156304
-0.0015305
-0.0399529
0.0157065
-0.063247
-0.0313858
0.00371992
0.0143279
-0.0336473
-0.00212611
0.0323272
0.027851
0.0157548
-0.0267778
-0.0661183
0.0304834
-0.0724664
0.0660664
-0.0553377
-0.0441134
0.00524579
-0.00500366
-0.0561408
-9.266e-05
-0.00415904
-0.00958917
-0.00379147
0.0336601
0.0263218
0.0222372
0.0402732
-0.0202086
0.000297658
-0.0356731
-0.00484886
-0.035579
0.0186611
-0.0262689
-0.00853425
0.000269356
0.0348703
-0.029949
-0.047571
0.00129914
0.0199101
-0.0414814
-0.0190694
-0.0250551
-0.0057066
-0.0696216
0.0155954
0.0263226
-0.0171402
0.0163319
0.0166057
0.0425267
0.0148498
-0.02741
-0.00672724
-0.0260671
0.0331242
0.0256342
-0.058801
-0.00852985
-0.0438162
0.0369203
-0.0248356
-0.0260239
-0.0460074
-0.0875459
-0.0146889
-0.00422111
-0.01475
0.00374123
-0.0164284
0.0309263
-0.021232
0.021985
0.00315837
-0.0587559
-0.066342
-0.0411711
-0.0336085
-0.0100037
0.00147005
-0.0205076
0.0404132
0.0176427
0.068463
0.0331062
-0.0185789
0.0095913
-0.00296263
-0.0226323
-0.0225837
-0.0101748
0.0523758
0.00569629
0.0281698
-0.0143136
0.00380035
0.0309919
-0.0376678
0.0464203
0.0406117
-0.0517968
0.0447936
0.0328804
-0.0382589
-0.00130619
0.0223017
-0.0120061
-0.00379104
0.0212549
0.0380875
0.00777901
0.0129443
0.0376931
-0.0143286
0.0530885
-0.0318658
-0.0204324
-0.0204209
0.00973091
0.00632598
-0.060634
0.0354981
0.0378475
-0.00176664
-0.023429
0.0768028
0.0191353
0.0686718
-0.010751
-0.0446233
0.0601122
0.00326667
-0.043988
-0.0085697
-0.0268829
-0.000388179
-0.00474776
-0.0276262
-0.00894881
0.016552
-0.0737098
0.0514351
0.0517998
-0.0888317
0.0770902
0.0446461
0.025228
-0.0195582
-0.0886492
0.051178
-0.0049735
-0.0549129
0.0104653
-0.0491549
0.0147797
0.00482516
0.0570467
0.0693877
-0.0384706
0.03082
0.0143674
-0.0512035
0.00150582
0.024292
-0.0407239
0.0186728
-0.0172048
-0.0451981
-0.00731951
0.0523541
-0.0399784
-0.0345691
-0.0160074
-0.0123149
0.00650583
-0.066983
-0.0233695
0.0344706
-0.0203107
-0.0299983
-0.0307305
0.0191422
-0.0331913
-0.054466
-0.010038
0.00254157
0.037912
0.0330938
-0.0258227
-0.0185779
-0.00826572
-0.0754143
-0.0231641
-0.0209797
-0.00685337
0.0444367
-0.0288697
-0.0060027
-0.00383933
-0.0214664
0.000994136
-0.0399069
-0.00151563
0.00291502
0.0593166
0.00910591
0.0314195
0.0128687
0.0391244
0.0379119
-0.00878795
0.0099238
-0.0194524
0.0550779
-0.016546
0.0496892
0.0577722
-0.0322386
-0.0118639
0.0245008
0.0283814
0.0178939
0.0176041
-0.0118628
-0.00155842
0.0426452
0.0232747
0.0653645
-0.00689397
0.0307045
-0.000459675
-0.00602213
-0.00482213
0.00546752
-0.000874101
-0.0149763
0.057592
-0.00462198
-0.032597
0.0368684
-0.0476588
-0.0240087
-0.063515
-0.0635547
0.00966103
-0.000174073
0.0042398
0.0353418
-0.0110367
-0.0276753
0.00907246
0.0128991
-0.000332992
-0.0549642
-0.0126175
-0.0903448
0.0104973
-0.0074778
-0.116791
0.00981215
0.00617229
-0.0291958
-0.0106278
0.00231708
0.000701391
-0.0172029
0.0305624
0.0129959
-0.00772132
0.0295941
-0.0721543
0.061549
-0.055697
-0.066782
-0.0325086
0.0365173
-0.0665307
-0.0756969
-0.0355102
-0.0320847
0.0367543
-0.00703215
-0.017805
-0.0262041
0.0319073
-0.0108371
-0.0212323
0.0163787
-0.000602151
0.0127169
0.00456676
-0.0284178
-0.0444242
-0.0509844
-0.0470093
-0.0315977
0.00899041
0.0267557
-0.0426946
-0.0178685
0.0224707
-0.0116163
-0.0654043
-0.0365062
-0.111526
-0.061075
-0.0284296
0.0309412
-0.0110967
0.0150134
-0.026793
-0.0082624
-0.0095641
-0.0184809
-0.00531627
0.0249494
0.0430262
-0.05736
0.016848
-0.051196
-0.0156387
0.0667578
0.0144018
0.00561965
0.0453881
-0.0257245
0.0254543
0.0461429
-0.03924
-0.00213184
0.046547
0.00733616
0.054876
0.0146029
-0.0107679
0.00141762
0.0380737
-0.0209274
-0.0618065
0.0218912
0.0111219
-0.0187829
-0.0047969
0.0779501
-0.0265345
0.0336922
-0.00609621
0.0329006
0.00220048
0.0390659
0.027393
0.000725733
0.0128216
0.0318663
-0.00654721
0.0674997
0.0391633
0.0328432
0.0398856
0.0175099
0.0230924
0.0132615
-0.0597658
-0.0278735
0.0496428
0.0115179
0.0404031
0.00751415
0.0328133
0.04955
-0.00591943
-0.000121293
0.0113681
0.0865222
0.0677879
-0.0326191
0.0187302
-0.00461457
0.0511227
0.00740653
-0.000659304
-0.00153451
0.00713023
0.00967858
-0.0114468
0.0581616
0.0371777
0.00457977
0.033835
0.0490229
0.0100344
-0.00843546
0.0147075
-0.0234624
0.0657498
-0.0184761
0.000932921
0.0251069
-0.028282
0.0430677
-0.0175858
-0.000344924
0.0077244
-0.0314684
0.021459
-0.0452971
-0.00780283
0.0879617
-0.0205779
-0.00909151
0.0238554
-0.0171237
0.0426411
-0.0481219
-0.00916752
-0.00853955
0.00982919
-0.0164787
0.0156299
0.0309775
0.0615901
0.00501474
0.0419231
0.00256427
0.0754963
-0.0334563
0.0019235
0.00955582
0.0207688
-0.0219466
-0.04376
0.0469742
-0.0137572
-0.0235785
-0.00270135
0.0328875
0.0418933
0.0200744
-0.0117275
-0.0123464
-0.0345535
0.0213824
0.02726
0.0222201
0.0585925
-0.0165854
-0.00446755
-0.0147339
-0.0100185
0.0288606
-0.0335121
0.0293011
-0.00801681
-0.0602541
0.037975
0.0662318
-0.0125865
0.0104515
0.0317892
-0.00701734
0.0289827
-0.0181263
-0.0146606
-0.018813
0.0166305
0.0630913
0.00217869
-0.00206801
-0.0217534
0.00803186
-0.00326019
0.0505546
-0.00243364
-0.0267405
-0.0183135
-0.0270391
-0.0594731
0.0147156
0.0187903
-0.0639831
0.0386241
0.00623275
-0.0105393
-0.023876
0.00423942
0.00751049
0.0250117
-0.0302969
-0.0520042
-0.0473173
-0.0428451
-0.00788145
0.0427389
0.0202162
0.0181031
0.00802343
-0.00599519
-0.0325794
-0.0316848
0.012097
-0.0241954
0.015978
0.0120227
0.0444322
0.00157606
-0.0217977
0.0623561
-0.039379
-0.0416117
0.0152957
-0.00236061
0.037607
0.00680687
0.01342
-0.017972
0.0190794
-0.0524252
-0.0145449
0.0322105
-0.0213121
0.0196221
-0.0159341
-0.00121645
-0.0269455
-0.0226133
0.0124169
-0.0307545
-0.005844
-0.0258959
0.00986615
-0.0414468
9.59359e-05
0.0110819
-0.0142671
0.0123412
0.0425627
-0.0514429
-0.0137895
0.00441148
-0.0135629
-0.00350076
0.0108503
0.0238528
-0.0223873
0.0125243
0.0157611
0.0399025
-0.0370608
-0.0307256
0.02108
-0.00621588
-0.000498363
-0.0139068
0.0188674
-0.0258437
-0.000566216
0.0259421
0.0303419
-0.0664496
0.0305292
0.0487596
0.0255611
0.0617834
-0.0326464
-0.0148228
-0.0474647
-0.0138499
0.0168867
0.0544685
0.0114163
-0.00754721
-0.00282674
-0.0239474
-0.0129422
-0.0257697
0.0205847
0.0282693
-0.015386
0.0436032
0.0233753
0.0199201
-0.0119183
0.040767
-0.0115065
-0.0398925
-0.00555534
0.0292257
0.0183435
-0.0495514
0.029354
-0.0321855
0.0432653
-0.0222762
-0.0261196
-0.0496786
-0.038081
-0.0284618
-0.0268182
0.0453303
0.00779789
0.0321572
0.0104073
0.0268644
0.0442837
0.0214872
-0.056623
0.0192748
-0.0493723
-0.103157
-0.0620124
-0.00159888
-0.0665774
-0.0481073
0.0297132
-0.0254229
-0.034048
0.0272884
-0.0333518
0.00810698
0.0199185
0.068749
-0.0409591
-0.0295295
0.000867937
0.0732687
0.0221418
0.0486952
-0.0470497
-0.00193524
0.00529232
-0.0317859
-0.00108988
-0.0598084
0.0237526
-0.0477891
-0.0146212
0.0231813
0.0119819
-0.0258554
-0.0420333
0.0493523
0.0426155
0.0558493
0.0456267
-0.0096663
-0.0100436
0.0142277
-0.0490098
0.0328803
-0.0499564
0.0497016
0.0396731
0.00407051
-0.0690672
-0.0603338
-0.0237619
-0.00568171
-0.0563974
0.0513228
-0.0179301
-0.0238252
0.0184109
0.0573291
-0.00165139
0.031965
-0.0348884
-0.019027
0.0015806
-0.0117996
-0.0206898
0.0183086
-0.0223248
-0.00175055
0.025729
-0.00698438
0.0391229
-0.00240361
-0.0158489
-0.0129125
-0.000224532
-0.0283761
0.0135587
0.00123709
-0.0392516
-0.00846928
-0.0270262
-0.0320368
-0.00197515
0.0124327
-0.0463708
0.00101163
-0.0677698
-0.0384507
-0.00947253
0.00913091
0.036471
-0.0371696
-0.0103755
0.0189551
0.0398565
0.0588705
-0.00988685
-0.00538535
0.0193729
0.00681918
-0.0228166
-0.0269699
0.00120877
-0.0439693
-0.00857886
0.0814487
0.0321017
-0.0376359
-0.0196834
-0.00863088
-0.00759979
0.0236207
-0.000116432
-0.0377205
-0.0383787
0.00785648
0.0230081
-0.0416398
0.0181053
0.0297773
-0.0123539
-0.0435769
0.0350239
0.0653801
0.0567478
0.00194443
-0.0123446
-0.0182051
-0.0632964
-0.00218292
0.04142
-0.0083195
-0.0174777
0.0157502
0.0205669
0.0250088
0.0748408
-0.022783
0.0273212
-0.0739312
-0.0345929
0.00521446
0.048421
-0.0141464
-0.0283912
-0.035699
0.0255547
-0.0164946
0.0422507
0.0406067
-0.0258503
-0.0239193
-0.00942543
-0.0446167
-0.0402675
0.00381271
-0.00723052
0.0189853
0.0110499
0.0151808
-0.0152818
-0.0385379
-0.0388296
-0.0464842
-0.021268
-0.0293742
0.0485291
-0.0505406
-0.0265912
-0.00707138
0.00504965
0.00460683
-0.0220939
0.0957862
-0.0336396
-0.0319429
0.0607176
-0.0312321
-0.0132826
-0.02785
-0.0699136
-0.0467592
-0.0449072
-0.00358545
-0.00925933
-0.00728083
-0.0455174
-0.0117654
0.00329057
-0.0676664
0.00675068
0.037964
0.0242981
0.0516863
0.0400459
0.0340796
-0.0251525
-0.0388721
0.0398712
-0.0126818
0.0823601
-0.0370563
-0.0356288
0.0458128
0.0636091
0.0132828
0.0445671
0.00752681
-0.00739808
0.012523
0.00942252
-0.0112319
0.0287288
0.0279033
-0.0421682
0.0213397
0.0215847
-0.0302123
0.00149425
0.0254985
-0.0254252
-0.0298777
0.00427072
0.0508524
0.049629
-0.095105
-0.0146726
0.00441949
0.00778873
0.00926518
-0.0172109
0.0127145
0.0406633
0.0448018
0.0402925
0.0737344
-0.0381846
-0.0667063
-0.0401932
-0.0229696
-0.0110417
0.0378345
-0.0342153
0.0846136
-0.038482
0.0652631
0.0466508
0.0424932
0.0449276
-0.046033
0.0200983
0.032825
-0.0603683
-0.0214847
0.0405125
-0.0423042
0.00623833
-0.0476616
-0.0184894
0.00159561
-0.0219175
-0.0335463
0.00812784
0.00262288
0.00696782
-0.0124281
-0.0420163
-0.0487633
0.00905454
0.00388936
0.00472536
0.0111031
-0.019247
0.000715549
-0.0689197
0.0194137
-0.105753
-0.045986
0.0276032
-0.0522945
0.0223528
0.0187774
-0.00320234
-0.00323727
-0.0295148
-0.0493241
0.00812807
0.0479755
-0.0640888
0.00874499
0.0609737
-0.00570876
-0.0224908
-0.0256504
0.0514719
-0.0359428
-0.0245808
-0.00201599
-0.0756445
-0.0213928
-0.00863847
-0.0395285
-0.0310938
-0.029592
-0.0568375
-0.0204402
-0.0170422
-0.0631096
0.0165937
-0.0642584
-0.058035
-0.0215949
-0.0238778
0.0976237
-0.0429177
0.0145473
-0.00904493
-0.0018241
-0.0497087
-0.0470497
-0.036757
-0.0210855
-0.0188959
0.00987644
0.0141275
0.0351649
0.0370916
-0.0512094
0.0105851
0.0583582
-0.0776232
-0.0187138
-0.0153328
0.00980787
-0.0287747
0.0577799
0.111965
0.0273962
-0.025458
-0.0143253
-0.0392854
-0.020512
-0.0103299
-0.02909
-0.0732761
0.0134268
0.080223
0.0430582
-0.0266907
-0.0507716
-0.0669959
0.016363
-0.0719645
-0.0350526
0.00141062
0.0275379
-0.0446567
-0.0246233
-0.0399145
-0.00105408
-0.0167946
-0.0263616
0.000588334
-0.0407787
-0.034889
-0.00151156
0.0528089
0.0413828
-0.0149513
-0.0141978
0.0336225
-0.0432131
0.0144775
0.0272045
-0.0104816
0.0341227
-0.00147964
0.0739655
-0.0730857
0.033583
-0.00936703
0.0366682
0.0375623
0.0197996
-0.0589539
0.00836354
-0.0303928
0.0791121
0.0061949
0.0228636
-0.0287543
-0.0778651
-0.000770628
-0.032459
0.0385812
0.0389431
0.0189852
0.0186337
-0.0494067
0.0122525
0.0424187
-0.0405103
-0.0172718
-0.0693612
-0.0194986
0.012543
0.024034
0.0286916
-0.0846547
-0.0982881
-0.0133412
-0.0385821
-0.00392154
-0.0450062
0.0279631
0.0244789
-0.0106066
0.0463655
0.057596
-0.0355945
0.0257642
0.0303464
-0.000794867
0.0359616
-0.0381947
-0.0030443
0.0179583
-0.00788385
0.0366222
-0.0136175
0.00957854
-0.019227
-0.00233353
-0.0106491
-0.0134933
0.0203506
0.00224464
-0.00179268
0.0125714
0.00550738
0.0485008
-0.00727914
-0.0240963
-0.0773024
-0.0374205
-0.0205988
0.0406942
-0.0117493
0.00118466
0.0460089
0.0201623
0.0135363
-0.0836257
-0.0411104
0.00577293
0.0262987
-0.0263528
0.0278735
0.0391803
0.0370104
-0.0359933
-0.0217186
0.0372047
-0.023018
-0.0365435
-0.0610632
0.0387587
0.0819167
0.0297485
0.0527492
0.022683
0.0101872
0.0231029
-0.0642837
0.0365169
0.0238086
-0.0511057
-0.0157417
-0.0280877
0.0737887
-0.00681709
0.0120327
0.032195
0.0146583
-0.0311498
-0.00151348
-0.00864388
0.0617075
-0.00952901
-0.0464852
0.0340741
0.0175184
-0.009373
0.0159408
-0.0280027
0.0327985
0.0545455
-0.0264839
0.0501368
-0.0651274
-0.0187968
0.0231465
0.0256881
-0.0237038
0.000871071
0.0338739
0.0156268
-0.00815478
-0.0134167
0.0316644
0.0235868
0.00643033
-0.0157608
0.00440857
0.0593709
0.082881
0.0437415
-0.0416186
-0.0337977
-0.031836
0.0402211
0.0319798
0.0194843
0.00227838
-0.00963201
0.0063237
-0.00129971
0.0531682
-0.0346591
-0.00405773
-0.0211226
0.0655559
-0.0110824
-0.00505297
0.0229175
-0.0056379
0.00373291
-0.00844483
-0.0455453
0.00817403
-6.22059e-05
-0.0182267
-0.0363915
0.00528904
-0.0170432
-0.0385082
-0.0775801
0.0129128
0.0375079
-0.0208553
-0.0469947
-0.0273574
0.00303404
-0.031381
0.0315219
-0.00663084
-0.0578306
-0.0374885
0.0762667
0.0392388
0.0338641
0.0340034
-0.0105568
0.0283191
-0.0530823
-0.00973678
-0.00388977
-0.0407816
-0.0249417
0.0248004
0.0751355
0.0559313
0.001634
-0.0371639
-0.050616
-0.106049
0.0440283
0.0199369
0.000680644
-0.0263601
-0.0670739
0.0175478
-0.0170991
0.00882449
0.00383647
0.00364856
-0.0952933
-0.00683182
-0.0207575
0.0334814
0.00201007
0.0152014
0.0249418
-0.00100435
-0.0389971
-0.0491855
0.030449
0.00990886
-0.0524288
-0.0459161
0.00951338
0.0184694
0.0505957
-0.0452687
-0.0689977
-0.00706839
0.0201618
0.0451178
-0.0324781
0.0510185
-0.0321595
0.0456651
0.0542925
-0.0088826
0.00130059
-0.0319951
0.00183427
-0.0178157
0.0359853
0.0877378
0.0784979
0.0264963
0.0671506
0.00374235
0.00256926
0.0300172
-0.0456634
0.0135149
-0.0656651
0.0017338
0.0385886
0.0194293
-0.0312056
0.0364397
-0.0203457
0.0229981
-0.0459687
-0.0183564
0.000293643
-0.019407
-0.0193632
0.0209106
0.0758527
-0.0187017
0.00938565
-0.0378736
0.0270804
-0.0194029
-0.02734
-0.00969291
-0.0207707
-0.0286636
-0.0402145
-0.00215624
0.0319836
0.0190483
-0.00828071
0.000444897
0.0636952
0.0168495
-0.0545462
0.0334366
0.0457476
0.0243974
0.0230705
0.026027
-0.0315792
-0.00160762
-0.0355278
0.0342617
0.0317749
0.0131016
0.0276301
-0.0311985
0.0155286
-0.0219973
-0.0143087
-0.038163
0.0223494
-0.00685757
0.0513276
-0.0331132
0.0051407
0.0149008
0.00365955
0.0186208
-0.0267585
-0.00111804
-0.0515479
-0.00751852
0.00992466
0.0217785
-0.00912501
0.0313076
-0.00940266
0.05638
-0.0150548
0.0521438
-0.030047
-0.0622223
0.0241326
-0.0429746
0.0306273
-0.0348008
-0.0290581
-0.00370805
-0.0172055
0.021746
-0.0212653
-0.00494395
0.0040678
-0.0187167
0.049119
-0.0110706
0.0172613
-0.00805182
-0.0373609
-0.0608233
0.00129441
-0.0390534
-0.0698162
-0.113554
-0.0246463
-0.0140182
0.00617769
-0.0121391
-0.0685096
-0.00634121
-0.0235075
-0.0421109
0.0079131
-0.0366009
-0.0594595
-0.0312195
0.00726299
-0.0713077
-0.0379812
-0.0495544
-0.0287697
0.0163473
0.00747364
0.0260351
0.0238243
0.0297141
0.0472825
-0.000336074
-0.0234006
0.03774
-0.0510301
0.0200758
-0.041103
0.0231137
0.0293221
-0.0693145
0.020972
-0.0595695
-0.00988929
-0.0143263
0.0546189
0.0108945
-0.0387443
0.0309166
-0.00275185
0.0083343
0.0317394
-0.013752
-0.0174043
-0.0434652
-0.0201255
0.00532016
0.0141213
-0.00487821
-0.0303003
-0.0244598
0.0147049
-0.0707042
-0.0374491
-0.00201882
-0.00761593
-0.00253353
0.0440046
-0.0192481
0.0316428
-0.0481786
0.120372
0.066264
-0.0320151
-0.0177101
-0.0488541
-0.0741074
-0.0412966
-0.00432769
0.000133983
0.0626859
0.00650024
0.0195095
0.0685949
0.0201577
0.0454328
-0.00979561
0.00270896
0.0246258
-0.0175645
0.043935
-0.0164488
-0.0225186
-0.0189416
0.0402987
0.0764464
0.0684352
0.0185553
-0.025297
0.0113053
0.0298998
-0.0264183
0.0147899
-0.032037
-0.0438611
0.0131763
0.0428435
0.0208466
0.0141707
0.0137891
-0.0102342
0.0660011
0.0173408
-0.0782267
0.0148232
0.0135657
0.0155328
-0.0186695
0.0167596
0.0121753
0.0111534
-0.0378769
-0.00791441
-0.0369547
0.0662716
-0.0343135
0.0189542
0.0441896
-0.0382354
-0.0261733
0.0412898
0.000599655
-0.0109002
0.0326758
0.0475213
-0.0198248
0.00759194
-0.043543
-0.0177664
0.0340071
-0.00429445
-0.0423295
-0.021918
0.0512057
-0.0111124
0.00495824
-0.0567316
0.0284827
0.00713279
0.00643589
0.0699351
0.0344548
0.0277779
-0.0838925
0.026371
-0.0247343
0.00777418
-0.0124794
-0.0566648
0.0649721
0.0540322
-0.0443211
0.0403261
-0.0129569
0.00134084
-0.0210254
-0.0122872
0.00250713
-0.0397419
-0.066549
-0.0028076
0.0107175
0.0110206
-0.0237788
-0.0333962
-0.0362603
-0.0377259
-0.0233327
-0.00847278
-0.044455
-0.0163438
0.00831157
0.0378733
-0.0210994
-0.0261824
-0.0355886
0.0158766
0.0196739
-0.0349585
-0.018034
-0.0131857
0.00610286
-0.00158961
-0.0274659
-0.0538121
-0.0520624
-0.0139845
0.0441346
0.0393707
-0.0201398
0.016707
-0.0281642
0.0178913
-0.0304694
-0.0211587
-0.014022
-0.00769863
-0.06688
-0.0316144
-0.0405867
-0.00310635
0.0130552
-0.0410324
0.00925841
0.0167207
-0.00277885
-0.0460136
-0.0458001
-0.0272067
-0.095082
-0.0116893
-0.0556055
-0.0425529
0.0333403
0.0202269
-0.0639758
0.0140214
0.0587716
-0.0139474
0.0757827
-0.0130884
-0.0513457
-0.0885326
-0.0268439
0.0249103
-0.0259619
-0.00556954
0.0313586
0.0802595
0.00972573
0.00484717
0.00345163
-0.0430548
-0.0291028
0.0190071
0.0579042
0.0333763
0.0301799
-0.0191832
-0.00629076
0.00411963
-0.0617875
-0.0982139
-0.0240163
0.0149771
-0.00248016
-0.0336351
0.032297
-0.00675537
-0.0286977
-0.0141961
0.025398
-0.037393
-0.0151701
-0.0267478
-0.00836682
0.0497172
-0.075515
-0.0782913
0.00305211
0.00607016
-0.0323621
-0.113493
-0.0436738
0.0316777
0.00840314
0.0198775
-0.016925
-0.00779159
-0.0424702
-0.0921699
-0.0273486
0.0169694
-0.0250651
-0.0238178
0.0954868
0.00797431
0.0937952
-0.0642867
-0.0116985
0.00941195
-0.0917793
-0.0221168
-0.0131313
0.105437
0.044475
0.0523082
0.0407728
0.0344419
0.0145289
0.0524795
0.0347016
-0.00466985
-0.00118753
0.0446666
0.0683785
-0.0110369
0.0780116
0.073615
0.0267094
-0.0113862
0.0316461
0.0224052
-0.060933
0.0182038
-0.0391934
0.00278142
0.019938
0.0385782
0.0107873
-0.0154915
0.00677003
0.00485156
0.00577404
0.0355256
0.0509843
-0.0249707
-0.0153088
0.0458432
-0.0441268
0.0386026
-0.0478528
-0.0338464
-0.0239007
-0.0246143
0.0829264
-0.0379073
0.00842284
0.0296933
0.0314341
-0.0323699
-0.0157652
0.0178989
-0.0425653
0.0124255
-0.022023
0.0371749
0.0193574
0.0192765
0.0639989
0.0673914
0.0463251
0.0298117
-0.0255966
0.0209028
-0.00832215
-0.0180499
0.0117738
-0.0518934
-0.0559395
0.0338331
0.0408046
0.037757
-0.0532268
-9.17607e-05
0.023056
-0.0552653
0.0142335
-0.0556589
0.02217
0.0309139
-0.0260652
-0.00117641
0.00961773
-0.0308192
-0.00559583
-0.00735486
-0.0278542
-0.0187842
-0.0940177
-0.00747322
0.0316247
-0.0584559
0.0496091
0.0162635
-0.055216
0.0171628
0.0166282
0.0317998
-0.00916791
-0.0551478
0.00554925
0.0134672
-0.00802942
0.0397191
0.0492482
0.015563
0.0200449
0.0338456
-0.0632138
0.00357392
0.000688034
-0.0618479
0.0800953
0.135555
0.116401
0.0433504
-0.0170397
0.0205005
0.00381963
0.00443166
0.0620879
0.0172666
0.0405672
0.0376384
-0.00240129
0.0849908
0.0225404
-0.00725044
0.019207
-0.00881851
-0.0262974
-0.0230193
-0.0816469
-0.0523971
-0.0806356
0.0161649
0.0366155
0.0216597
0.119999
0.0144678
-0.0473951
-0.0362269
-0.0191988
-0.0360035
-0.0359957
0.0525183
-0.00373079
0.000919665
0.0134946
0.0585099
-0.0311719
0.0201461
0.0308457
0.0186769
-0.0235501
-0.0096169
-0.0384034
-0.0300449
0.0141075
-0.0290223
0.0148684
-0.0218743
-0.00357259
-0.00599684
0.0233401
0.013447
-0.045511
0.0730449
0.0125265
0.066387
0.0253676
0.0625405
-0.023883
0.000410629
0.0287269
0.0138434
0.0287077
0.0363956
0.03792
0.0739762
0.0519659
0.0160343
0.0171533
-0.000444598
-0.0340418
0.0134788
-0.0113287
0.0489419
-0.0136342
0.0221855
0.0439415
0.00829304
0.0140124
0.0130867
-0.0407059
0.00713558
0.0179674
0.00229742
-0.03237
-0.0310719
-0.0681743
0.0410526
0.034756
0.0169317
0.0223022
-0.0358434
-0.0177092
-0.0342927
-0.0256382
-0.0265946
0.0526111
-0.00429014
-0.011077
0.00293005
0.00571022
-0.0190375
0.00355451
-0.00639944
-0.0369464
0.0249075
-0.00532833
0.0756401
0.098908
0.0348288
0.00602611
-0.00106911
0.0331551
0.0138082
0.031857
-0.0737823
0.020388
0.0920386
0.0130085
0.0263778
0.00806886
0.0637286
0.106332
0.0333581
0.0611009
0.0205667
-0.00514868
0.00106373
-0.0137427
-0.0371847
-0.00541566
-0.0468863
-0.00548318
0.0789757
0.0403012
-0.0308939
0.0407923
-0.0161448
-0.0696028
-0.0535828
0.0134509
0.0348348
-0.0406519
-0.0319632
0.0799875
-0.000605292
-0.00704267
0.0772807
0.00818875
-0.04027
0.019308
0.0100235
-0.000514454
-0.00739389
0.00952399
0.0390983
-0.0520234
-0.00179948
0.0345189
-0.00930501
0.0471078
-0.0400748
-0.0284842
-0.0956888
-0.0620883
-0.0215312
0.0402348
0.0379736
0.00365392
-0.0296961
-0.0940703
0.0560413
-0.0305564
0.0113071
0.0316669
0.023981
-0.0200705
-0.0181323
-0.00416618
0.00093516
-0.0312403
0.00545611
-0.00588928
-0.01765
0.0453404
-0.0369812
-0.0163551
-0.00350443
-0.0520952
-0.053297
-0.0392533
-0.0338004
-0.00189798
0.0219394
-0.0522705
0.09807
0.0147741
-0.0347872
-0.0334331
-0.0192029
-0.11125
-0.0102764
-0.053196
-0.0271483
0.0301775
-0.0433484
-0.00731408
0.0170494
-0.100292
-0.0368483
-0.0349777
0.0187582
-0.07519
0.0165371
-0.023985
-0.0309124
-0.00122588
-0.064938
-0.00896749
-0.0969513
-0.0485289
-0.0605384
0.022373
-0.0268276
0.0193339
-0.00395251
-0.000863116
0.0070679
0.0628085
-0.0552227
-0.0283471
0.0384404
0.0530608
0.0215459
0.0168619
-0.000980547
-0.0299687
-0.0278415
0.0535894
-0.0170399
-0.0193455
0.0283564
0.0118785
-0.0345753
-0.0204748
0.0126166
0.0301825
-0.0353858
-0.0264053
-0.0208214
-0.0192147
0.00355565
-0.0618855
0.022702
0.107833
0.016038
0.0322772
-0.0228152
-0.0119893
-0.0505514
-0.00285127
0.0619949
-0.059596
0.0106243
0.0561926
0.0525793
-0.0170057
-0.0257966
0.0293238
0.011583
-0.0317907
0.00613537
0.0306652
-0.00372775
-0.039532
0.0468212
-0.0146048
0.017879
0.0545288
0.0727449
-0.0284449
-0.00970767
-0.0308066
0.0101163
0.0296915
0.0082406
-0.0044214
-0.0427785
-0.0142615
-0.0207961
0.0517575
0.0154394
0.0663376
-0.0111092
0.0068622
-0.0114278
0.00806259
-0.00184968
-0.00719941
0.00784831
0.0323275
0.0493704
0.0434294
0.0130024
0.0250627
-0.015683
-0.0012494
-0.00591767
-0.00201274
0.0466522
-0.00168393
-0.0127499
0.011743
0.0285905
0.0364833
-0.0142786
0.0479552
-0.0437817
0.0427486
0.000612169
0.00329248
-0.0890281
-0.0248181
0.013035
0.00166127
0.0108598
0.0489877
-0.000521134
-0.0248385
-0.00422188
-0.0069609
0.0278031
-0.00877388
-0.0398758
0.0303858
-0.00289649
0.0018865
0.10522
-0.0180261
-0.0400394
-0.0304955
-0.0218807
0.0736726
0.00370134
-0.0372262
0.029392
0.00615617
0.0275217
-0.00523821
-0.018702
-0.0500874
-0.0406124
-0.110153
0.0248173
0.0302208
-0.00143824
0.0721157
0.020075
-0.00464269
-0.00342413
0.0313701
0.00224207
-0.0129274
-0.0159754
0.0314324
0.00929331
-0.000728963
-0.0352496
0.0297395
0.0255181
-0.0486375
0.00651422
0.00286181
0.0803665
-0.015591
0.0491591
-0.0123599
0.0232681
0.00120181
-0.0337403
0.0149282
-0.024024
0.0630538
-0.0340803
-0.0150938
0.0116593
-0.0350058
0.0363601
0.0193725
0.0222581
0.0158408
0.0444134
0.0333396
-0.0685879
0.0162103
-0.0419874
-0.0287552
0.0291076
-0.0142682
0.0536342
0.0533432
0.00203318
0.0153095
0.0144336
-0.0898968
-0.0596192
-0.0449826
0.0162851
0.0317441
0.0384491
-0.00212688
0.00324848
0.00310301
0.0762853
-0.00694463
-0.00255305
-0.0932555
0.0270056
-0.0108618
-0.0831526
-0.0142313
0.0257703
0.0665035
0.0568318
0.0193326
0.0623375
-0.0195957
-0.0768759
-0.0176935
0.00772112
-0.0781512
-0.0619329
0.0797234
-0.0283527
-0.0299004
-0.0307044
0.0337792
-0.0286607
-0.0217042
-0.0349805
0.0618248
0.0274715
-0.00236907
0.0102891
-0.0402692
-0.00452061
0.0135732
0.0217138
0.0267171
0.0421093
0.011426
-0.0349711
0.0253135
-0.00363581
-0.0479975
0.0227581
-0.00884856
-0.0404263
-0.00546146
0.010531
-0.00978457
0.0339791
0.0211736
-0.0262225
0.00401533
-0.0468749
-0.0554756
0.0121833
0.0174411
-0.0446264
-0.0173035
0.0154333
0.0537334
0.0261611
0.0335525
0.0540625
0.0166875
-0.0116777
0.00769253
-0.0244844
-0.0023456
-0.0242588
0.0659856
0.0652352
0.0414118
0.0669943
0.00294463
-0.00306283
0.0411992
-0.0272145
0.0353398
0.00264188
0.0307697
0.0365117
0.050098
-0.00297774
0.0660039
-0.00178693
0.032187
-0.025237
-0.0344061
-0.0342491
-0.0140775
-0.00264205
-0.0710624
0.02677
-0.046919
0.0433082
-0.00466542
0.0391431
0.015144
-0.0226712
-0.0351557
-0.00678674
-0.0142103
-0.038241
-0.0223482
-0.0104327
-0.0587273
0.0128325
-0.00363347
0.0577334
0.0349885
0.0238009
0.0402941
0.0131863
0.00273565
-0.0451829
0.027619
-0.0224775
-0.0113477
-0.0651082
0.0708873
0.0339355
0.0322227
0.0170297
0.0159935
-0.0989892
-0.0668044
0.00749254
0.0525122
0.00712678
-0.0834239
-0.00108871
0.00974777
0.0247283
0.0300533
-0.0669172
-0.125951
-0.0591929
-0.0464623
-0.0293393
-0.0229737
-0.0360795
-0.0166058
0.00418659
0.0295871
0.0194499
-0.00859236
0.0218464
-0.05961
-0.0415552
-0.0602678
-0.085439
0.0345158
0.0214523
0.0074893
0.00820491
-0.00272562
-0.0197708
-0.0521053
0.0225096
-0.0942442
-0.0222932
0.0464031
-0.00398387
-0.027301
0.0720399
0.00955421
-0.00307179
-0.0103395
-0.0466927
0.00614339
-0.0626759
-0.00173
0.00480779
0.048018
-0.0203819
0.0150832
0.0560944
-0.0451627
-0.011706
-0.00212169
-0.0267896
-0.0107523
0.0390076
0.0522172
0.0449769
0.0110469
-0.016196
-0.02064
-0.0159036
-0.00848435
-0.032213
-0.00308357
0.0518156
0.076792
0.0492941
0.0481709
0.0059426
-0.0387824
0.00512261
0.0329124
-0.0597256
0.00854093
0.000112685
0.0454849
0.0292217
0.0124535
0.101935
0.010542
0.0303735
-0.0340104
0.0105431
-0.057633
-0.105813
-0.100944
-0.0473038
0.0175791
0.0711019
-0.00923626
0.012947
-0.0127043
0.0118162
0.0175521
0.00102467
-0.0754238
0.0188598
0.0501787
-0.0240271
0.00261451
-0.038657
0.0141591
-0.00841436
-0.0496456
-0.043567
-0.00682049
-0.0536393
-0.0394822
-0.0327895
-0.0416514
-0.047165
0.0157155
-0.0125309
0.00655969
-0.0353027
0.0484413
-0.0372937
-0.0191599
0.048417
0.0852792
-0.0438228
0.0104894
-0.0268186
-0.0115466
0.0997552
0.0421389
0.0554343
-0.0213596
-0.0358722
0.00764803
0.0567903
-0.000220129
-0.0207632
0.00247236
0.0550084
-0.000266271
0.0692303
0.0791903
0.0328032
0.0809719
-0.037814
-0.019497
0.0137791
-0.0136223
0.00320838
0.036986
0.0472916
0.0278795
0.0680043
0.00868616
-0.00353637
0.0146687
-0.0413389
0.00634246
0.0356994
-0.042644
0.0249844
-0.0464458
0.0343166
-0.0294936
-0.0442154
0.0330448
-0.0066237
0.0101217
-0.00142221
-0.0258996
-0.0363705
0.0315941
0.0402145
0.0361187
0.00491262
-0.0909112
-0.0140836
0.0135581
0.0374713
0.0137302
0.00032631
0.0561105
-0.0345982
-0.0242814
0.0321764
-0.0378803
0.00826448
0.0294123
0.0234148
0.0387933
-0.0255147
0.0269182
0.00309764
-0.0246219
0.000895603
-0.100606
0.0404978
-0.0364321
-0.00346051
0.0358576
0.0232111
0.0638718
0.12158
0.0757446
-0.0390064
0.0161799
-0.0820374
0.0185253
0.0105468
0.0460314
0.0076385
-0.0712589
0.0152169
0.0035612
-0.0145781
0.0199599
-0.0255141
0.0280275
0.00774924
-0.0192129
-0.0240402
0.062105
-0.0257124
-0.00889635
-0.052189
0.0108325
0.0245361
-0.0693688
-0.00644343
-0.0116781
-0.0627157
0.0186121
0.0226637
0.0692923
-0.0645326
0.0686982
-0.0174578
-0.029418
0.00297477
0.0541436
0.0456218
0.0465476
-0.00723754
0.0104284
-0.019859
0.0144687
-0.0359919
-0.0310157
-0.0200897
-0.0281307
0.054065
0.0353725
0.0368893
0.0280336
-0.0228244
-0.0535888
0.0268647
-0.0208261
-0.0374887
0.00873559
-0.0119245
0.0651216
0.0748999
0.0125794
0.0664073
-0.0634314
0.00218174
0.0757575
0.00327939
-0.020596
0.0169332
0.0393652
0.080077
0.0793923
-0.00970099
-0.0956569
-0.0298875
-0.00840897
-0.0170813
0.0480853
0.0179135
-0.00733806
0.0380192
0.0876718
0.020186
-0.0315094
-0.00107134
-0.00132168
-0.0586216
-0.0222217
0.0117317
0.0322101
0.0140497
0.0450335
0.048748
-0.0290254
-0.0167901
-0.0129452
-0.0226442
-0.0017895
-0.00825903
-0.0768212
0.0070862
-0.0124099
-0.0358421
-0.0228078
0.00525673
-0.00286398
-0.0606546
0.039933
0.00764452
0.0284941
-0.00335182
-0.00266313
0.0312502
0.0117307
-0.0429358
0.0140275
-0.0328606
0.0565255
0.0786609
0.0135762
-0.00705503
0.0166113
0.0036324
-0.0318203
0.0618491
0.018486
-0.00134822
-0.0326793
0.00122703
-0.0518786
-0.0325769
-0.0688576
-0.0169908
-0.090517
-0.0067684
-0.0522438
0.0378505
-0.0158528
0.0137756
0.00278378
-0.0184884
0.00110969
0.0330788
-0.0620155
0.0223149
0.0204386
0.024728
0.0491754
0.0113208
0.0376426
0.0630811
-0.0702266
0.0594885
-0.0241973
0.00597967
0.0983957
0.0298661
-0.026491
0.0320692
0.0529171
-0.0236982
0.00842751
-0.0351213
0.0548587
0.0439031
0.0613687
0.0637673
-0.023798
-0.00862702
-0.0554951
0.0675304
0.014303
0.0531697
-0.004635
0.078068
0.0380527
0.0745956
0.00801113
-0.0328599
0.0196915
0.0333692
-0.036896
-0.0103982
-0.0236739
0.0440147
0.0507064
-0.00735477
0.0296377
-0.0174095
0.00332429
-0.0231884
0.0244485
-0.0314091
0.00236708
-0.0609503
0.0225947
-0.0647688
-0.0233789
0.00194521
-0.0748239
0.000231648
0.0438355
-0.0199008
-0.0213263
-0.0227022
0.00033826
0.0405622
0.0344115
-0.00673776
0.00613518
0.00457666
-0.0210473
-0.0194549
-0.018825
0.00922656
0.00660875
-0.0527201
0.0522804
0.0127731
0.0316103
0.0112505
-0.00919906
0.0172144
0.0449456
-0.0451346
-0.0133354
0.0412584
-0.0433375
0.029482
0.088721
-0.0398139
-0.024442
-0.030328
-0.0034244
0.00146345
-0.0311643
-0.00488066
0.0175516
-0.0553266
-0.0210273
0.0710818
0.0076549
0.0355089
-0.00507182
0.0371783
-0.0260333
-0.0178198
0.0537575
-0.0177694
-0.026616
-0.00728405
0.0374603
0.050395
0.0585667
-0.0271488
-0.0300568
-0.0437269
-0.0367575
0.0328807
-0.0408988
-0.0302686
-0.0790988
0.00815365
-0.048932
-0.00733983
-0.0445659
-0.00952209
0.022482
0.0452822
0.0252644
0.0986185
0.0226337
0.0075153
0.0397637
0.00661498
0.0257845
-0.0067679
0.00661613
-0.0146663
0.015048
0.0332959
0.0437472
-0.0189657
-0.0748726
-0.0377498
0.0231689
-0.0380656
0.0318946
0.00856766
0.0480926
0.00658591
0.0228996
0.0320931
0.0704289
-0.0167881
-0.0606467
-0.0141284
-0.0151672
0.0352587
0.0330469
-0.0337158
0.0544458
0.0369146
0.0511333
-0.00589102
-0.0477685
-0.00679995
-0.0483811
-0.0350926
0.0167586
0.0203232
0.0468552
0.0513968
0.0727672
0.0364028
-0.0444917
-0.026349
0.00417873
0.0406225
0.07999
-0.015937
0.00404169
0.0217677
0.0833396
0.0350888
0.0155445
-0.0499344
0.0810411
0.0337189
0.0633809
0.0217466
-0.0316491
0.0664058
0.0495367
0.0832753
0.0133525
-0.0144861
0.0906608
-0.0225481
0.0728819
0.0779256
-0.0336542
0.0126923
0.00555241
0.0143565
-0.0387574
0.0573561
0.0252129
-0.00597916
0.0343872
0.0413119
0.0691895
0.0493619
0.0618255
0.0316444
-0.011098
0.003868
-0.0394805
-0.0679583
-0.103999
0.0146152
0.0327102
0.0147342
0.0275444
0.0399483
-0.0489612
-0.0303273
-0.0118829
-0.0361683
-0.0292263
-0.0070408
-0.0230696
-0.00353328
0.0159724
-0.00665743
-0.0297284
-0.0261779
-0.0527614
-0.0561992
-0.0175059
-0.013797
0.00193328
0.0828545
0.115041
0.050436
0.0740299
0.0202477
0.00896981
0.0659146
0.0522119
-0.0198981
-0.0222476
0.0346349
-0.00761425
0.0480381
0.0109908
0.0517444
0.025019
-0.00431389
0.0156683
-0.0318916
-0.00925768
0.012024
0.0191412
0.0119667
0.0670023
0.0312222
0.0424768
0.0163097
0.0135903
0.0158154
0.016087
0.00100055
0.0274464
0.0384157
0.0210201
0.0426304
0.00757412
-0.0263073
-0.0157007
-0.00230716
-0.0226277
0.0378617
0.0375606
0.000803702
0.0328716
-0.0333605
-0.0234982
0.0103766
-0.010335
-0.0874235
-0.00816897
-0.0315667
-0.0680992
-0.0684163
-0.0378524
-0.0428204
-0.0185712
0.0586069
0.00844289
0.0249951
-0.0412951
-0.0105638
0.0399393
0.00292007
0.0398039
-0.0217217
0.0140665
-0.0413625
-0.051667
-0.0351524
-0.0202824
0.0103568
0.0266696
-0.00443479
-0.0271954
-0.00668609
0.0382444
0.0364948
0.0837107
0.0296342
-0.0300338
-0.0156135
-0.014312
0.0388726
-0.0160824
-0.0117905
-0.0487764
0.0322458
0.00696586
0.0469247
0.00111767
-0.0360424
0.0282168
0.0246214
0.0304752
0.00888766
-0.0144889
0.0304427
0.0044447
0.0325004
0.0138087
-0.0132487
-0.00784436
0.055986
-0.0013714
-0.0252015
0.0213575
-0.00578411
-0.00285399
-0.0401338
0.00602425
-0.0114245
-0.0407604
0.0283345
0.0532973
0.000792193
0.0038744
-0.013325
0.0598727
0.0309772
-0.0344714
0.0799423
-0.0262752
-0.0599644
-0.0711717
0.010533
-0.0592401
0.0144296
0.0582914
-0.0403483
0.0106904
-0.0246391
0.038665
-0.047657
0.00463011
0.0546825
0.00901385
0.00898415
-0.0264435
0.0113584
0.00916911
-0.0369419
0.0086276
-0.0111253
0.0302669
0.0377534
0.00931012
0.0149922
-0.039284
-0.0218844
-0.0155654
-0.0342746
0.0164005
0.050755
-0.0197049
0.0642785
-0.0211145
0.0425098
0.039476
0.0467731
0.0278863
0.0444802
-0.0543265
-0.0514875
-0.0750851
-0.00195768
0.0290029
0.0667475
0.0827928
-0.0132199
0.0148649
0.00483785
-0.0937898
-0.047984
-0.0377149
-0.0237121
-0.000138763
-0.00918625
0.0299667
0.0472984
0.00688007
-0.0493309
0.0317386
-0.0793285
-0.0154512
0.0370109
-0.0318101
0.0574965
-0.0159398
-0.0285142
-0.0360549
0.0675522
-0.00874655
-0.000568597
0.031405
-0.025106
0.0410052
0.00779061
0.0970725
0.00839511
0.0381607
-0.0366801
0.0453965
-0.0371001
-0.0341
0.0029747
0.0653642
0.0154205
-0.0552046
0.0299923
-0.0413674
0.0624338
0.00421825
-0.0276208
-0.036123
0.0249851
-0.0371762
0.000346248
0.0408001
-0.0368163
0.0251379
0.0675153
-0.00589185
0.0728593
0.0358692
-0.062464
-0.0273053
0.0168088
-0.0188032
-0.0354379
-0.0502606
0.0562261
0.065323
0.00215518
0.0133349
0.0576
-0.00153075
-0.0293939
-0.0112016
-0.031673
-0.0281977
-0.0395531
0.0176241
-0.0246346
-0.00938118
0.00461774
-0.0208756
0.0151541
-0.0300624
0.0279194
0.0229448
0.015344
-0.058487
-0.0170675
-0.0153092
0.0261295
0.0442496
0.0160701
0.0081756
-0.0548293
0.0243692
-0.020457
0.00293673
0.0426334
0.0235156
-0.0053427
-0.0588316
0.00299103
0.039581
-0.0110218
0.0615356
-0.00830637
0.060475
-0.00887379
0.0697332
-0.00815872
0.0410275
0.0308394
0.0302697
-0.036698
-0.0234575
0.027474
0.0846995
0.0101754
0.0531361
0.0563874
-0.000253903
0.0407844
0.0529269
0.0479063
0.0403981
-0.0406493
-0.0103304
0.0516548
0.0256086
-0.0124211
-0.00421229
0.0350762
0.0164255
0.0314811
0.0789692
0.0185508
-0.0174593
0.0232449
0.0418882
0.0433589
0.0060731
0.0192389
-0.0231456
0.109052
0.00890119
-0.0270545
-0.0166594
-0.0231957
0.0211295
0.0325446
0.00623003
-0.0087947
-0.0289606
-0.00198817
0.0146566
-0.020664
0.00790212
0.00407917
0.0154589
-0.0128945
0.0317008
0.00138738
-0.0780999
0.00493264
0.0625839
0.0212463
-0.012752
0.0311057
-0.0746824
-0.0780062
0.0399248
0.00423112
0.0156493
0.0439464
-0.0437965
-0.00739607
0.00684806
-0.0320931
0.0726598
0.00594847
-0.0401677
-0.063619
-0.0311579
-0.0637324
0.0336997
-0.0194167
0.00523293
-0.0265582
-0.0274422
-0.018114
0.0385003
-0.0365818
0.027474
-0.0179385
-0.0285599
0.0206775
0.0059004
-0.0271389
-0.050529
-0.0130307
-0.0239014
-0.011298
-0.0397331
-0.0226212
0.0348444
-0.00758972
-0.0353626
-0.0949288
-0.0201089
-0.0437352
-0.00190413
0.0353463
0.00626252
0.00437488
-0.0175608
0.0557044
-0.015482
0.0203441
0.0174639
-0.0356608
-0.0923642
-0.00684729
-0.0168168
-0.101753
-0.0179889
0.0699822
0.0451243
-0.0214432
-0.0147131
0.0209697
0.0598506
-0.0438467
-0.0334573
-0.00201021
-0.00561456
-0.0399895
0.0234871
0.0957442
0.0223825
0.0712686
0.0468111
-0.083401
-0.0554298
-0.0715977
0.00126243
-0.0194083
0.0317279
0.118653
-0.000948921
-0.00445255
0.0757199
0.0324218
-0.0225246
-0.00743126
-0.012113
-0.000899678
0.0955999
0.0192387
0.0339032
0.0503066
0.0211681
0.0245552
-0.0848263
-0.0256383
-0.0191973
-0.00536938
0.0138493
0.0629957
-0.028983
-0.0182604
-0.0118992
0.00631727
-0.0170872
-0.0492988
0.0163511
-0.0170391
0.0896278
0.0759733
0.0699404
0.0378048
-0.0453322
0.0193403
0.0281938
-0.0148427
-0.0397937
-0.0450965
0.0660116
0.165495
0.136541
0.0590276
0.0808669
0.0165592
-0.00955131
0.0263865
0.0208453
0.04718
0.0289056
-0.0132649
0.0981247
0.0739477
0.134359
0.0706463
0.0518103
-0.00953233
0.0302783
-0.104354
-0.0449473
-0.0630797
-0.0424901
0.036336
-0.0137085
-0.00625956
0.0336505
0.00797621
0.0252159
0.0425354
-0.0203845
-0.0163686
-0.0133996
-0.00726274
0.0262351
0.0366549
-0.0419458
-0.0106985
0.0186601
-0.00943681
0.0287727
0.0549497
-0.0420687
0.0201061
-0.0444365
0.0335307
0.0125722
0.0268246
0.0410892
-0.0362207
0.0522116
-0.0142654
0.0463536
0.0327535
-0.0108309
0.0187594
-0.0128687
0.00534227
-0.00224316
-0.0479062
-0.0569856
0.0156538
0.0233346
-0.00710045
0.0272157
-0.0101197
0.00042467
0.0661054
-0.0185413
-0.0753092
-0.000205946
-0.0104018
-0.002473
-0.0529364
-0.0250126
0.00198042
-0.00198439
-0.0536539
0.0167437
0.0149276
0.0204709
-0.0320094
0.00244861
-0.00247117
-0.0600551
-0.0206971
0.0473022
-0.00644762
0.007308
0.0186108
-0.00260363
-0.0387745
-0.0453994
0.0391298
-0.0187895
0.0190978
-0.0225764
0.0407092
0.0128476
0.000813842
0.0306602
0.0208804
-0.0430907
-0.0203745
-0.0515012
0.0256701
0.00812774
-0.0291379
-0.0736893
0.0411027
0.00662801
0.0766216
0.013455
0.0543205
0.0132585
-0.0400391
0.0365286
-0.00268032
0.0341007
-0.0154897
0.022723
0.0388843
0.0628421
-0.023429
0.0217006
-0.0016549
-0.0188687
-0.0783523
-0.0244288
0.039778
-0.0348204
0.0429828
0.00634234
0.04196
0.0244909
0.0522292
0.0149767
0.0281215
0.00546287
-0.0133334
-0.0748444
-0.03458
-0.0170162
-0.0301112
0.0560005
0.0675551
-0.0267432
0.0645381
-0.052943
0.00627733
-0.0640521
0.0557819
0.0193308
0.0139875
0.083573
-0.0286121
0.00533568
-0.0276215
0.0131756
0.0170505
0.0289
-0.0185071
0.0453161
0.038586
-0.0175926
-0.0501416
-0.058281
0.0399364
-0.0257034
-0.0581075
0.0377792
0.0136232
0.067531
0.0516175
-0.00824759
-0.00392974
-0.0115094
-0.0272884
-0.0188646
0.034426
-0.0550601
0.0281682
0.0632655
0.00815395
0.0185587
0.0162741
-0.0566845
-0.0596096
-0.115612
-0.0213014
0.000354484
-0.0779504
-0.0432297
0.0418938
0.00961096
0.0333953
-0.0284888
-0.0345789
-0.0400867
-0.0156036
0.017605
0.0193996
0.0160621
0.0267519
0.0139229
0.00797264
-0.0128437
-0.0132263
-0.0307749
-0.02576
0.0669155
0.0164292
0.0534461
0.0447917
0.0195108
0.0149126
0.079403
0.0466438
0.0237223
-0.00752897
0.00720399
0.0514798
0.0479397
0.0872207
0.0132016
0.0141662
0.00309834
0.0642385
-0.00619828
0.00604049
-0.017761
-0.0016761
0.0356535
-0.0140389
0.0234538
0.0224175
-0.0099732
-0.00604318
-0.0221863
0.0400069
0.0305121
-0.0024803
0.0108116
0.00640956
-0.016548
0.0338368
-0.0205667
0.0294184
0.0383105
0.00197594
0.040566
0.017633
0.0454281
-0.0180543
-0.0392436
-0.0259493
-0.0122481
-0.00752642
0.042148
-0.0593478
-0.0189
-0.0644052
0.028844
0.00197065
0.0222701
-0.0448796
0.0179926
-0.0355397
-0.0138497
-0.00896655
0.0701135
0.0549047
0.10251
0.0430366
-0.0276573
-0.0286344
-0.0400657
-0.00807074
-0.0155516
0.016272
-0.0825195
0.00403977
0.0445733
-0.00770668
0.0915061
-0.00933688
-0.00451464
0.00493608
-0.0376347
0.0280255
-0.017922
0.0213902
0.0125961
0.0046238
0.0598738
0.0292687
-0.0348375
-0.0604612
-0.00311989
0.0340001
0.0151212
0.0200793
-0.117276
0.0307903
0.0390853
0.0232423
-0.020988
0.000816072
-0.0326478
-0.0349611
-0.029472
-0.0138244
-0.0478189
0.0365634
-0.0706695
-0.0125854
0.0365261
0.041407
0.00930474
-0.0336029
-0.00462099
-0.0542808
0.0493073
0.0276575
0.0282331
-0.0177183
0.0786351
0.0116452
-0.0569827
0.0962069
-0.0346183
0.00951018
-0.00201205
0.00583022
0.00333116
0.0275979
-0.00699193
0.0108745
-0.0296993
0.0162723
0.0213219
0.0175676
0.0691127
-0.0358544
0.00682714
-0.0163314
0.0632306
-0.0162756
0.0444343
-0.00789452
-0.0321256
-0.0476454
-0.0375956
0.0156135
-0.0827818
0.0577725
0.00187541
0.0174474
-0.05109
0.052556
-0.0265778
-0.0250628
0.0142528
-0.0546598
0.0244084
-0.00304412
0.0036804
-0.0153892
0.0197842
-0.031329
0.0162168
0.00479228
0.01801
-0.00101937
0.0194499
0.0157052
-0.00255943
0.0267194
0.00472457
0.00423232
0.0261496
-0.0430888
-0.0203736
-0.0238837
0.0216168
-0.0353294
-0.0391157
-0.018969
-0.074147
-0.0114438
0.0280151
0.0120396
0.0240458
0.0172783
-0.0109963
0.00716973
0.0523849
-0.060878
-0.000483179
0.00263252
0.0511001
0.0115313
-0.0100925
-0.0303179
0.0455903
0.0633689
-0.0064405
0.0599319
-0.00485401
0.0556174
-0.0273897
0.00742682
0.00100324
-0.00476029
0.0076346
0.0207992
0.0436813
-0.00369398
0.00915464
0.0222351
0.0484615
0.0129974
-0.0248938
0.00830699
0.0343407
-0.0378431
0.0222739
0.0499966
-0.0316386
-0.0760701
0.0403084
0.0481607
-0.02677
0.0183607
0.0279139
-0.0446653
0.0413501
0.0047296
-0.0352233
-0.0205419
0.0213822
-0.0285891
-0.0253292
-0.00364724
-0.00157273
0.0101903
-0.0106169
0.015238
-0.0513995
0.0422955
0.0617013
-0.0641122
0.0441275
-0.050577
-0.0609127
-0.0562976
-0.0512708
-0.0155494
0.0155864
-0.0392423
-0.00477552
-0.0603545
-0.0400283
-0.0156092
-0.0322385
0.0567967
-0.000922792
0.0120851
-0.0404381
-0.0377585
-0.0316021
0.0292099
0.0671324
-0.0091806
-0.0521104
-0.0286237
0.00714544
-0.0458077
0.0762908
-0.0403635
-0.0171906
0.0188228
0.0493363
-0.00217879
0.0258756
-0.00555847
0.0421607
0.0514534
-0.0283567
-0.0326223
-0.0506538
-0.0130671
-0.0352353
0.00998036
0.0187841
0.0272032
-0.0343683
-0.0344469
0.0459763
0.0473953
0.000498
-0.0400283
-0.0027773
-0.00609241
-0.0448954
-0.0139274
-0.00737371
0.0140258
-0.0531269
0.00900331
0.0210334
-0.0283983
0.0751071
-0.0620547
0.034781
-0.00565192
0.0394979
0.0501292
-0.0272638
-0.0167516
-0.0300489
0.0219594
-0.0324192
-0.0306583
-0.000176742
0.026381
0.00439346
-0.0253516
0.0239598
0.00621949
-0.0689754
-0.00434117
-0.0243825
0.00234113
0.00453908
0.0337372
0.0135682
-0.0573532
0.0278104
-0.0161999
-0.0328269
0.0561636
0.00472648
-0.0132121
0.0203272
0.0144539
-0.00621299
0.0389624
-0.051454
0.0250672
0.000164481
0.00533433
0.0132284
0.0132768
0.0211383
0.0145094
0.0446972
0.0164425
-0.0210062
0.0108079
-0.027318
-0.0267539
-0.0419226
-0.0210921
-0.0535154
-0.0260753
-0.0133271
0.0109021
-0.00745145
0.0112489
0.0228194
-0.0147857
-0.0158987
0.00638793
0.0202119
0.018899
-0.0204084
0.0222193
-0.0132093
0.02941
-0.0147969
0.0196512
0.00511568
0.00530132
0.00864935
0.0251547
-0.00372852
-0.0367762
-0.0584652
-0.000884823
0.0152954
0.0230094
-0.0119406
-0.0614194
0.0266269
-0.00509452
0.00675676
0.0225666
0.029016
-0.00115128
-0.0494692
-0.0187179
8.10301e-05
-0.0342584
0.000370261
-0.0197573
0.0135015
-0.0146953
0.011764
-0.0267284
0.0384561
0.00776458
-0.0660043
-0.00211318
0.0507512
-0.0258852
-0.00886748
-0.0405221
-0.0206337
0.000966856
0.0434367
0.00600805
0.0424911
0.0120879
0.0232933
-0.0468781
-0.0452355
-0.0325566
0.00197629
-0.00597835
-0.058922
0.0056714
0.0015975
0.0163508
-0.0153098
0.0486918
0.0292587
0.0144138
-0.0327859
-0.0113875
0.0550532
-0.0050703
-0.0136321
-0.0537516
-0.00301456
-0.0342836
-0.00795423
0.0613344
0.013771
-0.042194
0.0282298
0.0317621
-0.0346758
-0.00558222
0.0521764
-0.0326096
0.0375
0.0126667
-0.0465079
0.026899
0.0691853
-0.0511885
0.0877759
0.0173261
-0.00705949
0.0256537
-0.0643667
-0.0696993
-0.0108758
-0.0247628
0.0270235
-0.0141457
0.0601194
0.0047034
-0.0128859
-0.0657329
-0.0397281
-0.0162704
-0.0444428
-0.00554554
0.0218992
-0.0610073
0.0519674
0.0192999
-0.0228905
0.010197
0.00525933
0.105255
-0.0129459
-0.012119
-0.048514
-0.0132887
0.011731
-0.0355809
0.0177486
0.0212498
-0.0109429
0.0348891
-0.00902251
0.061348
0.0200406
0.0227103
0.00879481
-0.0565866
0.00832459
-0.052108
0.0578328
-0.00996174
0.0481293
-0.000540466
-0.0292753
0.0138686
-0.0850693
-0.0158776
0.0241582
0.0274446
-0.00914976
0.037049
-0.00645598
0.0262072
0.0199674
0.028968
0.0163004
0.00486187
-0.0178612
0.0413433
-0.0364146
-0.00754615
0.0316237
0.0325807
0.0399495
-0.0478668
0.0182781
-0.0216176
-0.0461489
-0.0243806
0.0227184
0.0217247
0.043619
0.00605736
0.0154107
0.038091
-0.0334118
0.0789957
0.0304389
-0.0588215
-0.0276396
0.0163776
0.00965239
0.0285762
-0.0238617
-0.012765
0.00908987
-0.0169993
-0.00686493
-0.0188606
0.0353229
0.00654296
0.0292011
-0.0021586
0.0360048
0.0363124
-0.0472957
0.0227423
-0.0850409
-0.0636285
-0.0403291
0.035263
-0.0117456
-0.0185803
-0.0704201
-0.0695909
-0.0575291
-0.0185534
0.0150395
-0.0623309
-0.0135621
-0.0644211
0.046491
0.0128281
0.00472344
-0.0741312
-0.0138644
0.00387139
0.0200272
-0.0821177
-0.0548687
0.0564346
0.0190495
0.0239557
-0.0696795
0.022628
-0.0491963
-0.0310601
-0.00776249
-0.0137293
-0.00685693
0.0240415
0.019543
0.0434555
-0.0386376
0.0616524
-0.002652
-0.0520854
-0.0100067
0.0196541
-0.000905335
0.0700306
0.0273644
0.018107
0.0375161
-0.0199142
0.0162027
0.0200356
-0.000461791
0.0313711
0.0191641
0.0266221
-0.0065946
0.0878875
0.0223771
-0.0287831
-0.0155751
0.0526534
0.0171929
0.05538
0.0327667
0.000982014
0.100561
-0.01434
0.0147937
-0.00844791
-0.00282541
0.0378574
-0.0519878
-0.00150349
0.0278118
-0.0226115
0.00740387
-0.00845754
0.0251778
0.0423942
0.00888953
-0.0539838
0.0357093
-0.0565501
0.0416466
0.0459389
0.0405234
0.024813
0.0695157
0.0354225
-0.011916
-0.0146073
-0.0605307
0.0295656
-0.000868128
0.0105681
0.0416627
0.0122678
0.050528
0.0137853
0.0128418
-0.0390007
-0.0198565
-0.0370412
-0.0417723
0.0114271
-0.0184324
0.0467064
-0.071142
0.014997
-0.00157627
0.00733539
-0.0459473
-0.0209246
-0.0164985
-0.0598745
-0.0408085
-0.0586676
-0.10006
0.0231085
-0.0238182
-0.0333199
-0.00460716
0.0343887
0.0675418
-0.0397476
0.0103531
-0.0483078
-0.0413148
0.0500303
0.0195939
-0.00667123
0.0395362
0.0127786
-0.00691734
-0.0325951
-0.018502
-0.0332824
-0.0392008
0.0168896
-0.0232634
-0.0680789
0.0127407
0.0558096
-0.0328498
0.0258223
0.00282407
-0.000483574
-0.0188623
-0.0715418
0.0455556
-0.043619
-0.0462467
0.0338857
-0.0117507
0.0366607
0.0250063
0.0710626
-0.0115355
-0.0428937
-0.0298172
0.0153054
-0.0268612
0.0428521
0.0581308
0.0374528
-0.0180207
0.0208453
0.0412359
0.0698895
-0.0276314
-0.00719063
-0.00462255
0.035054
0.0485159
0.0137093
-0.0566212
-0.0447285
-0.00205068
-0.025325
0.00568827
0.0160776
-0.0306275
-0.0581507
-0.0590553
0.049239
0.00832298
0.000891199
-0.0252508
0.0119988
0.0680242
0.00810934
0.00191367
0.0168192
0.0170276
-0.0569217
-0.0049926
0.0225849
0.0251613
-0.0379592
-0.0763256
-0.0215283
0.0280832
-0.0395662
-0.0345536
-0.0051433
0.0066114
0.00725555
0.00358615
-0.0184806
-0.0349544
0.0240746
0.0197315
0.00686615
-0.0622642
-0.0231073
-0.0210678
-0.0311876
0.0323296
0.0113071
0.0153946
-0.0093458
0.0170892
-0.00541987
-0.0235612
-0.00614253
-0.00875191
0.0642747
0.011497
-0.0237082
0.0290874
-0.00029898
0.00695269
0.0872247
-0.0134814
-0.00539647
-0.0106971
-0.0271528
0.0614823
-0.0425637
-0.00548057
-0.0353853
0.0242147
0.0201033
0.0188623
-0.0325515
-0.041887
0.0174978
-0.0275354
-0.0240057
-0.00255432
0.0081929
-0.0694947
0.011285
-0.0316689
-0.0408344
0.049544
-0.0124945
0.029419
0.00568926
-0.0151111
-0.0902899
0.00396172
-0.0109018
0.00611063
-0.0289059
0.0417312
0.0323254
-0.00954126
-0.0724135
0.0399976
-0.0201364
-0.114252
0.0154794
0.0155464
0.000163384
-0.00541817
0.00842721
0.0470031
-0.0105639
0.0434056
-0.0578077
0.00925801
-0.0325939
-6.42207e-05
0.0273132
0.00815781
0.0270402
0.048736
0.0324251
-0.00457607
-0.0284156
-0.0252306
-0.00612906
0.0134146
0.0122223
0.016553
0.0933951
0.0263381
0.018357
0.0270685
0.0223976
0.0257427
0.0291195
-0.00310409
0.00921482
-0.0586164
-0.0105999
-0.0220196
0.0090986
-0.035323
0.0106218
-0.000282303
0.0813666
0.0817038
-0.0228053
0.0217458
0.0267759
-0.0323227
0.0339033
-0.0462284
-0.0240273
-0.00438861
-0.0377115
-0.00463446
0.0486696
-0.0150819
0.0410261
0.0180275
0.0522152
-0.00145189
0.0125701
-0.0191496
-0.061192
-0.0599976
-0.00989829
0.0143607
-0.0632873
-0.0122735
0.0489892
0.0234582
0.0176194
-0.0405438
0.0241145
1.9913e-05
0.0154559
-0.0595915
0.00876915
-0.00600924
-0.0612265
-0.016323
0.0222263
-0.0051783
-0.0316113
0.0197564
0.00428995
-0.0226524
0.00975757
0.0171831
0.0452765
-0.015519
0.0371361
0.00555272
-0.0303303
0.0107804
-0.0128384
-0.00706418
-0.0300953
-0.0291332
-0.00623066
-0.068768
-0.0067894
-0.00860159
-0.00760704
0.00303506
0.00269685
0.00550201
0.0372886
0.0161087
-0.00600924
-0.050503
0.0347134
0.0267795
-0.00553239
-0.0024776
0.0122092
-0.0188957
-0.00521906
-0.0482484
0.0253721
-0.0260118
-0.0166138
0.0344358
-0.0132875
0.0143532
-0.0511536
-0.0278743
-0.0433311
0.0426998
-0.0917592
-0.0123696
0.0564557
-0.0589663
-0.0325444
-0.0346303
-0.0734743
-0.0182489
0.0267824
0.0459253
0.00113664
-0.00687527
0.0258176
-0.0270062
-0.020905
-0.0151819
0.0155732
-0.0290148
2.50177e-05
-0.0475219
0.0572831
0.0141488
0.0616965
0.000921549
0.0142739
0.0204461
0.0158403
0.00531513
0.0474566
0.0416263
-0.0409448
-0.000587347
0.0321747
-0.0114472
0.0322052
0.071176
-0.00548386
0.0188974
0.0466448
0.0039381
0.0331608
0.0122144
0.0899672
0.0793996
0.00309067
0.0237082
0.0421651
-0.0157984
-0.0310104
0.0465671
0.0299493
-0.0098254
0.0503037
0.040064
0.0300049
-0.0126711
-0.0171341
-0.00529568
0.0314892
0.0347259
0.027615
0.00195365
-0.0205557
0.0489089
-0.002893
-0.0168797
0.0895035
-0.00325636
-0.0444249
-0.011235
-0.0172306
0.0399808
0.0345724
0.043036
-0.0365309
-0.0528655
-0.00158116
-0.0206906
0.00944519
-0.0439603
0.0414031
0.0361865
0.0101933
-0.0272659
-0.0756299
0.0271912
0.00818578
0.0211394
-0.0182193
0.00142199
0.0610754
-0.00971572
0.126127
-0.0156537
-0.00775157
-0.00205075
0.0544327
-0.0231283
-0.0503917
-0.0951812
-0.0511657
0.0409517
0.0489512
0.0289149
-0.0751988
0.000611519
-0.0501007
0.0348916
-0.011026
-0.0125177
-0.0322896
-0.026202
0.0474882
0.0370071
0.0513592
0.00806054
-0.0238421
-0.0386052
0.0367742
0.105103
0.0236006
-0.0388258
-0.000995614
0.0262358
0.0472404
0.0226439
-0.0131592
-0.0710395
-0.0615178
-0.0173869
0.0113825
0.0072527
-0.0326921
-0.00349825
0.0137391
0.0009532
0.0198785
-0.0181263
-0.0289031
-0.0216198
-0.00171325
-0.00773442
-0.0379907
-0.0301776
-0.0111972
0.0079607
-0.0252692
-0.0606256
-0.032053
-0.044462
0.0173444
0.0065715
-0.00724569
0.00025251
0.0340103
0.03344
-0.0118787
0.00378697
-0.0320953
-0.00469314
0.0122452
-0.024139
-0.00376097
0.0513322
-0.00655244
-0.0105825
-0.0238705
0.00299468
0.0241345
-0.0397365
-0.00733315
0.00908942
-0.0227302
0.0322017
-0.00923771
0.0447086
-0.069143
0.0197969
0.0027826
0.000147934
-0.00758548
-0.0466761
0.0137467
0.044584
0.0165247
0.0286577
0.039469
-0.0428873
0.00137546
0.0417176
-0.00273767
0.0192276
0.0464854
-0.0615766
0.0136559
-0.0212067
-0.0495039
-0.00202192
-0.0297257
0.0300814
0.049037
0.0158953
-0.0425303
0.0021733
0.0701487
-0.025953
0.0113118
-0.0305233
-0.060257
-0.0440059
-0.0471214
0.00524109
0.00644123
0.0430633
0.0210187
0.0104523
-0.0217694
0.00146905
-0.00733474
-0.0557154
-0.0288589
-0.0311683
-0.0470622
-0.0271876
-0.0494704
0.0264195
0.0491686
-0.0378695
0.0232634
-0.0372623
0.00145406
0.025375
-0.0198725
-0.000159113
-0.0192106
0.0113662
-0.00721311
0.0431933
0.00075275
0.0801222
0.0978627
0.0241009
0.0253751
-0.0190816
-0.0729436
-0.0301679
-0.0442029
0.0260094
-0.00954507
-0.0119076
0.0415799
0.0482458
0.00188005
-0.0551354
-0.0595426
-0.0533384
-0.035475
-0.0229317
-0.0503894
0.0674599
0.0558204
0.0116478
0.00710399
0.0177455
0.00724295
-0.0218659
0.00361491
-0.0240272
-0.0483623
-0.0372846
0.0304232
-0.00849594
0.0300166
-0.00228939
-0.041895
0.0359407
0.0235675
0.0254809
-0.0302064
0.0233777
0.0143592
-0.0292304
-0.00877999
0.0211881
0.0173588
-0.0218572
0.0482903
-0.00319757
-0.0357681
0.000744705
-0.0311998
-0.0288871
-0.0150992
-0.0621298
-0.0180697
0.00316777
0.0571734
-0.00782553
0.0277354
0.0117871
-0.0193541
0.0143293
0.0277635
0.0267745
0.00243361
-0.0927582
0.0376347
-0.0138514
0.00660298
0.0205521
-0.00311508
0.0557611
0.00794374
0.0105152
-0.0175856
-0.0730329
-0.0183207
-0.0363606
0.0189016
0.00580074
-0.0337906
0.0503888
0.0458575
-0.0396668
-0.00448207
-0.0336288
0.00636377
0.034279
-0.0253565
-0.0141845
-0.0636077
-0.0219822
0.0150024
0.069369
0.00928382
-0.0433908
-0.067132
-0.0332946
-0.00824701
0.0202454
-0.00224928
-0.019594
0.0455233
0.055187
0.00106227
-0.0159952
-0.0561186
0.0294517
-0.0139478
-0.021945
-0.0753786
0.0151986
0.0304876
0.0231535
0.016865
0.040977
0.0456821
-0.0694732
9.10337e-05
0.100735
0.0368355
-0.0191106
0.0360626
0.0306251
-0.0362185
0.00423242
0.0221588
0.0410791
0.00523302
0.0392145
0.0297831
0.0489658
0.0369195
0.0880152
-0.037369
0.012707
0.0153661
-0.00429048
0.0898411
0.0587575
0.0369322
0.0531845
0.0914304
0.0710061
0.0127153
0.0208373
-0.0485203
-0.024686
0.00238826
-0.000203011
-0.00323845
0.00547909
0.0863065
0.0362665
0.00961079
0.0481254
0.0440429
-0.0630275
0.0634056
0.0161743
0.0092626
0.00205434
-0.00768084
0.0159936
0.0513442
0.0397127
0.0714251
0.0283549
-0.00698615
-0.0220766
-0.022168
0.0263443
-0.0377262
-0.0297783
0.0359534
0.0176924
0.0470359
0.0404449
0.00701777
0.0191775
0.00987838
0.0239736
-0.00774229
0.0493273
0.0317747
0.0314263
-0.0292074
0.0236227
-0.0121175
-0.00888099
0.0439006
-0.0336208
0.0296163
-0.0257901
-0.00869581
0.0669509
0.0346806
0.0311442
-0.0109992
0.0266294
0.0331613
0.00353939
0.0156285
0.0999749
0.0103803
-0.0421093
0.0146828
0.0483163
0.0303276
-0.0247042
0.00456332
0.0352916
0.138779
0.0446737
0.059034
-0.042899
-0.00216523
-0.0394749
-0.0025333
-0.0665334
-0.0070749
-0.00967826
-0.00386217
0.0290744
0.0314416
0.0584432
0.015714
0.0279825
-0.0276818
-0.00683573
-0.0129208
0.0285293
-0.000230804
0.0251161
0.0753951
0.0304279
0.0361461
-0.013335
-0.0113885
-0.0214496
0.0431592
-0.00246142
0.0747914
0.00655782
-0.0361759
-0.0486635
0.0116817
0.00320334
0.00618432
-0.0858865
-0.0221048
-0.00598477
-0.00893396
0.0456875
0.0520442
-0.0378803
0.00549875
-0.0158577
0.00740999
0.00146144
-0.0311513
-0.0320852
-0.0191541
0.051638
0.0268965
0.0877143
-0.0412372
-0.0211419
-0.0207124
0.0252069
0.0318326
-0.0152899
-0.0159636
0.0321521
0.0104777
-0.0128909
0.0301527
-0.0603141
-0.0232318
-0.00388462
0.0274572
-0.0031371
-0.0143687
0.00715186
-0.0226475
-0.0627419
0.00783417
0.0128983
-0.00980671
-0.0499653
-0.0357381
-0.0230744
0.0196499
-0.0293156
0.00477975
-0.0619316
0.0313174
-0.0295325
0.0537145
0.070743
-0.0526558
0.039409
-0.0254131
0.0216105
-0.00375173
-0.00710497
-0.0246088
-0.00557229
0.0396872
-0.0323972
0.0127534
-0.0258969
-0.0244613
0.0117263
-0.105084
-0.0118119
-0.0159057
-0.0129968
0.0188984
0.0543936
0.0221752
-0.0495406
-0.009814
-0.0457193
0.00250609
-0.0468488
-0.0727531
-0.00954648
-0.039561
0.0201331
-0.00471913
-0.0232512
-0.0652032
-0.0333152
-0.00757725
0.0153973
0.0755552
-0.0611961
-0.042991
-0.0284244
0.00901101
0.00194019
-0.0265155
-0.0219688
0.0163681
-0.0439114
0.055479
0.0039213
-0.0193522
0.0354602
0.0254111
0.0464149
0.0391742
-0.0296211
-0.0577863
-0.0782352
-0.0111952
0.0001774
0.037118
-0.0653672
-0.056904
0.0119034
-0.0181877
-0.00900692
0.0121277
0.0467614
-0.038165
0.00815123
0.0610786
0.0528701
-0.0938429
0.0234615
-0.0483223
-0.00821393
-0.000487483
0.023843
-0.0120143
-0.0758589
0.00439599
-0.0340115
0.0157911
-0.00714104
-0.0495758
-0.0240295
0.0156071
0.00469504
0.0402453
-0.000283249
-0.100795
-0.000561913
-0.0314245
-0.0145303
-0.00830184
-0.0230916
-0.0341908
-0.0109435
0.0824891
0.0015021
-0.0286552
-0.0126198
-0.0332669
-0.0204456
-0.00396448
-0.00871438
-0.016497
0.0116566
-0.00132851
0.0751763
-0.0204614
0.0180398
0.00709362
-0.0417571
-0.0343949
-0.0481638
0.0196183
0.0195828
0.020624
-0.0267072
0.0135135
-0.0197609
0.0219045
-0.0260217
-0.0424621
-0.0392893
0.0109433
-0.0128423
0.0470666
0.0472891
0.0240332
0.0520765
-0.0451382
-0.0227588
0.0026936
0.00917486
-0.048309
0.0193882
-0.0125575
0.00127567
0.0137254
-0.0263299
-0.0223497
-0.0147116
-0.0465576
-0.048558
-0.0317175
-0.000914783
0.028115
0.033813
0.0232251
-0.0144192
0.00403241
-0.00597765
0.0449254
0.0136688
0.039747
-0.00382484
-0.0315579
-0.0568705
-0.0650496
-0.0970071
-0.0209826
-0.00099461
-0.0213688
-0.0623046
-0.00410343
-0.10447
-0.0902296
-0.00257299
-0.0150338
-0.05713
-0.0420139
-0.0450712
-0.0172821
-0.0252432
0.0117773
-0.0286779
0.00916731
0.0061978
-0.0250228
0.050263
-0.0115167
-0.0270737
-0.0113467
-0.00527481
0.037621
0.01536
0.0524834
0.0260893
0.0597394
0.0144096
-0.012608
0.0112669
-0.0208972
0.0296392
-0.034383
0.00162587
-0.00755632
0.0329983
0.0133787
0.00143769
-0.0735919
-0.0390849
0.0481368
-0.0036028
-0.031898
0.0001818
0.0418906
0.018672
0.0678206
-0.0116278
0.0296905
0.0497592
-0.0455106
0.0200329
0.0175521
0.0380717
0.0552263
0.0275514
-0.0646189
-0.0154541
0.0912151
-0.0485158
0.034058
0.000564054
0.0337849
0.0033044
0.00499111
-0.0413257
0.021121
0.00126492
0.0100948
0.0219623
0.0124121
0.0368783
0.0815735
0.0625427
0.0664372
0.0210188
0.0812115
0.0377747
0.0582945
-0.00500936
-0.0261232
-0.0369213
0.0571093
-0.000966286
-0.00588708
0.0219006
0.00330512
0.0320167
0.0194575
-0.0395706
-0.0234676
-0.0144937
-0.0134
-8.44699e-06
-0.00641476
-0.01829
0.00164121
-0.0474346
-0.0475318
0.0317266
-0.048881
0.0150831
0.0567793
-0.00139208
-0.0119151
0.0417688
-0.00510442
0.0314188
0.0366444
0.0115263
-0.00532394
-0.0237118
-0.0272117
0.0561748
0.0595983
0.0630884
-0.0289218
-0.033801
-0.0155894
-0.00645562
-0.0335112
-0.0241775
-0.017316
0.0218364
0.017909
0.00690326
0.00639754
0.00583711
-0.0462932
-0.0216786
0.0134996
0.019627
0.0244281
0.0139075
-0.034947
-0.00606748
-0.0453237
0.0412763
0.0118769
-0.0646399
-0.00386884
0.028875
-0.0188287
-0.0288641
0.0515866
-0.00212829
-0.00423829
-0.012373
0.0279072
0.0143999
-0.00540088
-0.0113048
0.000564356
0.0120087
-0.0156836
0.0572372
0.00717721
-0.0520569
0.00226832
0.0117961
0.0354552
0.0781078
-0.0134239
-0.00140273
0.0397039
0.0090601
0.0253622
-0.0238146
-0.0052427
-0.0168087
0.0157012
0.00924486
0.0233434
0.00100113
-0.00235531
-0.00793507
-0.00639367
0.00192591
-0.00640847
0.0327003
-0.00834825
-0.0140118
0.00979227
-0.0142093
0.0488266
-0.0263346
-0.0301031
0.0825239
0.0133311
-0.00262104
0.00645646
-0.0394947
-0.0480388
0.000115611
-0.0492066
-0.0482336
0.00766784
-0.0103875
-0.00596465
0.0616668
-0.0281716
0.00252427
0.0207611
-0.00492037
-0.00734909
-0.0645296
-0.0430554
-0.00867667
-0.0609031
-0.022002
0.00295212
-0.00417415
0.0190722
0.00210203
-0.0115456
-0.0193812
-0.0775707
-0.0330904
-0.0297
-0.0646177
-0.0274522
-0.00225247
-0.0421778
0.0448303
-0.0293581
0.00814453
0.0385266
0.0553221
-0.0481677
-0.0160569
0.0172785
-0.0533083
0.0251565
-0.0220989
-0.0629121
0.0395406
0.0142889
0.036875
0.0537526
0.0166149
-0.0178544
-0.0105085
0.0583364
0.0106637
0.00106384
0.0594624
0.0581227
0.0533205
0.0662628
-0.0143993
-0.011603
-0.00643911
-0.0331861
-0.0389442
0.0203867
0.00655588
0.0575702
0.0260169
0.0508661
0.0571671
-0.0035026
0.0016176
-0.034018
-0.0411014
0.0127932
0.014683
-0.0404837
0.0401127
0.0331906
0.0895896
-0.0303628
-0.0803476
-0.0536838
0.0162955
-0.0858451
-0.00290953
-0.025365
-0.0123553
0.0616623
0.0793772
-0.00390075
-0.0275175
-0.103656
-0.116025
-0.0188547
-0.070015
-0.046584
-0.0777923
-0.0563609
0.0503087
0.00267454
-0.0788718
-0.064316
-0.0119774
-0.0479637
-0.0832595
0.0170995
0.0637014
-0.106976
-0.0250174
-0.0298722
-0.0694955
0.0801038
0.0416207
0.0086267
-0.0170755
-0.000347988
-0.0267985
-0.0730047
-0.0279782
0.0377082
-0.00960554
0.0091372
-0.0395255
0.0254599
0.0483788
0.0375212
0.0303091
-0.0337467
0.0221392
0.0119581
0.0665875
0.0520172
0.00302403
-0.0435674
-0.0271688
0.0415392
0.0531776
-0.00358408
0.00230491
0.0349601
-0.0153137
0.0226652
0.0233124
-0.01473
-0.0534041
-0.0451814
0.0421242
-0.028901
0.0772319
0.0613163
-0.00458916
0.0562113
-0.0359855
0.0170341
0.0732703
0.0256279
0.0334204
-0.0379419
0.0221785
-0.0142472
0.0118186
-0.0608116
-0.0281968
-0.0730351
0.0426801
0.0123109
0.0115794
0.0656669
-0.02497
-0.0278674
-0.0142965
0.031451
0.0557472
0.0323943
-0.0233178
-0.0638836
0.0254616
0.0189955
-0.0175052
0.0451739
-0.00665821
0.0182309
0.00147436
0.000600374
0.0428311
-0.00442878
-0.0304251
0.0683007
0.0705157
0.0150249
0.0575203
0.0122652
0.0524114
-0.00287665
0.0209929
-0.063499
-0.0532511
-0.0814356
0.0126766
0.0632297
0.0829533
0.0231678
-0.00926881
-0.0184491
-0.0597835
-0.0288119
-0.0774232
-0.035895
-0.0330686
0.0368238
0.0815675
0.0165583
0.0348393
0.011583
-0.0214572
-0.00587238
-0.0591272
-0.0329526
-0.015209
-0.0410528
0.0254968
0.0876879
-0.00566754
0.0384664
0.0220717
-0.0388602
-0.0509331
-0.0303396
-0.00499585
-0.0246153
-0.00172184
-0.037115
0.0234531
0.0118111
0.0478727
0.0505242
0.0037066
-0.0388718
0.046455
0.0392945
-0.0681759
-0.0151253
0.0110606
-0.0617816
0.0420724
-0.0436222
-0.00560276
0.019927
0.0116687
0.0482879
-0.0144557
0.0146657
-0.047883
0.00702567
-0.0156189
0.0377462
-0.0594075
-0.00723156
-0.0758232
0.0472346
0.0234963
0.0353454
0.016359
-0.0171318
0.028555
0.0092169
0.00863903
-0.0797229
-0.0987734
-0.00991187
-0.0195798
-0.0218171
0.0300972
-0.0401452
-0.012522
-0.0130689
0.00653435
0.032159
0.0523835
0.0175468
0.0348362
-0.0735928
-0.0383418
0.00599231
0.00815311
0.0257236
0.00798878
0.0322878
0.038791
0.0465201
-0.0260063
-0.0425987
-0.00927798
-0.0256497
0.00549117
-0.00054882
-0.0261697
-0.0152386
-0.00641349
0.0549185
-0.013655
0.00167043
-0.0150604
-0.01247
-0.0264025
-0.0518796
0.00127468
0.0603109
0.0189319
-0.00509533
0.0451272
-0.0137165
-0.00569756
-0.0372365
-0.0142058
-0.00403333
-0.0194014
-0.00679126
0.0215096
0.0135767
-0.0669238
0.0931417
-0.00143828
-0.000143802
-0.0547953
0.00719128
0.000273782
0.0306916
-0.0362358
-0.0251921
0.0307899
0.0249482
-0.0080025
-0.0707269
-0.0731582
0.00304338
-0.00531179
0.0135216
0.0402209
-0.0400574
-0.0241714
-0.0614652
-0.0167579
0.0489299
-0.040299
-0.0264575
0.0853208
-0.00776476
0.04585
0.0359879
0.0353386
0.0422486
0.0119063
0.0548484
-0.0438186
-0.0579819
0.00677627
-0.025139
0.004226
0.0546524
0.00837038
-0.0396699
-0.0345692
-0.0667911
0.017018
-0.0168304
-0.0460052
0.00947313
0.0128263
-0.029226
0.00202679
-0.06019
0.0283948
0.035344
0.0193738
0.000754295
-0.00453059
0.0157829
-0.0118003
-0.0111776
-0.0157802
0.0234262
0.0536232
-0.0346276
0.026923
-0.00246692
0.00585917
0.0327898
-0.0580748
-0.0696497
0.00492538
-0.0163934
0.0263207
-0.0238
0.00719366
0.00923857
-0.0612476
0.0315482
0.0288652
-0.0175134
-0.0283509
0.00325034
0.0331042
-0.0478156
0.0577328
0.015675
0.0324245
-0.0501146
-0.0465035
0.0396502
0.033622
0.0436238
0.0062659
-0.0173092
-0.025903
-0.0370595
0.00629098
0.0248001
0.0111604
0.0361229
0.013453
-0.0111848
0.0143077
-0.016936
-0.00852426
-0.00647874
-0.0151365
0.0424508
0.0110732
0.00344495
0.0505342
0.0398152
-0.058428
0.024091
-0.0277989
0.061571
-0.0221094
0.0289267
0.0463598
0.0275274
0.041955
0.0309581
0.00549568
-0.112735
-0.0601867
0.015974
-0.0719701
-0.0121311
0.00891758
0.0263939
0.0843433
-0.00162178
-0.00399443
-0.0528552
0.0145599
-0.00638417
0.0313143
-0.0131663
-0.0338476
-0.00714548
-0.00104403
-0.0142954
-0.0613395
-0.0235384
-0.0249194
-0.0470504
-0.00309302
0.011891
0.0616838
0.0351716
-0.00758875
-0.0378697
0.00233132
0.0117368
-0.0315957
0.000282268
-0.0576248
-0.0179392
-0.0226872
0.0343258
-0.0380213
-0.0480406
0.00717754
-0.0696302
-0.0412262
-0.0135199
0.0283797
-0.010621
-0.0321216
-0.00608929
0.000785323
-0.0544408
-0.0130121
-0.000652839
-0.0125943
-0.0356183
-0.0176771
-0.0313502
0.00292394
0.0184636
-0.0340168
-0.0182997
0.00561057
-0.0141674
0.00404799
-0.0149227
-0.0459472
-0.0106276
-0.0481625
-0.048079
-0.0758985
0.0509433
-0.00492565
0.0231247
-0.00295455
0.0239343
0.0102027
-0.0461406
-0.00937295
-0.0188778
0.0199092
0.0218473
-0.0108267
-0.00656527
0.0114329
0.0611673
-0.0402589
0.0548215
0.0197191
-0.0183515
-0.024149
-0.0412027
-0.0195816
0.0522206
0.0716498
-0.0206031
0.00955987
0.0156494
0.00300201
-0.000573307
-0.0422277
-0.00045913
-0.0156054
-0.0224441
-0.0501335
-0.0335684
-0.0268449
0.0761136
-0.00087332
-0.00468867
0.0132764
-0.0214103
-0.0400235
-0.000232669
0.0301523
0.043727
-0.0243603
0.00916236
-0.0335723
-0.047447
0.0625832
0.0131664
-0.0226908
0.0526369
-0.0222657
0.0546965
0.0112218
0.00963194
-0.0471213
-0.0184255
-0.0632574
-0.0143233
0.0515867
-0.0215347
-0.0406737
-0.0215892
0.100006
-0.00616168
0.00463077
0.0149401
0.0190759
0.0190345
-0.0250707
-0.000899995
-0.0116376
-0.00289557
0.0401857
0.0369004
0.0184737
-0.00337063
-0.00928631
0.0624064
-0.00828301
0.0332047
0.0245903
-0.00523356
-0.0348465
0.0192362
-0.00860332
0.0151412
-0.0491026
-0.06919
0.0142523
0.0554846
-0.00289666
-0.0232394
0.0268491
0.0349223
0.00273122
-0.0738787
0.0109491
-0.0200725
0.0511084
0.0101651
0.0347281
-0.0219384
-0.0214858
-0.0189899
-0.0676629
0.0139357
-0.00977267
-0.0290189
0.0162768
0.0189025
-0.0271246
-0.0141813
-0.054813
0.0544653
0.0391923
0.0195304
-0.0204377
-0.0601005
-0.00534347
-0.0452572
-0.00442891
-0.0200578
0.00320551
-0.00307597
-0.0152901
-1.13611e-05
0.0707424
0.00735876
0.0274145
-0.0268881
0.0294817
0.0618241
0.0385833
0.019225
0.0282126
-0.0300285
0.0448467
-0.021662
0.0291045
-0.0676594
-0.0309016
-0.00200083
-0.00433526
0.0278193
0.00626012
-0.0350948
0.049161
-0.027658
0.00657443
-0.0605282
0.0282353
-0.0461914
-0.0620753
-0.0504013
-0.013555
0.000483498
-0.0163254
0.0457005
0.046518
-0.0141666
0.0537822
0.0282366
0.0238374
-0.0289739
-0.000792701
-0.0555942
-0.0871936
-0.0313753
0.0825683
0.0476372
0.0473127
-0.0417368
0.0235982
0.027873
-0.0178805
-0.0326758
-0.0908075
-0.050232
0.0043329
-0.00969769
0.0635044
0.0883954
-0.0264836
0.0116865
0.00140517
0.0433495
-0.0315063
-0.0962362
-0.0257587
-0.0889706
0.0428461
-0.00534866
0.0994653
0.0450641
0.00225313
0.0435492
-0.0291178
0.0172832
-0.0462606
-0.0614748
0.00140218
-0.0166289
0.00496619
-0.00258036
0.00735357
0.00149687
-0.00146705
0.0218962
-0.0498411
-0.0254276
0.0020017
0.0490092
0.0260198
-0.0416647
0.0157641
0.00617721
-0.0417492
0.0224552
-0.0284078
0.0255187
-0.0455023
0.0221279
-0.0781262
0.0359498
-0.0281667
-0.0305886
-0.0206769
0.0115761
0.00661566
-0.00875831
-0.0259432
0.0273171
0.0450092
0.0127475
0.0334327
-0.00685274
-0.00944993
0.000408867
-0.0594992
-0.0064704
-0.0184306
-0.0347444
0.0048307
-0.00753457
-0.0557291
-0.00939384
-0.0357514
0.0811329
0.0342227
0.0185214
0.00715435
-0.012171
0.0130024
0.0392474
-0.0117596
0.0124644
-0.0392055
-0.0386065
-0.0496475
-0.0605058
0.0594501
0.0312007
0.00252306
-0.000284258
0.0477474
-0.0474856
0.0452028
0.0421805
0.0638238
0.0360819
0.0119678
0.0241051
0.0226312
-0.00075312
-0.0355054
0.076887
0.00443305
0.0323677
0.110381
0.0558712
-0.00261618
0.0313009
-0.00613199
-0.00803111
0.0125683
-0.0229514
0.0214548
0.0535676
0.0401181
0.0767054
0.0829911
0.0278357
0.084458
0.0163527
0.0265017
0.00547169
0.0277877
-0.0325274
0.0232016
0.0315885
0.0607871
0.00535365
-0.0505389
-0.00412201
-0.0317402
0.0334185
0.0148227
0.00202952
0.0189943
0.0717611
0.0298417
0.0218377
0.0174147
-0.0286979
-0.0611507
0.00977005
0.0343348
0.0852046
-0.00640315
0.0145012
0.00192338
-0.0673191
-0.0442041
0.0101253
0.0631779
0.079894
-0.000698909
0.0823587
0.0303048
-0.0257674
-0.0241709
-0.00475971
-0.104461
-0.0312398
0.0221029
-0.0188198
0.0138779
0.00958356
-0.0169511
-0.00366395
-0.0208714
0.00871036
0.028745
-0.024179
-0.00827235
0.00487541
0.0197905
-0.0305154
0.0333144
0.00346409
0.0781746
-0.0247459
-0.0432285
0.00675375
-0.039002
0.0399364
-0.0110628
-0.0415593
-0.0278618
0.00284705
-0.0123301
-0.0378364
0.0310371
0.0346592
0.0526058
0.0507239
0.0442129
0.0689372
0.0150107
0.0122655
-0.0639804
-0.0139382
0.0259948
0.0280963
0.0370848
0.00656925
0.0291038
-0.00299585
0.0436668
0.0476098
0.051465
-0.0615776
-0.00700017
-0.0237101
-0.00339275
-0.0486383
-0.0148589
0.0130531
-0.00853447
0.0313051
0.0205887
-0.043865
0.021701
-0.0265414
-0.0241031
0.00167806
0.00115432
0.0559724
0.0299738
-0.0129335
0.0111536
0.0314433
0.0174322
0.0326516
-0.0120008
0.0240616
-0.0278749
0.081453
0.0361867
0.00150528
0.0415074
0.0392606
0.0356242
0.0809534
-0.00411481
0.0258279
0.0366727
0.0336555
-0.0276393
0.00808294
-0.0261298
0.00262361
-0.0133175
0.021114
0.036736
0.0511594
-0.005128
-0.0127451
-0.040381
0.0156987
-0.0790102
-0.022934
-0.0323362
0.0433066
-0.0379771
0.0900552
0.0157667
-0.00563249
-0.0480299
0.0192193
0.0225173
-0.0412157
-0.0239565
-0.0160532
-0.0142375
0.00758936
0.0651353
0.0162937
0.0138086
0.0523916
0.00820698
-8.88674e-05
-0.0215718
-0.0227731
-0.0447417
0.0250614
0.00241399
0.0238048
0.0426236
-0.0104492
0.024395
0.00371137
0.0017435
0.00998406
-0.000418281
0.0219178
0.0473667
0.00101171
-0.017729
-0.0508959
0.000600615
0.0101213
0.0369556
0.00336112
-0.00515977
-0.015215
0.053783
0.0657985
-0.0108645
-0.0113547
-0.0274166
-0.00367961
-0.0579637
-0.0322914
0.0174001
-0.0372072
0.0630219
0.0313712
-0.0144168
-0.00798322
-0.0248115
-0.0100233
-0.0122199
0.00602876
0.0127982
-0.0306637
0.0413838
0.0773447
-0.00413163
-0.0503858
-0.0827402
-0.00835024
0.0158248
-0.0229713
0.011623
-0.0402459
-0.0260743
-0.018038
-0.000792084
0.00706098
-0.0124027
-0.0394943
-0.0686028
-0.0236859
0.0108774
-0.0758181
-0.000656873
0.0102995
0.0243957
7.02377e-05
-0.0340684
-0.0379171
-0.0223694
-0.0188309
-0.00811418
0.0269733
-0.00414529
0.00078992
0.00182217
-0.0340044
-0.0299258
-0.0270878
0.00227831
-0.0249706
-0.029924
0.0665836
0.0350466
0.0358883
-0.0107906
-0.0261892
-0.0397502
0.0322449
-0.0216082
-0.0739979
0.0198513
0.0299164
0.0284713
0.017054
0.0292716
0.00145193
-0.0500199
0.0003987
0.0363738
-0.0693835
0.0383363
0.00189768
0.04055
0.00521147
-0.0146529
-0.0137738
0.0327496
-0.0719969
-0.0435418
0.0165689
-0.00550264
0.00492403
-0.0100116
0.0788858
0.0487453
0.0176247
-0.0017089
-0.0237408
-0.0156872
-0.0175346
-0.00785337
-0.0426123
-0.0142608
0.0306389
-0.00888024
0.00723014
-0.0364419
0.0532222
-0.0138702
0.0147172
-0.00646654
-0.0176328
-0.0669921
-0.0515209
0.0584416
-0.0341549
-0.03852
-0.0307896
0.022693
-0.0194021
0.0217507
0.00451192
0.00369827
0.0385896
-0.0650909
-0.0199357
-0.0466402
-0.0258161
-0.0151389
-0.00438883
-0.0227092
-0.0276782
-0.00237851
-0.0276038
0.0229546
0.0611489
0.0592072
-0.0359661
0.0220865
-0.0396976
-0.0371285
0.0161144
-0.00726259
0.0341917
0.046614
0.0248702
-0.0276498
0.0506773
-0.00716989
0.0131268
0.0117133
0.077302
-0.0419181
-0.0638434
-0.0365047
-0.0137187
-0.00485471
-0.0287282
0.0773141
0.0571507
0.0232476
0.00909284
0.0343225
-0.0346455
-0.0444372
-0.0722343
-0.0742789
-0.0555082
-0.00409153
0.0476271
0.011921
-0.0128619
0.00857959
0.021969
0.0227591
0.00738044
-0.023942
-0.0249649
-0.0830108
-0.0157422
-0.00540492
0.00185672
0.0168202
0.0342203
0.000501911
-0.06722
-0.0155797
-0.0842704
0.0106387
-0.0852659
0.0110554
0.00126598
-0.0326027
-0.0538261
-0.0104543
-0.0428189
-0.0300084
0.00135124
-0.0247667
0.0052409
-0.0725131
0.0430113
-0.0301721
-0.0132844
-0.0277037
0.00603169
-0.0534473
-0.00852602
-0.054789
0.0115044
-0.0359609
0.0146324
0.0618127
-0.0161064
0.0171543
-0.0183891
-0.00902339
7.83331e-05
0.0746921
0.00489465
-0.0220895
0.0135074
0.0194062
0.0528649
-0.00440915
-0.0424025
-0.00778975
0.00208534
0.0432988
-0.0165429
0.0742051
-0.0252908
0.0299059
0.0723119
0.0338822
0.0546739
-0.00327904
-0.00186853
-0.0379671
0.0366044
-0.0247889
0.00538304
0.00273796
0.00693824
0.0165999
0.0178645
0.0566338
0.0217598
0.0183364
-0.00961874
-0.0260826
0.0268624
0.0386027
0.0272805
0.0118233
0.0262912
-0.0763953
0.0455121
0.0239319
0.0259952
-0.0797407
-0.0601241
-0.0554562
-0.0368518
5.6643e-06
0.00934283
0.0100752
-0.00788627
0.0150427
-0.00427774
-0.00326582
-0.0506259
0.0299124
-0.051326
-0.00643651
-0.0446921
0.0195648
0.0809281
0.0494297
0.016008
0.0521167
-0.0364892
-0.0629887
-0.00458601
-0.053884
0.0231389
0.104634
0.0483178
0.0715319
-0.0167177
-0.0636529
-0.0505059
0.00902696
0.0776633
0.00666518
-0.0275222
0.0146325
-0.0299287
0.0119591
0.00600331
-0.0409506
-0.0214488
-0.0277867
0.0136485
-0.022147
0.067552
-0.0231416
-0.0633008
-0.0478915
-0.0433747
0.0399613
-0.0146981
0.00945089
-0.0360215
0.0142122
0.0528228
-0.0219511
-0.070809
0.0425198
0.0150554
0.0890949
-0.0558613
-0.00837164
-0.00448445
-0.00311502
-0.0154316
0.0401846
-0.0126741
-0.0107234
0.0081037
-0.0062295
0.0269337
0.0189382
0.00618898
-0.0172427
-0.0239836
-0.0137914
-0.0319984
0.049124
-0.0105205
-0.0262512
-0.0170434
0.0348172
-0.0197282
-0.0697632
-0.0262828
-0.0211778
-0.0689935
-0.00675388
0.0614146
0.0185207
-0.0557303
-0.00504285
-0.0128123
-0.0294676
-0.0509949
0.0268755
0.0260024
-0.0345188
-0.0325603
-0.0301633
-0.0181473
0.0216073
-0.0924328
0.0120354
-0.0154121
0.0213429
0.0202947
0.0186387
0.0118031
-0.0185181
-0.0350021
-0.00329867
0.00940125
0.0171615
0.0362756
-0.0476509
0.0666539
0.00817526
-0.0836226
-0.0360868
-0.0161969
-0.039091
-0.0276461
-0.0724554
-0.0351411
-0.0335361
0.0451907
-0.0137351
-0.037147
0.00384883
-0.0174981
-0.0243383
0.00907729
0.00131922
0.0176498
0.000928687
-0.0249389
-0.0608578
0.0289287
-0.0524843
-0.118669
-0.0736773
-0.0381736
-0.0403602
-0.0230042
-0.0367259
-0.0222057
-0.0118372
0.0344873
0.0402565
0.0279244
0.0209452
-0.0298087
-0.0167185
0.0380939
0.00367131
-0.0280846
-0.0635001
-0.0530887
-0.082627
0.00130511
0.100926
0.0274426
0.0192497
0.0324411
-0.0198594
0.00268605
-0.0600915
-0.0322257
0.00808321
-0.0587341
-0.0220757
0.00506391
0.0649963
-0.0215944
-0.04821
0.0216085
0.00934008
-0.0298543
-0.0414047
-0.0463431
-0.0635763
0.0478885
0.00565741
0.0107666
-0.0347837
-0.00201504
-0.00427495
-0.0553615
0.00738673
-0.0128273
0.0364828
-0.0306044
0.027274
-0.0211241
-0.0232461
-0.0221817
-0.00317004
-0.0524595
-0.0405565
0.0582895
-0.0258263
0.105944
0.0613977
-0.0218184
-0.0421705
-0.0153287
-0.0320485
-0.0267194
-0.0198754
-0.0172869
-0.00616642
-0.0609405
0.027785
-0.0222675
-0.0157108
-0.0813205
-0.0927366
-0.0541715
-0.032458
-0.0476026
-0.0469141
-0.0205964
0.0322256
-0.109009
-0.0144342
-0.0189502
-0.062987
-0.0232138
0.0351186
-0.0433683
0.013949
-0.0246448
0.0391322
-0.00415092
0.0455544
0.0652867
0.0372753
-0.0201816
-0.00828553
0.0160088
0.0139703
0.0263106
-0.00724172
-0.00438919
-0.0785438
-0.022278
-0.00664623
0.0193514
0.0465106
0.0753275
0.00813329
-0.00478437
-0.013234
-0.0140635
-0.0261163
-0.0373199
-0.0416912
-0.0381283
0.0122631
0.0481225
0.0465396
0.0229491
-0.00575944
0.023689
-0.0179562
-0.0438436
-0.00374121
-0.0531842
0.0442083
-0.0280917
0.080629
0.0573552
-0.0314438
-0.00753351
0.00375138
0.0491471
-0.0231317
-0.0145174
-0.0968718
0.0423067
0.0120387
0.039852
0.0427816
-0.0316599
-0.0302296
-0.0115567
-0.0317784
-0.0721076
-0.0287295
-0.0020956
-0.00959
-0.00280627
-0.0283266
0.00491632
-0.0897961
-0.0419213
-0.0680467
0.0493388
-0.0457023
0.0333555
-0.0232994
0.0474442
-0.0447726
-0.0283823
0.00776644
-0.0517675
-0.00869372
-0.0431245
-0.0329477
0.0461564
-0.0182351
0.0403072
-0.000223298
0.00238785
0.0225474
-0.0798889
-0.00152548
-0.00464945
-0.0280805
-0.0126755
0.00248105
0.0172242
0.0176326
0.00505978
0.0613933
0.000549161
0.00487947
-0.0466451
0.00950172
0.0141762
-0.0351755
-0.0166471
0.0131053
0.0458063
0.0024304
0.0249958
0.00200023
-0.0572497
0.0034572
0.00668311
0.000788436
-0.0210695
-0.0192262
0.0485396
0.0385704
0.0538636
0.0219103
0.00642472
-0.072598
0.0281308
-5.26593e-05
0.00295428
-0.0265809
-0.0803292
-0.0222339
-0.0250388
0.0240557
0.0245414
0.00548118
-0.0245811
0.0358648
-0.0365728
-0.0282259
0.0262561
-0.0143249
-0.00939019
0.0191464
-0.0496903
-0.0207623
-0.0711016
-0.0255957
0.00418459
-0.0172838
0.0242227
-0.03521
-0.0111026
-0.0140033
0.0179046
0.00375971
0.0433294
-0.0857498
-0.0107065
0.00535172
0.0198328
0.00822563
0.0307683
-0.00409808
-0.0500995
0.00418156
0.0187192
0.00626161
-0.0149652
0.0104291
0.00273026
0.0205902
-0.0147217
0.0503053
-0.0407467
-0.0259529
0.00089241
-0.021279
0.0775696
-0.00876101
0.0218847
-0.00142466
0.0109979
0.0354311
0.00180617
0.0250923
-0.0384089
-0.0347907
-0.057424
0.0224568
-0.022049
0.0326912
-0.0664448
0.0283793
0.0116381
0.0331071
-0.124345
-0.0602679
-0.0148367
-0.0585121
0.0260961
-0.0249761
-0.0606526
-0.0419237
0.000709256
0.029815
-0.0528954
-0.0284636
0.0264684
-0.00360956
0.0563898
-0.0325801
-0.00694639
0.00126743
-0.0324041
0.00570217
0.0186359
0.0471388
-0.0112481
-0.0204534
0.017762
-0.0177901
-0.0341275
-0.0057692
-0.0847215
-0.0178358
-0.000255217
0.0137151
0.00603381
-0.0442793
0.0173208
0.0595637
0.0354566
0.100396
0.0128918
-0.0842806
-0.0762162
0.0103301
-0.00598377
-0.0183822
-0.000995186
3.22385e-05
0.00129518
0.0072478
-0.00561033
0.0560888
-0.00322393
-0.110055
-0.0337655
-0.0334705
-0.00962949
0.0588156
-0.0364567
0.0607302
-0.00426217
0.013757
-0.0283106
-0.0179814
-0.0505821
-0.0263721
0.0415682
-0.0370427
0.0041702
-0.0329014
0.0364158
0.0727794
-0.0121155
0.0267342
-0.0135264
0.0101261
-0.0578239
-0.0115283
-0.018606
-0.0177211
0.0427878
0.0362166
0.00707383
0.0730484
0.0177154
0.0194199
0.0478488
0.0424674
-0.00935742
-0.00958534
0.0134349
0.0713346
0.00264356
0.0844171
0.00602773
0.0495873
0.0398769
0.0339106
-0.040961
-0.00989549
-0.0937178
0.0879252
0.049826
0.0151763
0.0199862
0.0837951
0.0155703
-0.000586771
0.0287379
-0.0115176
0.00435597
-0.000784346
0.0382406
-0.0372403
-0.0281181
0.0296957
0.0495201
0.0542999
0.0444909
-0.000839821
-0.00710251
0.0393672
-0.0047001
0.0177192
-0.0118161
0.000269597
-0.0138301
0.0646155
0.0240395
0.115878
-0.0297309
0.144829
0.031966
-0.0642925
-0.0249769
-0.0192258
-0.00651684
-0.0579147
-0.0567169
0.0191029
0.0226501
0.0652261
0.0625109
0.0611424
0.020228
0.0115674
-0.0227901
-0.0309068
-0.0225329
0.0402874
0.0142315
0.0790356
0.0526909
0.0639172
0.0405359
0.042192
-0.0207239
-0.0305312
0.0154102
-0.0701439
0.0221161
0.0444271
0.0340802
0.0392676
-0.0124089
0.00417741
0.0164416
0.0388992
0.0228205
-0.0117141
-0.0635841
0.00974994
-0.0634345
-0.0737706
-0.0673971
-0.0561375
0.0162667
-0.019699
-0.0286806
-0.00845157
-0.0296743
0.0103352
-0.0114463
-0.0119895
-0.0148283
0.00589988
-0.00684278
0.0282745
0.0611142
-0.019741
0.0228933
-0.023534
-0.00770976
0.0220241
-0.0108401
0.0173692
0.0269225
-0.0216181
0.0408382
-0.0373284
-0.0615542
-0.035863
-0.0311666
-0.0122375
0.0464518
0.0546767
0.0585056
-0.04257
0.00164493
-0.0440528
-0.0345552
-0.0204468
0.000834051
-0.018049
-0.000875814
0.0105564
0.0214213
0.0382171
-0.00857273
-0.0175858
-0.0366753
0.0279129
0.0129193
0.000691083
0.00330994
-0.023482
0.0574168
0.0113795
-0.0150555
-0.0209619
-0.0346613
0.001233
-0.00556085
-0.0238629
0.0436263
0.0288473
-0.0363479
0.0298496
-0.060575
-0.0333757
0.0248579
-0.0201241
-0.0262614
-0.0798924
-0.0426268
-0.0108993
-0.0131695
0.0196856
-0.0202372
-0.0102841
0.0775223
0.0547201
0.0179466
0.0209372
-0.0198917
-0.0256114
0.0161533
-0.0543161
-0.0776641
-0.0561926
0.0171481
-0.0289511
0.0286228
0.102358
0.0355763
-0.0131354
0.00367269
0.0111866
-0.0720152
0.0589094
-0.0296194
-0.0489674
-0.0212822
0.0685028
-0.0173275
0.0133377
0.0408537
-0.0535865
-0.0158605
-0.022791
-0.00719348
0.0109616
-0.0971628
0.00651437
-0.0403016
0.0214763
-0.053746
0.0403082
-0.0458286
-0.0343882
0.0189284
-0.026793
-0.046336
0.0178886
-0.062241
-0.0814799
-0.0565553
-0.0549568
0.036922
-0.0147817
0.00594898
-0.0270665
-0.0190478
0.00168547
-0.0194388
0.0147404
-0.0191407
0.0602548
-0.0398226
-0.0465917
0.0405844
0.0233954
0.0521394
-0.0136507
0.0216678
0.0458956
0.0551312
0.0474471
0.00478429
0.0336469
-0.00248858
-0.0142023
0.0282712
0.0361436
-0.0574875
-0.0145884
-0.0164178
-0.00757583
0.0407334
-0.012504
0.0653404
0.0113405
-0.000489604
-0.0319076
-0.0313687
-0.0500197
-0.0498295
-0.0443808
-0.0265129
-0.0491915
0.0525353
-0.0290274
0.0123355
0.00375299
-0.013606
-0.0574946
0.00668197
0.0730499
0.0488231
0.0125364
0.0142327
-0.0435716
-0.0260573
-0.0245261
-0.00791645
-0.00999043
0.028425
-0.0606574
0.0235645
0.04176
0.00786977
0.00874991
-0.0164457
0.0338758
0.0499411
-0.00401291
0.0562074
0.019737
-0.0126788
-0.0211415
-0.0740493
0.0108525
-0.0567274
0.0189884
0.0225479
0.0438503
-0.0176658
-0.0469869
0.0273458
0.033023
0.011667
-0.047787
0.0301083
-0.0339714
0.0164979
0.00489777
-0.0140003
-0.00962065
0.0183129
-0.0397767
0.0246674
-0.0291593
0.0179884
-0.0349003
-0.0209223
0.00997011
-0.0510279
-0.0340941
0.0133379
0.0236034
0.0202983
0.0180482
0.00945699
-0.0121931
0.0406189
0.0595337
0.0441493
-0.0258285
0.0262643
0.00990269
0.0468805
0.0418968
-0.0139318
-0.0335099
-0.000253239
0.0326082
0.000885917
0.0310371
-0.0406512
-0.0497982
-0.0236308
0.00638018
-0.0141507
-0.00370143
0.00307584
-0.00183296
-0.0165441
-0.0279911
0.0508464
0.0455441
0.0180255
-0.0102948
-0.00287296
-0.028261
0.0327974
0.0883396
-0.00160801
-0.0168892
-0.050006
0.00531303
0.0152285
0.0171363
0.0204853
0.0355267
-0.0392155
-0.016212
0.0276809
-0.040194
0.00461814
-0.0448039
-0.0898132
0.0637044
-0.0642741
0.034422
0.0409299
-0.000633965
-0.00166142
0.058141
0.0350149
-0.0212084
-0.0140745
0.044363
-0.0115879
-0.0280219
-0.000287849
-0.00558026
0.0363204
0.0182618
0.00448064
-0.0231215
-0.0519742
-0.0120337
-0.0094956
-0.0234904
0.0116605
0.00532282
0.012773
-0.0250026
-0.0124415
-0.01533
-0.0362133
-0.0234582
-0.0454209
0.0203464
-0.00517237
-0.0649785
0.0521886
0.0362072
0.0293161
0.0182711
0.0477421
-0.0369505
-0.0175486
-0.0804132
-0.0620431
0.0306375
-0.00840017
0.0272481
-0.0142922
0.0416357
0.0684401
0.0468565
0.0203728
0.0354333
-0.017999
-0.0160842
0.0393865
-0.0137365
0.0560153
-0.0234191
-0.0141923
0.0103757
0.0121738
0.0162073
-0.0330176
0.00519657
0.013178
0.00613953
-0.0703201
0.00701142
0.0298622
0.030652
-0.0322618
-0.0194682
0.052211
-0.0282247
0.0877041
-0.00398462
-0.0335442
-0.00329408
-0.0391688
-0.0486165
0.0288333
0.0258058
0.0360531
0.0441305
-0.0124175
0.031927
0.00700265
-0.00306923
-0.0275403
0.00400761
-0.0467143
-0.011024
-0.0115709
0.00891698
0.0505905
0.0299773
0.0236253
-0.0363969
0.0152128
0.0333367
0.00388769
-0.0232942
0.0197032
0.0196127
0.0230283
0.0211037
-0.0155633
-0.0685312
-0.0095897
0.0272413
0.0353694
0.00315162
0.0390711
-0.0236894
-0.00469337
-0.00250711
-0.0126452
-0.00812318
0.00199853
-0.0453897
-0.0199183
-0.030999
-0.00622284
0.0248168
-0.00639907
0.00471427
0.0297266
-0.030052
-0.0533622
0.00427618
-0.0799127
-0.0434978
-0.0101996
0.0304366
-0.00664546
0.0477351
0.0151772
0.0340924
-0.00681901
0.000550863
-0.0302825
-0.0201209
-0.0214218
-0.0313796
0.0101192
0.0343428
0.0726168
-0.0142673
-0.00750624
-0.000138611
-0.00978294
-0.0843427
-0.0432395
0.0200313
-0.0523782
-0.0206546
0.023007
-0.0234729
0.0268413
0.0502373
0.0308097
0.0027377
-0.0184839
-0.0285362
-0.0509162
-0.0246249
-0.0180066
0.00651925
0.00530314
0.0271191
0.0564292
-0.0272772
-0.0881803
0.00370957
-0.0298367
-0.0274126
0.0223892
-0.012147
-0.042507
-0.0111771
0.0509644
0.0505185
0.0281011
0.0458803
-0.00687847
0.0126731
0.0174369
0.0082964
0.021023
0.03943
-0.0213749
-0.0267288
-0.0273828
0.0375961
0.0459157
-0.0506451
0.0217258
0.0372914
-0.0371855
-0.00271143
0.0599072
-0.0191328
0.0109254
0.0243381
0.0649504
0.00315463
-0.0570006
0.00568999
-0.0237021
0.0519508
-0.0320637
-0.00390091
0.001741
-0.0127957
-0.0029153
-0.0483408
-0.00481112
-0.034653
-0.0385095
0.003543
0.0229137
0.0245732
-0.0372569
0.00904581
-0.0309218
-0.00422016
0.040187
0.0412822
-0.0036118
0.0262503
0.0427659
-0.0387423
0.0225272
-0.0207275
0.00659725
-0.0306769
-0.0215409
0.0105997
0.0568174
-0.0079387
0.0181868
0.0315021
0.0222503
-0.0133096
0.0163512
0.0131169
0.00670456
0.00935296
0.0277397
0.0732295
0.000202638
-0.010009
0.00566974
0.00270282
-0.0674213
-0.0316193
0.00320766
0.000656951
0.02243
0.0561625
0.00952648
-0.0263668
0.0315696
-0.0461194
-0.000716363
-0.00756137
0.00784343
0.00560977
-0.0193018
0.0293862
0.0144595
-0.0359924
-0.00927789
-0.0561204
-0.0853316
-0.0198523
-0.00570302
0.0162038
-0.0285527
0.025283
0.0296588
0.0255224
-0.0146825
-0.0471005
-0.0349578
-0.00219094
-0.0183742
0.0270614
-0.0160374
-0.00649229
0.0490231
-0.00206988
0.0276559
-0.0448502
0.0154776
-0.0038215
-0.0640625
-0.0444098
-0.00865938
-0.019826
-0.0324558
0.0463593
0.0297516
-0.0157951
-0.0126808
-0.0345204
0.00189876
0.00637677
0.00955428
0.019719
-0.0443884
-0.0540726
0.0418068
0.0483747
0.0554682
-0.00410998
0.0384775
-0.0470167
0.00712914
0.0317284
0.000330001
0.0106382
-0.0321354
0.0195671
0.0264748
-0.0345523
-0.0371491
0.0140547
-0.039505
-0.0253534
-0.0303194
0.0643646
0.0131371
-0.0506019
-0.0299854
0.0200889
0.0177931
0.0182624
0.0302069
0.000147001
-0.0177229
0.012412
0.0194758
0.0239878
0.0209295
-0.0408035
-0.0607369
0.00823176
-0.0446246
0.0202458
-0.0172489
0.00369842
-0.0590456
0.00408907
-0.00530048
-0.0283897
0.021095
0.00768773
0.000699306
0.0326366
-0.0294477
0.0119241
0.0252429
-0.00692237
-0.0218145
-0.0679828
0.0506983
0.0188762
-0.0320975
0.0283732
0.0337801
0.00862182
-0.0106663
-0.0278577
0.0224481
-0.00928874
-0.00777301
-0.0322341
-0.0439843
0.0461337
0.0457188
0.00928192
-0.00422535
0.0453771
0.0260763
0.018002
0.0470428
0.0107956
0.0230173
0.0186762
0.0860904
0.0365318
0.0115901
-0.0484447
0.0240244
-0.032424
-0.0110106
0.00514363
-0.0179865
-0.0244244
0.0771092
-0.0247116
0.00279741
0.00818727
0.00279949
0.0393459
0.00631114
0.000138932
0.0126558
-0.0262278
0.0750362
-0.0339047
-0.0135036
-0.0853836
-0.0060422
-0.0103549
0.0123716
0.00281523
-0.0448098
-0.0492717
0.0388442
0.0347054
-0.0159064
0.0287882
-0.00394686
-0.0554018
-0.0113101
-0.0573012
-0.0242877
0.00790803
-0.0142512
-0.0360319
0.0426277
-0.0120226
-0.0513024
0.058676
-0.0342609
-0.0633772
0.0271918
-0.0565415
-0.000648086
0.0258959
-0.0622245
-0.0338939
0.016619
0.0323984
0.0318247
0.00698272
0.0353775
-0.0480222
0.0143334
0.00932269
-0.0218745
0.00019074
-0.0122794
-0.0275398
-0.0132498
-0.0463583
-0.0352369
-0.0494101
0.0062
-0.0110555
-0.0227265
-0.00535576
0.0229809
0.0208197
0.00731214
-0.0203998
0.000282634
-0.0492482
0.0523777
-0.00158812
-0.01264
0.00309479
0.0449461
0.0126358
-0.0216384
-0.0245146
-0.0457588
-0.0379316
-0.0353339
-0.0329777
-0.0667692
0.033748
-0.0336436
0.0231953
-0.0240124
-0.0513237
-0.0505445
0.00523166
-0.0233497
0.00496738
-0.043624
-0.0328599
-0.0173283
-0.0386706
-0.0349394
0.0391099
0.0402068
-0.0426772
0.0382476
0.0363577
0.0106764
0.020172
-0.0327942
-0.0333429
-0.0228443
-0.0259366
-0.00712148
0.0775384
0.0621636
0.0521734
-0.0356549
-0.0684422
-0.0699665
-0.00758233
-0.0393053
-0.0279783
-0.0144682
-0.021569
0.0246643
0.0014716
0.0206529
0.00994027
-0.0837182
-0.072138
-0.0352797
-0.0321265
0.0147627
-0.0322912
0.0240238
-0.0273064
0.0577286
-0.0412285
-0.0454932
0.0611021
-0.00897969
-0.0583685
-0.045255
-0.0105943
0.0428022
-0.00398131
-0.0482852
-0.0246798
0.01385
0.0117514
-0.0356092
-0.0243176
-0.0458735
-0.0619874
-0.0474781
-0.013983
0.0442943
-0.0108723
-0.00788608
0.0556716
-0.0474395
-0.00696163
-0.0603847
-0.0487892
-0.067709
-0.140452
-0.0633012
-0.00590139
0.0363018
0.0365772
0.018714
0.0116683
0.011099
0.0109371
0.0388009
-0.011357
-0.0122143
-0.00617761
0.0177081
0.0332543
-0.0453716
-0.0308623
-0.0222084
0.0709268
-0.0522587
0.0343046
-0.00283416
-0.0179467
9.11541e-05
0.0383535
-0.0283904
-0.0330959
-0.0148391
0.0254523
-0.0584994
-0.0127563
-0.0255364
-0.0359147
0.0106425
-0.00911806
0.0122779
-0.0977958
-0.020332
-0.015323
-0.00357201
-0.04293
-0.00523786
0.0337729
-0.0542095
-0.0067267
0.0301518
0.00405997
-0.0521602
-0.0294281
-0.0495549
-0.00991152
-0.0369153
0.0696332
-0.000248906
-0.0113624
0.00302191
0.0497811
-0.0368963
0.00991235
-0.0504276
0.0464557
-0.0418795
-0.00122048
0.00117695
-0.0153072
0.0341471
-0.0411231
6.73028e-05
0.0313717
-0.0281817
-0.0162641
-0.0299369
0.0135285
0.0182931
-0.0375414
-0.0112687
-2.95556e-05
-0.0453239
0.0222352
-0.0443714
0.0128583
-0.0435156
0.0585254
-0.00322917
0.00433258
-0.0183492
0.0060058
0.042201
0.0110449
0.0123022
-0.00196779
0.0120772
-0.0268779
0.0375826
-0.0108162
-0.00802336
0.0196417
0.0371112
-0.0243527
-0.0338215
-0.0161895
-0.0106527
0.0228527
0.0108013
-0.0205072
-0.0276962
-0.0363342
-0.0409564
-0.0304652
-0.0344646
0.0448702
-0.023097
-0.00708369
0.0478278
-0.044103
0.0201366
-0.0136944
0.0334738
0.0262423
0.00155122
0.011109
0.0180572
0.0177499
0.0263203
0.00964822
0.0113599
-0.00321669
0.0721479
-0.0138032
-0.0178524
0.0093272
0.061997
0.0626185
0.0170576
-0.0341197
-0.0361437
0.0136818
-0.0642646
0.0124794
0.0382447
0.039568
0.0551938
0.0135377
-0.0259004
0.00688984
0.00978302
0.00817697
0.00626214
-0.0146819
0.0716792
-0.0419386
0.0136453
-0.0683089
-0.045913
-0.0272977
0.0889671
-0.00600717
-0.0399734
-0.0157071
-0.0218957
0.0492886
-0.0139037
0.0370338
0.00437998
-0.0244119
-0.00577377
-0.0173078
0.0554581
0.0198996
0.0256592
-0.000947156
-0.0127517
-0.0247628
0.0355966
0.0693978
0.00441872
-0.00592285
0.0398567
-0.0143626
0.0300715
-0.00148627
-0.0223337
-0.00755105
0.00384952
-0.012334
0.0275904
-0.0165654
0.0120826
-0.0289593
0.00976295
-0.021085
0.0307778
-0.0675221
-0.0283775
-0.00418081
0.00570666
-0.0386584
-0.0358638
-0.00192311
-0.0172501
-0.027174
0.0122024
0.0190613
-0.0229132
0.00663619
-0.0110734
-0.0586195
-0.0155284
0.026686
-0.0381916
0.0467439
0.0322323
-0.00306068
0.00851918
0.0493554
0.0175839
0.0213461
-0.0269341
-0.0542223
-0.029154
-0.0372731
0.0191082
-0.0528904
0.0275933
-0.0388709
-0.0405139
-0.0234945
-0.033352
-0.032607
0.0325582
-0.0229679
-0.0229824
-0.0281986
0.0106578
0.0159396
-0.0169683
-0.0376659
0.0348055
0.0174415
-0.0248348
-0.0640839
0.014252
0.00840844
0.00412139
0.0255594
0.0244947
0.0549367
0.0250324
-0.00703843
-0.0112505
-0.0436066
-0.0407519
0.00228338
-0.00656988
-0.00755634
0.0122395
-0.0064386
-0.0156035
0.0376662
0.0331021
-0.0365826
-0.0193914
0.00342522
-0.002449
0.00902883
-0.00740334
-0.0114225
0.00751184
-0.058193
0.0238481
0.00594765
-0.0370019
0.000144279
0.00960227
-0.0579305
-0.00169019
0.0269474
0.0168644
0.0416498
-0.0382378
0.0148747
0.0144955
0.0404991
0.000913554
0.0468981
0.0194758
0.076748
-0.0633406
-0.00773161
-0.0355954
-0.00348872
0.0218458
-0.0176168
0.0681045
-0.00811074
-0.0246144
-0.0427616
-0.039982
-0.0204738
0.0156032
-0.00944251
-0.0107415
0.0280893
0.019417
-0.00455646
0.0047296
-0.0275515
0.025879
0.00468448
-0.0246012
0.0191819
0.00332601
-0.0175077
-0.0468471
-0.00601497
0.00146273
-0.0493953
0.00168044
0.0268143
0.00309729
0.00937962
0.025432
-0.00205042
0.041216
0.00374642
0.0286842
0.0324064
-0.0341472
-0.0180252
0.0340507
0.0207343
-0.0039654
0.0238277
0.000940161
-0.00730792
-0.0401122
0.0397166
0.0272618
-0.0539115
-0.0117025
0.03323
-0.0440992
-0.0582102
-0.0214204
-0.00271342
0.0116631
-0.0437299
-0.067633
0.0367703
-0.03772
-0.0124021
-0.0306182
0.0641106
-0.0467083
-0.00623765
-0.0464956
0.026573
-0.011941
-0.0845301
-0.0128684
0.0355233
0.0398271
-0.00256201
0.0123607
-0.0264696
-0.0974213
0.00556796
0.022938
-0.0032326
-0.0287197
0.0509781
0.0121049
-0.017127
-0.0222877
0.0308246
0.0121318
-0.0344652
0.0361178
0.0217896
0.0552963
0.0883572
-0.0152164
0.00107324
-0.0643153
-0.100628
0.00739405
0.0369863
-0.0375445
-0.0276826
0.0155228
-0.0104009
0.0139376
0.0103597
-0.023204
-0.0493708
-0.0620739
-0.057976
0.000374034
-0.0527162
0.0386051
0.00919236
-0.0372839
-0.0144228
-0.105943
0.00251459
-0.00415206
-0.00858274
0.00827921
0.0198719
0.0425634
-0.0195482
0.0446668
0.00970711
0.0279594
-0.0633369
-0.00149345
-0.0278392
-0.0389974
-0.0757757
-0.00510363
0.0539663
0.0545305
-0.00474649
0.0252461
-0.0205189
-0.0262279
0.0560254
-0.0391793
-0.00409431
0.0162735
-0.000877655
0.00633585
0.0443164
0.00591309
0.0529389
-0.000115074
0.00747235
-0.0733038
-0.00445835
0.0290074
0.0526667
0.0235052
-0.0451351
-0.045831
0.0269486
0.0427929
0.0439023
-0.0156448
-0.0649219
-0.00322662
-0.0618033
0.047737
-0.0373539
0.0273518
0.0176902
-0.048528
0.0397062
-0.00951852
0.0231765
0.0600039
-0.0383891
0.0215223
0.0182701
-0.0119939
-0.00896777
0.0623928
0.00799431
-0.037839
0.0736663
0.030774
0.0220115
-0.0376311
0.0371785
-0.040898
-0.00458903
0.00350004
0.0189251
0.0131408
-0.033566
0.0546848
0.0383242
0.0541722
0.00487761
-0.00118824
-0.00375134
-0.0394747
-0.00253234
0.00576785
-0.0133962
-0.0144002
-0.0155301
0.0402596
-0.00714773
0.060053
0.0462123
0.0234966
0.0204812
-0.00299141
0.0189005
0.0427567
-0.0412393
-0.0234036
-0.0322631
0.0313402
0.00795882
-0.00569565
-0.0521679
-0.0202367
-0.0734536
-0.0618024
-0.0289262
-0.0582062
-0.00995759
-0.0308165
0.0683773
0.0208959
-0.0180902
-0.0367396
0.023695
-0.0480663
-0.0721106
-0.0024481
0.0354437
0.0584911
0.0274201
-0.00158711
-0.0343944
0.0283587
0.0050206
-0.00297388
-0.00383105
0.0465459
-0.054985
0.0114068
0.0573751
0.00963618
-0.00244277
0.00636392
0.0337151
0.045063
-0.0598421
0.0136305
0.0289845
0.0446249
0.0363694
-0.0491798
-0.0150727
-0.013814
-0.0167411
0.00767384
0.026737
0.0119338
0.0273549
0.0123055
-0.0026812
0.058779
0.0481713
0.00807076
-0.0125705
-0.000237824
0.0133867
0.0139968
-0.0176239
-0.0100241
-0.0747459
0.0304018
0.0291394
0.0386501
0.0425022
-0.0208775
-0.00365519
0.0271911
-0.0174423
0.0163965
-0.00177436
-0.0139673
-0.00993293
-0.0146402
-0.0428184
0.0370504
-0.00156013
0.0118825
-0.00310141
-0.0224465
-0.0777387
-0.0168038
0.0585435
0.0465105
-0.0175622
-0.00337417
-0.0200142
-0.0663855
0.0163904
0.0017416
0.0117343
-0.00305916
-0.0264878
0.0259357
0.0139124
0.0529418
0.0302557
0.0309478
-0.0100431
0.0242886
0.0252625
0.017341
0.0562911
-0.00760305
-0.054387
0.0305457
0.0105704
-0.00258842
-0.00987502
0.039257
0.0585732
-0.0338626
0.00875849
-0.0267787
-0.0239889
0.0810791
0.0475595
0.0466593
0.0536649
-0.00337415
-3.9659e-05
0.00912219
-0.0293308
0.00153776
-0.0249802
-0.00595398
-0.0457838
0.0114263
-0.039391
-0.00801299
-0.035718
-0.0200465
0.0135029
0.0167781
-0.008693
-0.0277578
4.46615e-05
-0.00387582
0.0258236
-0.0154863
-0.0300353
0.0146885
0.00478533
0.0256141
0.0369871
-0.0205631
-0.017167
0.016683
-0.0272187
-0.0589812
0.00888336
-0.0133748
-0.023911
0.00203412
0.0173017
-0.0487355
-0.0365304
-0.0482441
0.0140588
0.0437411
0.0492093
0.0707741
-0.0220011
-0.0215362
-0.0849719
0.0362198
0.030782
-0.041553
-0.0250688
-0.00746034
0.0336227
-0.00419378
0.0179174
-0.00546207
-0.0653602
0.00291343
-0.0208672
0.00366181
-0.0606009
0.013869
0.0275625
0.0796787
-0.0715141
-0.0206227
0.036829
0.0410811
0.00638414
-0.0149425
0.0288127
0.0272232
-0.0714749
0.0404324
-0.00294281
0.0153102
-0.0241255
-0.0244161
0.0336028
-0.0583577
0.0104006
-0.0274987
0.0166184
-0.0341273
0.0588064
0.00964818
0.0211354
0.0493687
0.0499875
-0.0239544
0.0118229
-0.0352918
-0.00475237
0.0765783
0.00242802
0.0350977
0.00621669
0.0335131
0.0387497
-0.00312278
0.135884
-0.0240896
0.0129564
-0.0114137
-0.0160693
0.0321548
0.00804856
0.0344954
0.0130267
-0.0256707
0.00974302
0.028334
-0.0118335
0.0242428
-0.00242152
-0.00562562
-0.00895738
-0.0051898
0.0150431
-0.0891076
-0.104218
-0.0486083
-0.0269234
-0.0372165
0.0186465
0.00438572
-0.0164931
0.0020907
0.0110721
0.0340268
-0.0130262
-0.0128749
-0.0351186
-0.0321442
0.00020736
0.0202315
0.00937065
0.0472271
-0.00571615
-0.023249
0.0105658
-0.00682249
-0.0228919
-0.131895
0.000700441
0.0242729
-0.0280094
-0.00337155
-0.0339688
-0.00574683
0.0417432
0.0344892
0.00292414
0.0368762
-0.00310232
-0.0478401
-0.0657404
-0.0147508
0.00550555
0.0410799
-0.0342349
0.00213992
0.0681759
0.0203198
-0.0157805
-0.0541281
0.0377683
-0.040736
-0.0128723
-0.0131511
-0.0272845
-0.0148325
0.0230798
0.0743269
0.0177151
0.0133382
0.0184267
-0.0249467
0.0258074
-0.0467911
-0.00542838
-0.0266096
-0.0441974
0.0439066
0.0855759
0.00312961
0.0832848
-0.0141756
-0.0531663
-0.0521835
0.0345284
-0.0130638
-0.0404551
-0.032175
-0.0230535
0.0433807
0.00686505
0.0558608
0.0446016
-0.00189771
-0.0483193
-0.00852107
-0.0310998
0.0373388
-0.0171007
-0.0561909
-0.0317503
-0.0114034
-0.0258561
-0.0131249
-0.018732
-0.0132055
-0.0265278
-0.00580383
0.0412013
0.0428915
0.00935463
0.0195428
-0.0468768
0.00391364
0.0232198
-0.0194578
0.0401973
0.0011939
-0.0158715
-0.025155
0.018401
0.0402275
0.0637634
0.0430525
-0.0109507
0.0523858
0.00595977
0.0161926
-0.0211022
0.0478421
-0.0376953
-0.0103072
-0.00376785
-0.0289555
-0.00720211
0.0616755
-0.00704271
-0.0014583
0.0473625
0.028604
0.0985752
0.0111266
0.0260214
0.0143868
0.0155374
0.0190099
0.0058851
0.0394483
-0.0593806
0.0186297
0.0405603
-0.0145604
-0.0594177
0.00897755
0.0101585
0.00277335
0.0183524
-0.0148166
0.0315875
0.0165829
-0.0330793
-0.00532926
-0.00536079
-0.041694
0.0058831
0.0256905
-0.0185437
-0.0364952
0.00602342
-0.0244364
0.0244678
-0.00391817
0.00269263
-0.0202341
-0.0865613
-0.0240727
0.0196714
0.0531307
-0.0178186
-0.0122647
0.0214805
-0.0136035
0.0121929
-0.0222012
-0.00323094
-0.0300926
0.0172301
-0.00790793
0.0421474
0.0596858
-0.0178884
-0.0264162
-0.0543312
-0.0234332
-0.0750518
0.00319174
-0.0410002
0.00486863
0.0333652
0.00936286
0.0326018
0.00197429
-0.00608608
0.0270462
-0.0478682
-0.0183601
0.0162045
-0.0394626
-0.0371487
0.0126095
0.0349552
0.0059029
0.0324324
0.0262602
0.00592344
0.010809
-0.0265466
-0.0352455
-0.00260792
-0.0724759
-0.0193984
-0.0216179
0.0653684
0.0391198
-0.0209712
0.00325962
-0.0143337
0.0313962
0.0174315
-0.0697245
-0.00159207
-0.0312222
0.0261581
-0.080599
0.0647732
0.0428297
0.00855648
-0.012634
0.0171113
