-0.0376916
0.278655
-0.214181
0.0202228
0.0253051
-0.00864205
0.0601111
0.062639
0.0572111
-0.296588
-0.000710916
-0.108462
-0.143627
0.0284101
0.21504
0.00886863
0.177114
0.0360753
0.00092229
0.206948
0.0314671
-0.080259
0.30402
-0.219692
0.0135538
0.0902607
-0.11289
0.163188
0.165675
0.0998791
0.22815
0.0971063
-0.0905414
0.0467862
0.149294
0.00618353
-0.041387
-0.301324
0.0302765
0.218042
-0.118645
-0.163279
-0.135217
0.0461053
0.149145
0.021179
-0.0489309
0.0627267
-0.220221
0.0705632
-0.00694275
0.044329
0.000740902
0.0228879
-0.28008
0.0224199
0.0787597
-0.016683
-0.313738
0.2465
0.124149
0.0628783
-0.00398011
0.0335707
0.153953
0.20981
0.0593305
0.19398
-0.0593564
-0.118063
-0.00993546
-0.229606
0.142068
0.0789133
0.168886
-0.0858984
-0.0181699
-0.236121
-0.230902
0.346046
-0.0941845
-0.0680067
0.0648594
-0.14477
0.00431774
0.422226
0.0712552
0.0923707
0.153721
0.0823779
-0.0433757
-0.0511532
-0.00941422
0.0991776
-0.0134053
-0.158681
-0.0711384
-0.114466
0.0702949
0.0958795
-0.0961129
-0.184352
-0.22966
-0.221477
-0.0449653
0.0399635
0.186453
0.031953
0.0713446
0.0407648
-0.243868
0.0329841
-0.0598355
0.0526917
0.0682691
-0.147023
0.0856688
-0.266052
-0.00194464
-0.0391918
0.0171842
-0.0155419
0.132134
-0.18036
0.0647678
-0.0946751
0.158066
0.0551556
0.0141309
-0.210664
-0.159433
-0.0566987
-0.207716
-0.0615712
-0.0607555
0.0610935
-0.0506813
-0.0656584
-0.00450081
-0.0319109
-0.0928099
0.259522
-0.0842017
-0.24448
-0.16963
0.0554561
0.0706055
0.0129627
0.0873701
-0.0572333
0.120387
-0.449933
0.196649
0.0602259
0.0395312
0.266595
0.0594831
0.0907436
0.145899
-0.0261758
0.102022
0.146219
-0.0560147
0.0456226
0.212362
0.399517
0.0229197
-0.0990152
0.191327
-0.00301886
0.221796
-0.0744043
0.124836
0.0385109
0.100982
0.116041
-0.01986
0.242262
-0.0350536
0.00909072
-0.0396662
0.231207
0.176504
0.186755
-0.196006
-0.0475984
0.0540467
-0.0794636
-0.00888443
-0.175287
0.0483973
-0.242116
0.0595846
0.141091
0.205055
-0.0186407
-0.125914
-0.0703769
0.187603
0.235914
0.0900878
0.109514
-0.115711
-0.223391
0.175198
0.178513
0.127806
-0.0567698
0.0558652
0.143821
0.0432506
0.172179
-0.0589863
-0.105109
0.0157326
-0.0356915
-0.213167
-0.0407589
-0.138199
0.0882343
0.0601937
0.0515979
-0.213711
-0.0748516
0.041827
-0.0729039
-0.0112025
-0.137286
-0.154653
0.0604799
-0.0892611
0.0412734
-0.0990561
0.0431987
0.0545888
-0.154676
0.156492
0.117224
0.1727
0.106062
0.239857
0.190948
0.0119464
-0.0973699
-0.0749182
-0.143769
-0.0931527
0.0565424
0.0571294
0.253959
0.286286
0.196608
0.152606
-0.184293
-0.0837766
0.0256646
0.117319
0.0203576
0.0988436
0.181186
-0.0610334
0.148941
0.0504621
-0.169217
0.0841052
-0.212157
-0.423525
0.10056
-0.0586034
-0.161602
-0.16214
-0.270791
-0.258009
-0.0543667
0.00612767
0.0240194
-0.148943
-0.1583
0.107749
0.175101
0.292287
0.0622682
0.0220215
0.0859896
0.0972309
-0.00680747
-0.081136
-0.352262
0.339579
0.0166136
0.215704
-0.189062
-0.0326614
0.107569
0.237232
0.393024
0.126647
-0.141098
0.130965
0.0425843
0.055602
-0.105184
-0.0574986
0.287136
0.0856416
-0.0287328
-0.0667239
0.146981
0.223051
0.0117386
0.142553
-0.069326
-0.0962792
0.0169404
0.0638218
0.144129
0.0937865
0.00108707
0.0856457
0.421776
0.0233969
-0.104301
-0.0988916
-0.0628098
0.20786
-0.175446
0.112898
0.0611157
-0.252875
0.0667674
-0.0271483
0.0974584
-0.0566365
0.198997
0.256907
-0.0330025
-0.107456
0.206643
0.0500271
-0.111914
0.181878
-0.370246
-0.102346
-0.0220197
0.105034
-0.088148
0.0887441
0.241869
-0.149337
0.234837
-0.00996044
-0.281811
0.324605
0.0249679
0.091674
0.21277
0.164708
-0.183405
-0.0840783
0.0757959
0.0689971
0.0812588
0.131947
-0.0540656
-0.0817344
-0.179473
0.102831
-0.142285
-0.0502302
0.180153
0.0945566
-0.161943
0.0350732
-0.0927425
0.0222383
-0.144164
-0.170996
0.252244
0.0468938
0.00876081
0.109929
-0.0244842
0.258423
0.0227783
0.237399
-0.0949539
0.311905
-0.0261209
0.161801
0.144235
-0.026987
-0.0917196
0.304379
0.155951
-0.179686
0.207296
-0.0866061
-0.128755
-0.124155
0.0530959
-0.105547
0.0383781
0.0175737
-0.0846174
0.319281
-0.0163008
0.186938
0.0645848
-0.0730247
0.00125253
0.114105
-0.320062
0.0532425
0.109197
-0.268369
-0.0806898
0.22073
-0.0289519
-0.081755
-0.0837157
0.0583248
0.0135688
-0.168213
0.00936139
-0.168979
0.000550745
-0.0727371
0.142688
-0.221019
-0.0992447
0.10806
0.173064
0.0699919
0.10973
0.0672197
0.188661
0.113625
0.023367
-0.208848
0.171629
-0.289034
0.253401
-0.189416
-0.0734408
0.11799
-0.0955801
-0.278786
-0.0263083
0.00629555
-0.0539892
-0.0226999
0.165615
0.0870954
0.093789
0.0956015
-0.0846539
-0.151643
-0.217442
-0.0433011
-0.0828465
0.210966
-0.0837882
0.0168891
0.0210734
0.0910847
-0.143004
-0.149694
-0.0531911
0.0502096
-0.164288
-0.0744222
-0.0247033
-0.0350407
-0.183792
0.0660701
0.0576472
-0.0726744
0.18577
0.0712519
0.114056
0.0833545
-0.01924
0.0510222
-0.0778479
0.159378
0.128523
-0.225146
-0.0103444
-0.106751
0.229396
-0.0833964
-0.0854611
-0.123756
-0.360245
-0.0637696
0.0156715
-0.0576421
-0.00297799
0.135859
0.128119
0.0177393
0.156063
0.0173813
-0.234824
-0.282521
-0.203293
-0.0791902
-0.0645443
0.115984
-0.0033654
0.0580083
0.0999705
0.299198
0.122339
-0.0202154
0.0763925
0.0430632
-0.0716986
-0.0792227
0.00541757
0.22004
0.0359714
0.263837
-0.00765078
0.0902484
0.133419
-0.106916
0.134465
0.202239
-0.244603
0.145274
0.157861
-0.0844512
0.0233163
0.0921948
-0.0183939
0.114664
0.137364
0.127784
-0.0153742
0.0312948
0.0401863
0.0112913
0.20457
-0.126826
-0.0799251
0.0226728
0.055595
0.0282511
-0.22983
0.20269
0.135795
0.0373082
-0.107537
0.25099
0.198493
0.474778
-0.00550489
-0.235744
0.303781
-0.00188757
-0.16099
0.0309941
-0.0827281
-0.0117706
0.00983702
-0.108092
-0.0777776
0.10759
-0.262234
0.233458
0.240145
-0.342076
0.304521
0.184647
0.136783
-0.040974
-0.354762
0.196934
-0.05275
-0.174435
0.00160613
-0.167938
0.0823324
0.0553281
0.244319
0.225954
-0.209143
0.119451
0.0986675
-0.219813
0.00908476
0.0646973
-0.171163
0.0762444
0.0162275
-0.200246
0.0622783
0.291532
-0.0704181
-0.140767
-0.0967735
-0.0357485
-0.00583785
-0.276443
-0.121112
0.127711
-0.120558
-0.165183
-0.162815
0.00802032
-0.0733586
-0.227134
0.0670628
0.0016261
0.15846
0.151497
-0.0888663
-0.0606422
0.0102215
-0.317822
-0.111919
-0.105498
0.184409
0.234126
-0.0916137
0.0253065
-0.0262317
-0.0756813
0.0639775
-0.0942307
0.0782798
0.0967886
0.191961
-0.0718131
0.0480867
0.0286589
0.123064
0.125713
-0.0519595
0.0568524
0.0725323
0.222322
-0.21889
0.0407295
0.0967849
-0.101872
-0.0616027
0.0541262
0.105746
0.0932479
0.0187184
-0.13718
-0.0774883
-0.0323118
-0.180115
-0.0206335
-0.116332
0.2196
0.0827459
0.0102405
0.0436219
0.128486
0.0304975
0.0297045
0.111737
-0.0287888
-0.139998
0.20899
-0.144803
-0.0102587
-0.170724
-0.0928874
0.0247353
0.0340446
-0.028607
0.140041
0.153683
-0.00437065
0.129634
0.0245814
0.0536731
-0.0868088
-0.0127092
-0.517817
-0.0544787
-0.0444156
-0.460165
0.063225
-0.018829
-0.0885425
0.00221
-0.0204666
0.103072
-0.0338187
0.13743
0.0304593
-0.0940487
0.186406
-0.236023
0.235835
-0.187141
-0.273075
-0.100583
0.159813
-0.264166
-0.130739
-0.0353426
-0.103179
0.180375
0.103881
0.0416969
-0.0156966
0.172558
0.0115514
0.0192083
0.0904596
0.179148
0.202186
0.0479931
-0.229421
-0.192059
-0.265976
-0.125301
-0.12083
0.0388173
0.133558
-0.20365
-0.0528531
0.0493735
0.0358086
-0.13559
0.0697882
-0.361863
-0.204859
-0.149707
0.0661681
-0.0328205
0.00837811
-0.135258
0.00994054
-0.0799701
-0.148551
-0.00340779
0.139649
0.164321
-0.308604
0.067677
-0.262934
-0.106214
0.231917
-0.0288251
-0.0717651
0.118959
-0.276692
-0.0653613
0.080254
-0.133217
-0.0607738
0.123982
-0.105687
0.159881
-0.0636232
-0.210238
-0.00614686
0.0962945
-0.105454
-0.236676
0.0857532
0.0217532
-0.0765611
0.072901
0.293107
-0.144785
0.119371
0.0106359
0.0827595
0.140777
0.218244
0.149818
0.013207
0.0509873
0.142816
-0.146771
0.191239
-0.0187678
0.0689095
0.0865933
0.0935215
0.174603
0.0735237
-0.258747
-0.144006
0.103592
0.0221401
0.10781
-0.0562642
0.134576
0.238974
-0.0190182
-0.0105531
0.0348761
0.34353
0.240581
-0.131671
0.123669
0.148924
0.0871269
-0.0799371
-0.02452
-0.0304611
0.0545821
-0.0217297
-0.0404439
0.236484
0.165918
0.0431567
0.119526
0.156611
-0.0813991
-0.0718677
0.0836948
-0.126708
0.342184
-0.0449482
0.0199143
0.152789
-0.0553204
0.189448
-0.09505
-0.0527656
-0.00119888
-0.18631
0.0992193
-0.18795
0.0365769
0.422051
-0.0722356
-0.0612938
0.106973
-0.154206
0.117543
-0.218314
-0.0548423
-0.0111556
0.0917212
-0.049143
0.0776481
0.127718
0.245091
0.00414624
0.168207
0.00813726
0.287826
-0.148115
0.0604529
0.0166163
0.0702111
-0.112545
-0.197134
0.14243
-0.0615791
-0.0146035
-0.0884732
0.109337
0.212245
0.0151836
-0.0342093
-0.0707131
-0.142335
0.0778321
0.145647
0.148415
0.191538
-0.13222
-0.058701
-0.133781
-0.142096
0.0784395
-0.140688
0.14438
-0.0245834
-0.234891
0.1767
0.225656
-0.0142042
0.0819954
0.0238495
-0.0716367
0.120129
-0.100082
-0.0881164
-0.0690412
0.00569573
0.198395
-0.0526065
-0.0219776
-0.146495
-0.0324043
-0.081363
0.205535
-0.00646144
-0.116262
-0.09607
-0.114008
-0.198681
0.0687781
0.155509
-0.26436
0.114291
0.050272
-0.00611854
-0.0792656
0.0164653
0.0434669
0.117028
-0.12841
-0.199789
-0.104163
-0.124292
-0.0508875
0.16906
0.141563
0.0757669
0.0110718
-0.0201868
-0.246304
-0.155126
0.0103991
-0.112016
0.125239
0.0490955
0.157126
0.00929133
-0.126417
0.28659
-0.182091
-0.181756
0.0557501
-0.0580576
0.200158
0.0996347
0.0444991
-0.0942557
0.0981494
-0.229537
-0.0785069
0.104904
-0.124534
0.0858545
-0.115499
-0.0246793
-0.0635497
-0.0619992
0.074446
-0.105435
-0.0121018
-0.103666
0.0976413
-0.0917251
-0.0122366
0.017497
-0.0987589
0.0880818
0.230513
-0.218215
-0.0573712
0.0429314
-0.0671442
-0.0337292
0.043279
0.129576
-0.124462
-0.00210723
0.024819
0.197672
-0.17123
-0.0900055
0.0551791
-0.0912204
0.0514331
-0.090804
-0.00653677
-0.0264458
0.0512126
0.222907
0.0986369
-0.188971
0.154175
0.163654
0.00787266
0.247377
-0.104681
0.00475699
-0.136012
-0.0708292
0.141016
0.406908
0.0259353
0.0489882
0.0143281
-0.153436
-0.0399798
-0.14549
0.056389
0.0411781
-0.0995522
0.181384
0.168298
0.054478
-0.0293565
0.193365
-0.0515615
-0.288226
-0.004663
0.0372277
0.0309237
-0.271901
0.00501398
0.0349129
0.235493
-0.0476113
-0.076823
-0.218238
-0.186058
-0.118294
-0.0292215
0.0298017
-0.122367
0.222829
0.0652657
0.0968603
0.320663
0.144062
-0.195342
0.158849
-0.124943
-0.409134
-0.313403
0.0688828
-0.210826
-0.186827
0.281401
-0.0347919
-0.18827
0.161548
-0.0934301
0.00277348
0.022446
0.288422
-0.137478
-0.0918305
0.0860454
0.323818
0.0590212
0.253692
-0.183401
0.00355544
-0.0659088
-0.153815
0.121266
-0.162924
0.126881
-0.164095
-0.0660332
0.0714043
0.115124
-0.0783549
-0.132353
0.336877
0.252218
0.256098
0.29208
-0.0242251
0.00186237
0.135099
-0.240559
0.201028
-0.216269
0.264006
0.217456
0.0740959
-0.15665
-0.270487
-0.125146
-0.0674701
-0.220286
0.215461
-0.0401012
-0.0854843
0.132874
0.239626
0.124198
0.139622
-0.162599
-0.0433813
0.0877774
0.0339241
-0.122121
0.00471023
-0.0830336
-0.0257444
0.108021
-0.0380821
0.152299
-0.0204953
-0.0766994
0.111061
0.0911565
-0.131028
0.0305532
0.0204711
-0.160928
-0.0703314
-0.0986362
-0.168106
0.03186
0.040076
-0.258879
-0.0332726
-0.279776
-0.134851
-0.0368337
0.0310766
0.171991
-0.121392
0.12573
0.206347
0.0774082
0.169583
-0.131031
-0.0400771
0.103487
0.072822
-0.0449176
-0.106773
0.0817679
-0.0241061
0.118326
0.307287
-0.00686499
-0.312348
-0.0887395
-0.0120395
0.0410702
0.162553
0.0499382
-0.118424
-0.153857
0.0513421
0.121882
-0.22107
0.0303109
0.119769
0.020321
-0.201979
0.118855
0.309487
0.251198
-0.0475335
-0.122294
-0.063978
-0.278023
0.0370644
0.14531
-0.0215283
-0.0504438
0.0714284
0.0947283
0.0182388
0.236289
-0.0716128
0.0919024
-0.323026
-0.124844
0.0643253
0.199236
-0.0688289
-0.152018
-0.107258
0.0839904
-0.0182937
0.212798
0.214044
-0.119007
-0.0739254
-0.00116207
-0.196946
-0.162229
0.028918
-0.0271458
0.0673487
0.0445524
-0.009172
-0.0745737
-0.119751
-0.100943
-0.212762
-0.0683538
-0.0904679
0.181181
-0.175117
-0.0498857
0.0349348
-0.0767952
-0.027547
-0.0786468
0.38613
-0.128676
-0.108114
0.250705
-0.098259
0.0348954
-0.0253288
-0.130772
-0.081644
-0.0830846
0.0890788
-0.0292266
-0.0554543
-0.193313
-0.0435539
0.0453622
-0.231149
0.0831122
0.227996
0.0463751
0.0295719
0.0551105
0.077364
-0.086774
-0.193121
0.145728
-0.111427
0.240756
-0.12339
-0.150558
-0.00978603
0.0335144
-0.0411765
0.102043
-0.00465167
-0.0390501
0.0632075
0.0323644
-0.00185853
0.1604
0.0204198
-0.299514
0.0451228
0.0645218
-0.179774
0.0185577
0.120169
0.00361485
-0.00862993
0.102508
0.127887
-0.0108439
-0.233984
0.147935
0.093955
0.0156524
0.0495572
-0.0959521
0.108152
0.110712
-0.0144976
-0.0998922
0.197055
0.04542
-0.185983
-0.180357
-0.0925144
-0.0886457
0.0954599
-0.157413
0.164666
-0.35446
0.157639
0.209563
0.134263
0.0818308
-0.285751
0.0828945
0.0967255
-0.288675
-0.146052
0.119495
-0.130874
0.0811333
-0.148548
-0.222255
-0.078982
-0.168746
-0.147044
0.0302262
0.00839044
0.00614505
0.0179637
-0.0352979
-0.0748443
0.0538511
-0.0667344
-0.00402339
-0.0137188
-0.112688
0.0115776
-0.270005
0.128172
-0.313969
-0.0595033
0.128041
-0.261341
0.016931
0.0310954
-0.0180359
0.00479431
-0.088612
-0.191454
0.0611245
0.244985
-0.219488
0.00603657
0.129134
-0.0709982
-0.104519
-0.0781227
0.219406
-0.139258
-0.106697
0.0108121
-0.30323
-0.0717145
-0.0254858
-0.129884
-0.0813764
-0.0631331
-0.264311
-0.113025
-0.104368
-0.255232
0.0845156
-0.242954
-0.153668
0.039565
-0.0453255
0.533903
-0.045626
0.02595
-0.0788169
-0.0810748
-0.191067
-0.203108
-0.0834847
-0.0785075
-0.0575078
0.0332942
0.0295607
0.0219989
0.0783077
-0.235921
0.0160474
0.190368
-0.281673
-0.0195
-0.0459996
0.101961
0.00485188
0.0513052
0.165277
0.048338
-0.0686537
-0.0384797
-0.165272
0.0147831
0.0176587
0.0102973
-0.119591
0.0645025
0.141276
0.0380129
-0.129784
-0.147013
-0.273642
0.101696
-0.11565
-0.0275749
0.0786337
0.10673
-0.177942
0.0168068
-0.0749178
-0.0527339
-0.119232
-0.0747942
0.0411393
0.0176316
-0.0896056
-0.0990634
0.0191737
0.206218
0.126832
-0.0380878
0.103627
-0.219913
0.0815224
0.124734
0.0350229
0.115707
-0.0827126
0.157372
-0.209417
0.225198
-0.0161489
0.171805
0.10888
0.0555286
-0.222275
0.0482953
-0.100252
0.327404
-0.0173094
0.0908361
-0.0292493
-0.216192
-0.0211991
-0.0959071
0.148884
0.152586
0.0724942
0.221756
-0.099582
0.0986737
0.115329
-0.13164
-0.0546596
-0.250287
-0.0374039
0.0574114
0.0671608
0.114035
-0.281755
-0.324898
0.029312
-0.176646
-0.0844753
-0.204852
0.10188
0.100658
-0.0328739
0.18054
0.220635
-0.195843
0.170363
0.0774019
-0.084626
0.112207
-0.0980481
0.101883
0.0241559
-0.0240041
0.152626
-0.113319
0.0582424
0.00387002
0.0928374
-0.00284824
-0.0741566
0.153318
0.0885079
-0.0844772
0.0378991
0.0430832
0.215132
-0.0157163
-0.0751725
-0.218745
-0.041184
-0.0702685
0.157791
-0.0986843
-0.0421662
0.241483
0.0870993
0.102908
-0.323155
-0.192719
0.249306
0.191091
-0.122808
0.04977
0.0154462
0.0943892
-0.152027
-0.111571
0.228202
-0.112812
-0.131881
-0.0698423
0.119053
0.220924
-0.0637746
0.0228327
-0.0409962
0.0713086
0.0843984
-0.161699
0.109243
0.113835
-0.0970872
-0.0461275
-0.131517
0.0594001
-0.209286
-0.0767123
0.116929
0.0654592
0.0749725
-0.0660325
-0.0765066
0.280623
0.0394549
-0.0775025
-0.00971295
-0.0444569
-0.149059
0.0163425
-0.126968
0.279044
0.139904
-0.183522
0.0965853
-0.241804
-0.0168067
-0.0843608
-0.0400922
-0.165828
-0.0737
0.108424
0.0631709
-0.0628307
-0.10098
0.151631
0.0687345
0.129898
-0.145345
-0.00663964
0.184042
0.323285
0.13168
-0.1069
-0.0967699
-0.10553
0.0750403
0.0308491
0.110733
-0.0500888
-0.112473
0.0131367
0.0854261
0.183875
-0.104839
0.0958108
-0.0470556
0.0919064
-0.112841
0.100152
0.106858
0.0698706
0.0137657
-0.0315783
-0.197979
0.109215
0.0314414
-0.0287139
-0.077701
0.0819533
-0.115536
-0.000987974
-0.261753
0.1713
0.181355
-0.0507107
-0.18395
-0.164025
0.0533144
-0.0252875
0.172472
0.122991
-0.100326
-0.0248348
0.402909
0.122957
0.0809832
0.143871
-0.0256029
0.156483
-0.138213
0.0378312
0.244701
-0.0222883
0.0136424
0.129096
0.20076
0.18215
-0.0709923
-0.248809
-0.202125
-0.419079
0.293024
0.143277
0.153769
-0.0928792
-0.342387
0.127182
-0.136792
0.0873832
0.0466954
0.00627161
-0.38252
0.0300222
-0.184121
0.0110077
-0.115132
0.0743316
0.123997
0.08296
-0.0965939
-0.225757
0.110265
0.126597
-0.226355
-0.356544
-0.143262
-0.00960802
0.17504
-0.252125
-0.205196
0.0506296
0.123356
0.13707
-0.433299
0.0453224
-0.174378
-0.0291921
0.207269
-0.100511
0.0126549
-0.0905987
0.0936225
-0.234043
0.142726
0.311069
0.251102
0.0235614
0.327434
0.0011156
0.169508
0.00777685
-0.270501
-0.0465918
-0.307687
-0.116362
0.0764657
0.128489
-0.0297443
0.190778
-0.0703455
0.0569229
-0.0948994
-0.0261614
0.110153
-0.0906936
-0.0658767
0.0542246
0.267941
-0.060811
0.114259
-0.0767441
0.158427
-0.11879
-0.111683
-0.0620425
-0.0433789
0.0213914
-0.0597686
0.000222481
0.0528163
0.0446525
-0.033768
0.0195384
0.256533
0.0912557
-0.226317
0.115883
0.135927
0.0260451
0.0658218
0.0848702
-0.10784
0.0205819
-0.097339
0.165429
0.118275
0.00550567
0.0514071
-0.1437
0.0688261
-0.0430662
0.0112618
-0.0666095
0.19901
0.065327
0.179428
-0.191639
-0.0420418
-0.00421102
-0.0716233
0.0556073
-0.0800354
0.0713463
-0.15772
0.00482169
0.0680851
0.0964722
-0.00956543
0.0364165
-0.179768
0.112835
-0.159049
0.120207
-0.175502
-0.200608
0.0253333
-0.162548
0.00285299
-0.16196
-0.128276
-0.033834
-0.147299
0.0660068
-0.107491
0.0769363
-0.00954245
-0.287207
0.109555
-0.00719574
0.178444
-0.0938186
-0.127647
-0.0720088
0.119289
-0.0149704
0.10521
-0.19884
-0.0728678
-0.0736455
0.152707
0.0233433
-0.2371
-0.00535975
-0.0364915
-0.106639
0.116038
-0.125747
-0.215509
-0.134849
0.0403805
-0.244222
-0.164876
-0.166914
-0.0561943
0.0131949
-0.0577527
0.132406
0.106195
0.168188
0.266173
0.00741821
-0.0290445
0.134848
-0.246328
0.10287
-0.163799
0.0774141
0.107973
-0.367226
0.0634494
-0.265465
-0.0249945
0.0776771
0.309411
0.0373522
-0.181333
0.0257963
-0.0766951
-0.0494333
0.0958211
0.00874433
-9.19574e-05
-0.142578
-0.0245463
0.103202
0.0503559
0.0939563
0.0216216
-0.0159417
0.122511
-0.242071
-0.0815932
0.0289436
-0.0220431
-0.0302166
0.114941
-0.00432911
0.159899
-0.168041
0.492459
0.238626
-0.238525
-0.05886
-0.11441
-0.324965
-0.16087
-0.0229605
0.014399
0.264679
0.0679467
0.0993509
0.273763
-0.144412
0.0220092
0.0765105
0.143628
0.0494078
-0.0639707
0.181978
-0.122175
-0.0382892
-0.0647998
0.0077675
0.135642
0.127822
0.104932
-0.085791
0.108997
0.165685
-0.0997355
0.0758762
-0.104954
-0.194298
-0.126769
-0.128723
-0.0764284
-0.0573326
-0.00525385
-0.0658062
0.274998
0.0949068
-0.270857
0.0695034
0.0137267
0.250103
-0.13698
-0.0325595
-0.153282
-0.00736229
-0.0568891
-0.0250071
-0.173654
0.219185
-0.196524
0.122314
0.43574
-0.151342
-0.136142
0.115162
0.0497344
-0.0502996
0.191315
0.222358
-0.08249
-0.000247286
0.0757689
-0.014416
0.16031
-0.0888974
-0.144207
-0.0873668
0.0896291
-0.0349871
-0.0333675
-0.156835
0.148284
0.114417
-0.0288921
0.280631
0.0400807
0.193207
-0.256957
0.203032
-0.0941564
0.109888
0.00499158
-0.171148
0.339331
0.0707202
-0.189567
0.0788123
-0.137182
0.0266605
-0.0462766
-0.0184001
0.0535588
-0.0947112
-0.0363646
-0.163235
-0.0929871
0.043817
-0.00228682
-0.173042
-0.113842
-0.116118
-0.0886367
-0.0701524
-0.153247
-0.00735242
0.0455961
0.0925839
-0.133805
-0.0995232
-0.102532
0.0706127
0.0917206
-0.0810047
-0.0254566
-0.103673
-0.0101732
0.107133
-0.104392
-0.156601
-0.193493
-0.0241821
0.163851
0.137387
0.0120951
0.0614102
-0.0977547
0.0682618
-0.0332874
0.0386547
0.123584
0.0298367
-0.184989
-0.121999
-0.17094
0.00993092
0.0349825
-0.158441
0.0428387
0.0219713
-0.0328732
-0.216279
-0.130741
0.0379426
-0.245693
0.023664
-0.227937
-0.175597
0.183731
0.0995126
-0.364665
0.0388124
0.232407
-0.138893
0.293177
0.0828282
-0.0799382
-0.293017
-0.101912
0.14198
-0.0206686
0.0194007
0.13849
0.24721
-0.0376483
0.053277
0.233615
-0.0411316
-0.0728488
0.024225
0.163115
0.0881138
0.0114784
0.00202083
-0.0334053
0.196377
0.0295607
-0.247828
-0.014332
0.0623291
-0.0646731
-0.0631289
0.249805
-0.0569348
-0.140846
0.039277
0.150046
0.0610697
-0.0371211
-0.0902389
-0.086123
0.201742
-0.210468
-0.117241
0.110437
-0.0176771
0.0528576
-0.20286
-0.0977947
0.0635416
0.0210934
0.0971012
-0.0587995
0.122017
0.0405786
-0.151909
-0.0170317
0.0352543
-0.10542
-0.172244
0.249846
-0.0429371
0.313425
-0.189783
0.101523
0.0854092
-0.327556
0.0107733
0.0361078
0.165897
-0.0439643
-0.0246057
0.00646585
0.0805018
0.137514
0.20598
-0.0252978
-0.0810441
-0.137242
0.0107285
0.18641
-0.0743226
0.219072
0.193801
0.00938776
-0.0759715
0.0554775
0.0221674
-0.274709
0.163505
0.000376393
0.0740895
0.0178796
0.137892
-0.0376124
-0.0368284
0.0111752
-0.0301209
0.01969
0.0542541
0.286001
-0.130563
-0.081765
0.0199622
-0.178149
0.045012
-0.27175
-0.106112
-0.154022
-0.0305751
0.195179
-0.217354
0.0179851
0.0756064
0.00636235
-0.167816
-0.164273
0.112117
-0.147403
0.00906791
-0.145829
0.055158
-0.132744
-0.14056
0.196072
0.0754542
0.144882
0.116798
-0.0941626
0.0832766
-0.0984849
-0.0297264
0.150632
-0.269618
-0.214483
0.185453
-0.0127162
0.0185212
-0.119088
0.034368
0.0262321
-0.262666
0.182455
0.0477744
0.00850237
-0.0217902
0.0264076
-0.0565817
0.0352725
-0.032207
-0.0374157
-0.0944413
-0.00745347
0.00605139
-0.137546
-0.0924817
0.0305621
-0.24624
0.175016
-0.0257043
-0.0850327
0.0289745
0.0977543
0.256213
0.0614256
-0.142836
0.0541453
-0.0962681
0.0077061
0.0936252
-0.0584595
0.0834802
0.070763
0.276569
-0.207063
-0.0382043
0.0662927
-0.050766
0.206367
0.328023
0.213797
-0.0278375
-0.0404709
0.0694601
0.0893363
0.0925607
0.154028
0.0114285
0.18078
-0.0739467
-0.297146
0.199112
-0.169825
-0.071375
0.0363383
0.00392446
-0.170735
-0.101636
-0.246074
0.0299568
-0.169034
0.107358
0.0262395
0.148708
0.538914
0.0187708
-0.216778
-0.306157
-0.111967
-0.176437
-0.183809
0.340554
0.00828946
0.0388402
-0.0263639
0.175971
-0.0899026
0.0420299
0.135874
0.0496904
-0.201819
0.00573524
-0.167653
-0.173974
0.126894
-0.132829
0.0655321
-0.106432
-0.0606493
-0.0130368
0.0447367
-0.179118
-0.367089
0.102053
-0.21143
0.329721
0.150424
0.0948806
-0.10958
-0.0285572
0.151005
-0.0099093
-0.186864
0.0116468
-0.114056
0.104707
0.0047833
-0.00562734
0.000295691
0.0010534
-0.181675
0.04621
0.0335022
0.120902
-0.0326196
0.00468753
-0.0346648
-0.173133
0.0802301
0.131719
-0.168384
0.081839
0.0651549
0.0161076
-0.0800583
-0.0161785
-0.29917
-0.0468267
-0.0846306
0.0832109
0.186739
-0.179119
-0.167091
-0.105511
-0.0436374
0.138229
0.0691101
-0.131382
-0.213576
-0.0288093
0.174575
-0.0844122
-0.0961808
-0.0522543
-0.139035
0.0639077
0.125015
0.184009
0.276802
0.236718
-0.00862219
-0.00355437
0.103829
-0.0533986
0.164686
-0.368488
-0.0455864
0.374735
0.0301457
-0.0199542
0.0545502
0.23758
0.195438
0.0566258
0.314055
0.167748
-0.0897362
-0.221403
-0.0898081
-0.0608605
-0.0695645
-0.205665
-0.105477
0.30695
0.135616
-0.159988
0.205238
-0.0646678
-0.30546
-0.121312
0.171876
0.200589
0.0699914
-0.119113
0.302308
-0.143573
-0.081248
0.345466
0.0592331
-0.169477
0.0920524
0.0269328
0.0560429
-0.034521
0.117601
0.165739
-0.168784
0.0354357
0.108756
-0.00978902
0.12112
-0.147535
-0.0331118
-0.22881
-0.0152242
-0.0802327
0.181865
0.199686
0.157485
-0.131894
-0.336171
0.213191
-0.177727
0.00731345
0.218285
0.274323
0.013244
0.024813
0.0250033
0.122699
-0.145769
0.0896294
0.0380861
-0.0716526
0.245521
-0.0590337
-0.0638071
0.170613
0.0427336
0.0413366
-0.0995753
-0.0935089
0.0785487
0.22309
-0.0129949
0.244875
-0.0229034
-0.0869296
0.169473
0.238247
-0.410015
0.0902618
-0.196567
0.0505746
0.146598
-0.0704661
-0.00731849
-0.0292262
-0.253867
0.0657419
0.0341789
0.111299
-0.144214
0.0574443
-0.078596
-0.101116
0.103315
-0.225159
0.0324588
-0.233198
-0.096001
-0.152444
-0.00139126
-0.0360261
0.13135
0.143634
0.116721
0.0675575
0.447995
-0.00451748
-0.0321525
0.148443
0.0869824
0.0131105
0.0561773
0.105726
-0.0185556
0.0338533
0.371443
0.00188344
-0.149002
0.110819
0.00401932
-0.350146
-0.114922
0.0372789
0.218456
-0.0963641
-0.0187354
0.00298493
-0.0192926
0.166041
-0.337979
-0.162707
0.167686
-0.177179
-0.0381009
-0.0993652
-0.100889
-0.217467
-0.0196188
0.214519
-0.240438
0.036376
0.200875
0.0234602
-0.224444
-0.119633
0.138129
0.0395885
-0.12088
0.0156175
0.0713178
-0.0569921
-0.135776
0.212368
-0.0590239
0.0947889
0.24674
0.263566
-0.11144
-0.0285215
-0.190793
0.0321938
0.0188641
0.0267174
-0.0491671
-0.159599
-0.0521671
-0.119493
0.196575
0.0334229
0.182596
-0.162806
-0.0354546
-0.079433
0.0137211
0.0807429
0.0234522
0.0491338
0.179014
0.132342
0.0442178
-0.0495026
0.00918408
-0.0517838
-0.0585854
-0.167928
0.0276607
0.179591
-0.0157078
0.000293713
-0.0328496
0.116949
-0.0793446
-0.256994
-0.042745
-0.374167
0.0723417
0.00930796
0.0593141
-0.349904
-0.125625
-0.0247929
-0.129842
-0.161992
-0.0903326
-0.184568
-0.0125393
0.0215757
-0.125807
-0.00467544
-0.0975028
-0.18973
0.0229176
-0.173134
-0.180834
0.267042
-0.0631715
-0.155582
-0.110351
-0.0157251
0.274189
-0.0781287
-0.086058
0.0473734
-0.109877
0.0912528
-0.00389159
0.0121982
-0.237468
-0.0366626
-0.392793
0.0583899
0.13117
-0.0351956
0.293529
0.058996
-0.0164424
-0.0832466
0.116096
0.0547794
0.107038
-0.0090122
0.201002
-0.0357059
-0.0407061
-0.104297
0.11219
0.120187
-0.158329
0.124631
-0.0576816
0.347999
-0.00608357
0.16599
-0.0148945
0.0511878
0.0201436
-0.135801
0.0567368
-0.021409
0.254498
-0.107261
0.0934486
0.0662239
-0.11106
0.302085
0.0357507
0.0771285
0.0506729
0.171947
0.252769
-0.235804
0.241656
-0.0466135
-0.109835
0.131335
-0.0832789
0.228368
0.198143
0.000294491
0.0546959
0.08178
-0.228627
-0.176284
-0.0815152
0.0588935
0.103786
0.128001
-0.0421219
-0.00881457
-0.0408589
0.294771
-0.112444
0.022853
-0.335922
0.0990285
-0.0865269
-0.376832
-0.0815661
0.123549
0.305738
0.146689
-0.0292597
0.14962
-0.166112
-0.267405
-0.000703221
0.0159382
-0.352446
-0.264137
0.371303
-0.0554093
-0.13376
-0.229727
0.0712495
-0.166039
-0.132415
-0.0180987
0.186864
0.253413
0.0393072
0.0751899
-0.253971
-0.0248871
0.0586475
-0.0473838
0.0706011
0.1791
0.129642
0.0236291
0.174198
0.0455446
-0.224556
-0.00191987
-0.0194154
-0.185548
-0.185307
-0.0329518
-0.125066
0.289146
0.0559657
-0.0885666
0.0655275
-0.157877
-0.282636
0.0896343
0.0637992
-0.113369
-0.0303335
0.0060654
0.0559632
-0.064407
-0.0100408
0.162149
0.0749439
-0.0329201
0.0309579
-0.0887544
-0.0255176
-0.156755
0.142309
-0.0933322
-0.00722365
0.218786
-0.0210769
-0.190172
0.29021
-0.0805257
0.143011
0.153596
0.187
0.197247
0.0627063
-0.257921
0.133761
-0.0949207
0.151548
-0.0488614
-0.106884
-0.0675031
-0.00135216
0.0104082
-0.161848
0.121385
-0.100329
0.187189
0.061603
0.189149
0.0766575
-0.0810164
-0.0704783
0.105049
0.159087
0.0853017
0.180009
0.083532
-0.0456257
0.0649011
0.0418828
0.192482
0.130387
0.0733933
0.128349
-0.028381
0.0341607
-0.0779373
0.1838
0.012643
0.0617613
-0.197283
0.229596
-0.0154357
0.0723599
0.00483778
0.109447
-0.192674
-0.0411583
0.158682
0.250448
0.0888105
-0.227304
0.00656624
0.0222764
0.0773639
0.159819
-0.183324
-0.342122
-0.157798
-0.0706571
0.0485736
0.0130278
-0.0268687
-0.0515133
-0.118983
0.135464
0.0791283
0.0283076
0.236345
-0.148693
0.0715955
-0.0341685
-0.257231
0.229753
0.00177007
-0.0161601
0.0433535
-0.0225592
-0.0976072
-0.175003
0.162762
-0.169049
-0.0231839
0.127277
-0.110324
-0.111209
0.339689
0.0321377
0.00667711
-0.0361097
-0.176921
0.0250228
-0.267075
-0.103508
-0.130864
0.0666058
-0.0539757
0.0417244
0.14819
-0.257513
-0.134101
-0.0740032
-0.14449
0.0929715
0.125435
0.0616949
0.0155163
0.07494
0.00367122
-0.0675544
-0.12186
0.123878
0.0442946
0.0473244
0.0866955
0.0112989
-0.122065
0.0265819
-0.0331544
-0.158818
0.152688
0.0922135
-0.266342
0.132949
0.0205921
0.0599136
-0.12689
-0.233092
0.287933
0.17417
0.244057
-0.0249184
0.107281
-0.055238
-0.224964
-0.31358
-0.233785
-0.111388
0.142582
-0.131453
0.0998296
-0.0599284
0.075004
-0.0515059
-0.105943
-0.358014
0.0951108
0.148283
-0.133448
-0.00892375
-0.21016
0.0131069
-0.0266368
-0.208464
0.0567054
0.00588103
-0.122405
-0.131775
-0.110619
-0.122514
-0.171944
0.00885973
-0.0586282
-0.052078
-0.0494891
0.15186
-0.320214
-0.0473056
0.219084
0.357621
-0.173321
0.132043
-0.0634393
-0.222092
0.171498
0.0517751
0.149908
-0.136526
-0.0491508
0.0338656
0.136405
0.0671526
-0.116954
0.0277722
0.239547
-0.163718
0.161578
0.111595
-0.0789613
0.276624
-0.159144
-0.107772
0.165224
-0.115738
0.0823314
0.13722
-0.0232356
-0.0831164
0.070725
-0.00555773
0.0383832
0.112888
-0.155388
0.115223
0.18625
-0.150848
0.0645511
-0.326095
-0.00317355
-0.130477
-0.0770516
0.151134
-0.00370982
0.154547
0.120438
-0.103622
-0.162762
0.0822662
0.159449
0.118109
0.17267
-0.285457
-0.0500742
-0.0754343
0.147503
-0.00299257
-0.0669669
0.311124
-0.282397
-0.121814
0.252831
-0.101799
0.000109646
0.157655
-0.00184277
0.00232735
-0.223533
-0.00812217
-0.117004
-0.0812084
-0.00469041
-0.359803
0.144797
-0.166593
-0.0396997
0.0149854
-0.106784
0.0771311
0.320172
0.208054
-0.174754
0.0776913
-0.286671
-0.010177
-0.0416483
0.107358
0.0118937
-0.275203
0.0261354
0.015328
-0.118115
0.0766725
-0.0961399
0.101134
0.046433
-0.0987087
-0.088025
0.276173
-0.0987704
-0.0391321
-0.189635
0.0727974
0.067488
-0.232413
-0.00618317
-0.0244823
-0.204159
0.119547
0.0292884
0.227586
-0.208139
0.295716
-0.0957766
-0.109015
0.0220844
0.211734
0.138067
0.135069
-0.130825
0.074263
0.0606946
0.132538
-0.129017
-0.141646
-0.184811
-0.171461
0.152741
-0.0311491
-0.0129981
-0.00942998
-0.126043
-0.209575
0.154694
-0.124161
-0.214492
0.0409144
-0.143618
0.0617201
0.0718395
-0.146645
0.229405
-0.118226
0.108284
0.292777
-0.0592617
-0.105514
-0.00375462
0.000503249
0.14741
0.103361
-0.059056
-0.26258
0.0786284
-0.0795778
-0.182547
0.128581
0.0261625
-0.119773
0.0376065
0.167864
-0.0331681
-0.0786583
0.0466686
0.0802331
-0.222001
-0.114251
0.012603
0.118241
0.00624542
0.107093
0.167733
-0.105164
0.0218345
0.0564843
0.0917502
0.0864296
-0.0152652
-0.315286
0.0390842
-0.0447053
-0.148945
-0.0211833
0.1083
-0.106106
-0.222099
0.195774
-0.00869048
0.109992
-0.0896314
0.0131874
0.144516
0.101945
-0.158465
0.0483484
-0.183558
0.106208
0.251589
0.136114
0.00813542
0.0663356
-0.0268241
-0.0668014
0.247735
0.0143915
-0.0823511
-0.190069
0.0693625
-0.0651451
-0.0438924
-0.203797
-0.0358597
-0.282268
0.00775057
-0.306451
0.152967
-0.152258
-0.00926228
0.00315988
-0.0760599
-0.0283085
0.0809268
-0.252667
0.0720497
0.0884961
0.108189
0.178071
-0.0573298
0.075252
0.25099
-0.262116
0.20332
-0.196984
-0.0555158
0.4128
0.059021
-0.133193
0.101104
0.102269
-0.16577
-0.0162914
-0.158904
0.0478184
0.082944
0.15901
0.228774
-0.0932759
-0.0840091
-0.278853
0.171534
-0.0281672
0.125081
-0.194713
0.215491
0.0626473
0.0811118
0.117273
-0.130341
0.0865366
0.105014
-0.221789
-0.035812
-0.0628
0.0103406
-0.00581446
-0.099721
0.0346973
0.0439375
0.0244484
-0.100237
0.0805665
-0.0736103
0.0999545
-0.118596
-0.0103873
-0.422503
-0.0223027
0.0200169
-0.292518
-0.00344909
0.207275
-0.0476843
-0.0202071
0.0193123
0.0252571
0.0769296
0.0144124
-0.00921441
0.0226479
0.084345
-0.0717001
-0.0976716
-0.0725529
0.0162002
-0.050594
-0.131721
0.146889
-0.0553106
0.081931
0.0595858
0.0484734
0.0108961
0.17883
-0.209192
-0.0971202
0.138172
-0.0521152
0.0692888
0.191064
-0.301518
-0.199948
-0.0155057
-0.019105
-0.0324486
-0.138379
-0.101772
-0.0417373
-0.0960845
-0.113405
0.113212
-0.142693
0.165886
0.0497213
0.129656
-0.0745855
-0.0724035
0.239658
0.00710821
0.0430611
-0.0329127
0.0919845
0.093138
0.156783
-0.0711481
-0.0969452
-0.18637
-0.184058
0.17084
-0.0453784
-0.0457402
-0.165164
0.0675241
-0.165034
-0.0412822
-0.238328
0.00168114
-0.00427138
0.203464
0.133567
0.348853
0.0953691
-0.059516
0.0458452
-0.0325931
0.159353
-0.00899655
-0.0841466
-0.122888
0.0714055
0.0763127
0.178154
-0.113177
-0.274175
-0.125837
0.215254
-0.0571519
0.130205
-0.0888511
0.0872975
-0.15812
-0.0416345
0.0784377
0.244352
0.152911
-0.0426171
-0.00257689
-0.00508849
0.173404
-0.0198276
-0.345403
0.0750255
0.0142731
0.163914
0.0612504
0.0148276
0.0111151
-0.113566
-0.121877
0.125985
-0.0207052
0.0279469
0.0546006
-0.0117371
0.0802618
-0.20922
-0.245941
-0.115767
0.0470598
0.34546
-0.00638147
-0.10152
-0.0810681
0.0702528
0.0148578
0.145274
-0.262256
0.368468
-0.0305489
0.134423
0.0207321
-0.159984
0.169137
-0.0576741
-0.00122773
-0.065745
-0.130085
0.22323
-0.29311
0.242735
0.24557
-0.249837
0.0487907
0.0178351
-0.0147729
-0.168083
0.109437
0.0259218
-0.130195
0.09571
0.138517
0.0767502
0.1001
0.268463
0.186025
0.0626962
0.166664
-0.0357994
-0.225182
-0.247542
0.211285
0.103143
-0.10882
-0.111897
0.00808961
-0.206005
-0.0845774
0.0337071
-0.0963592
0.0388671
0.170878
-0.0564753
-0.0475529
0.0419842
-0.189702
-0.187253
-0.123069
-0.217325
-0.192076
-0.0528285
-0.113822
0.0236659
0.207807
0.366949
0.158504
0.312522
0.167916
0.0932923
0.258668
0.114695
-0.0365394
-0.0736284
0.0161545
-0.0684838
0.0958622
-0.0839971
0.0958858
0.129756
-0.00673088
0.0841468
-0.074018
0.0755345
-0.131607
0.046809
-0.153242
0.0482429
0.000154381
0.127186
0.0757074
-0.0196863
0.0173458
0.129745
-0.0245474
-0.00993423
-0.0748907
-0.0147227
-0.0767259
-0.0469777
-0.108223
-0.0299354
0.00808551
-0.207349
0.0493553
0.0572269
-0.0653754
0.149417
-0.0197007
-0.0645669
-0.00405904
-0.0368976
-0.331038
-0.0545102
-0.186652
-0.23738
-0.174643
-0.0892216
-0.191037
-0.00763682
0.291447
0.0428699
0.205227
-0.176195
-0.0854791
0.0816818
0.0692367
0.27799
-0.0417496
0.0358599
-0.0840676
-0.0432452
-0.127783
0.0988562
0.207944
0.051084
-0.00482361
0.041934
0.0258706
0.197272
0.0995965
0.365082
0.00409907
-0.145259
0.0523084
0.03004
0.181135
0.0172431
-0.139464
-0.186979
0.0603017
-0.0708015
-0.00921507
0.0531633
-0.0747661
0.216845
0.153728
0.151622
0.0809964
-0.0700034
0.11755
0.0210433
-0.0120921
-0.154813
-0.0630826
0.0328137
0.293943
0.091577
-0.065734
0.166436
0.0167124
0.017136
-0.112701
0.0312542
-0.0241961
-0.19756
0.0985426
0.363163
0.0534276
0.0709474
-0.065546
0.248892
0.141308
-0.0781566
0.425406
-0.00305828
-0.182584
-0.340202
0.00855971
-0.204525
0.0868092
0.181669
-0.239285
0.0384178
0.0191929
0.179454
-0.212935
-0.026042
0.0833001
-0.0366718
0.0979166
-0.072467
-0.0800771
0.0923326
-0.121356
0.0205964
0.109599
0.155302
-0.00700748
-0.00671776
-0.0618089
-0.14788
-0.138484
-0.0437354
1.67219e-06
0.00488762
0.148512
-0.112876
0.0815331
-0.327325
0.0437354
0.127196
0.173167
0.11061
0.199635
-0.0586056
-0.127623
-0.222666
-0.00225652
-0.127965
-0.0682171
0.153393
-0.122499
0.0962201
-0.102488
-0.423763
-0.125844
-0.128702
-0.0439323
0.217599
0.0017054
-0.0736618
0.300662
0.0803688
-0.149071
0.0931205
-0.194761
0.0713097
0.290204
0.0178344
0.0564853
0.0140769
-0.156866
-0.0946864
0.300308
0.0345531
0.0345961
0.224064
-0.136038
0.20036
0.133349
0.00845287
0.0412906
0.281543
-0.0904282
0.286913
-0.0913407
-0.0757539
-0.0152797
0.153334
-0.0506052
-0.122551
0.0341196
-0.160097
0.239173
0.0330561
-0.0864253
-0.162329
0.182681
-0.146664
-0.228093
0.0999769
0.0605681
0.144659
0.229159
-0.171238
0.205996
0.164375
-0.290228
-0.00246942
0.0676959
-0.220465
-0.132293
-0.0549764
0.144439
0.152269
-0.0644318
-0.0254382
0.141158
-0.0264763
-0.124667
-0.0199739
-0.131643
-0.187307
-0.140136
0.166737
-0.0758236
-0.00871514
0.0181056
-0.0537001
0.0445132
-0.158916
0.189604
0.0276854
-0.000566903
-0.141516
-0.0587678
0.0119434
0.198719
0.207125
-0.0339986
0.0488386
-0.227675
0.103262
-0.164434
-0.0106167
0.192179
0.113758
0.0571639
-0.0368234
0.0642044
0.154598
-0.0168693
0.212085
-0.103658
0.085357
-0.0534843
0.153415
-0.159535
0.113325
0.0857883
0.0335168
-0.162488
-0.0879698
0.103815
0.182119
-0.210671
0.156594
0.17145
-0.0600017
0.0567202
0.199009
0.0764109
0.190999
-0.159242
-0.12924
0.083752
-0.0308687
-0.138276
0.0277224
0.0700758
-0.182289
0.117398
0.229702
0.00145833
-0.0480425
0.0734819
0.0855433
0.0926438
-0.22254
0.0776517
0.138928
0.329915
0.0489012
-0.0838392
-0.0794043
-0.0473148
0.159328
0.0289118
-0.0228678
-0.042769
-0.197331
-0.0186035
0.0183845
-0.0589858
-0.0073694
-0.0675449
0.100243
-0.0637045
0.0183581
-0.130687
-0.258216
0.123752
0.136403
-0.195493
-0.0915124
-0.0445493
-0.383411
-0.239217
0.19102
0.008355
0.0127497
0.0123654
-0.0787103
-0.00514074
0.0304867
-0.205334
0.272931
0.0203614
-0.104402
-0.225372
-0.11123
-0.167438
0.0647465
-0.00744125
0.152346
-0.0485351
-0.130847
-0.00247756
0.227017
-0.0994178
0.147248
-0.14859
-0.0804304
0.148245
0.00327825
-0.0313579
-0.0615203
0.0440549
-0.0197751
0.0286256
-0.14953
-0.0623214
0.144854
0.0211077
-0.0519235
-0.276136
-0.000717299
-0.12563
0.0102642
0.170298
0.110813
0.0744429
-0.0840859
0.106798
-0.155322
0.0376227
-0.0488302
-0.0131632
-0.225322
0.106904
0.0294687
-0.271078
0.0163321
0.296969
0.144253
-0.0583093
-0.067714
-0.139178
0.0818683
-0.182701
0.0221922
0.090459
0.0861176
-0.0947378
0.0418349
0.284438
-0.0543028
0.0361729
0.00462341
-0.258215
0.0839179
0.0437652
0.24235
-0.00673003
0.211875
0.387674
-0.0353309
-0.102094
0.114119
0.0483882
0.0487066
0.113953
0.0329858
0.0611331
0.355987
0.0452677
0.0556618
0.0995485
-0.019686
0.0732574
-0.164039
0.0273277
-0.161478
0.0134555
-0.0843731
0.195294
-0.157146
-0.096295
-0.00049512
0.091597
0.0752927
0.00809539
0.113393
-0.273642
0.182876
-0.0401072
-0.00722349
0.0254136
-0.16671
0.109139
0.135598
0.040287
0.0759545
-0.0263567
0.00907611
0.12437
0.1526
-0.116076
0.0140879
0.153623
0.0283631
0.109393
-0.165824
-0.0996654
-0.0472875
-0.241053
0.0982769
-0.0358918
0.190992
0.040865
0.278711
0.0887286
0.277433
-0.295928
0.016825
-0.0222542
-0.110028
0.172132
0.00210321
-0.074032
0.0134923
0.00800773
0.0163742
0.141262
-0.142583
-0.0484207
0.0544201
0.124513
0.17729
0.114663
-0.197836
-0.0225911
0.0360904
-0.0731949
0.0620592
0.0511232
-0.213823
-0.00166063
-0.180985
0.126616
0.0373599
0.144585
0.166128
-0.159862
0.11677
-0.155521
0.0684219
-0.075372
-0.104838
0.0229077
-0.0691448
-0.0396154
-0.0339261
-0.193258
-0.207908
0.0568433
-0.0520958
-0.0974391
0.0975167
0.0344316
0.0480852
0.165636
-0.128158
-0.200331
0.0476883
-0.059639
0.0341527
-0.158155
-0.0418638
-0.0701374
0.00581918
-0.0763102
0.0878602
0.0255159
0.158081
-0.0844378
-0.0684616
-0.0146614
-0.293492
-0.0295648
0.125987
-0.159723
0.08305
0.147831
0.061703
-0.010391
-0.155052
0.0721169
-0.18787
0.0509874
-0.0540466
0.0293055
-0.158176
-0.00947747
0.226988
0.0145176
-0.19893
-0.056526
-0.16992
0.0681271
0.00216079
-0.125458
-0.193646
-0.0357989
-0.0348732
0.143243
-0.00591063
0.0982332
0.00421231
-0.06832
0.181166
0.0329933
0.153164
0.0313074
0.119929
-0.205329
-0.103925
-0.156445
-0.0608622
-0.10081
-0.0383439
-0.189874
0.00545189
0.172313
-0.112551
0.0279614
0.0551678
0.0965456
-0.0943439
0.0967711
0.0101227
0.112817
0.0733224
-0.024591
-0.196646
0.0822552
0.185068
-0.138732
0.121469
0.159267
-0.211605
0.299345
-0.184998
-0.0208314
-0.258233
0.150129
-0.0677939
-0.0775228
0.240935
-0.0654367
0.0827824
-0.0940877
0.0543685
0.111366
0.102609
-0.187273
0.0700254
0.116991
-0.0633898
-0.159041
-0.15078
0.209599
-0.041851
-0.111663
0.108043
-0.0454308
0.178664
0.132128
0.0482636
0.0165399
0.00998115
-0.0486422
-0.0574458
0.0918645
-0.227368
0.132698
0.0475259
-0.0140388
-0.0219658
0.088381
-0.261857
-0.219227
-0.420323
-0.0163441
-0.0884381
-0.418771
-0.204081
0.0288256
-0.0439542
0.0654297
-0.162512
-0.050773
-0.125877
-0.103254
0.0182465
0.0667848
0.0917401
0.0929374
0.009349
-0.0276555
-0.197843
-0.102412
-0.22512
-0.0221857
0.248675
-0.0723057
0.24017
0.147581
-0.00809606
0.0229755
0.170015
0.0191469
-0.0267628
-0.122936
-0.0159552
0.126825
0.171557
0.33053
0.0504523
-0.00458444
-0.0672058
0.20139
-0.0313728
-0.0553536
-0.0152798
-0.120398
0.205951
-0.0482477
0.0691579
0.0382455
-0.0487333
0.0689824
-0.119344
0.24298
0.0576754
-0.0683592
-0.0265353
-0.00692765
-0.0698808
0.10497
-0.106934
0.0840187
0.186752
0.0614591
0.130604
0.158888
0.102962
-0.128502
-0.177548
-0.0668893
-0.0552759
-0.0233391
0.215401
-0.209542
-0.0776084
-0.31712
0.326667
-0.0203349
0.0827959
-0.149601
0.115761
-0.155208
-0.0214622
-0.0478774
0.289705
0.126386
0.223433
-0.0578407
-0.0824913
-0.198419
-0.0714159
-0.00970717
-0.0316205
0.0850267
-0.335943
-0.0212685
-0.0644715
-0.381475
0.114686
-0.0202406
0.0134025
0.184333
-0.109739
0.146924
-0.102211
0.0719577
0.127993
0.0703474
-0.0363071
-0.0348437
0.150042
-0.0621532
0.0762036
0.238539
0.0185695
0.0975866
-0.48288
0.263337
0.0761905
0.0211338
-0.149008
0.13809
-0.0423934
-0.172458
-0.0937933
-0.0612752
-0.183563
-0.0410136
-0.270382
-0.0758553
0.104811
0.0152372
-0.205585
0.0638746
0.00611447
-0.15365
0.183115
0.0834987
-0.0403675
0.013249
0.214553
-0.0488997
-0.198784
0.253709
-0.151514
0.039511
0.0666416
-0.0214047
0.100822
0.0387022
0.0323249
-0.162702
-0.0982943
-0.104344
0.0503885
-0.0184856
0.169451
-0.15643
-0.00417081
-0.0188352
0.0759547
-0.000334554
0.169019
-0.0209253
-0.124285
-0.274833
-0.0429109
-0.0589586
-0.293805
0.178059
-0.0609024
0.00414371
-0.162194
0.232841
-0.107632
-0.0643708
0.107751
-0.102757
0.0795899
0.0391986
-0.0606281
-0.054575
0.0420468
-0.147914
0.129447
-0.0370294
0.15281
0.0607984
0.217265
0.0816975
0.0739085
0.118417
0.00281174
-0.024584
0.0632261
-0.150056
-0.231359
0.0236983
0.227635
-0.0537958
-0.11394
-0.0348705
-0.347101
-0.074927
0.186344
-0.0285898
0.0591549
-0.167905
-0.0839627
0.0047025
0.192499
-0.165153
0.0138756
-0.0300512
0.191133
0.0485251
-0.118826
-0.161543
0.0951646
0.122662
-0.0471191
0.21644
-0.0547999
0.205071
-0.101
0.00958458
0.0433964
-0.10583
-0.0438012
-0.0793464
0.053727
-0.0805619
0.0812106
0.0779499
0.294495
0.0460604
-0.0890768
-0.0167642
0.189534
-0.110846
-0.0389169
0.206238
-0.1215
-0.229666
0.268703
0.305939
-0.21181
0.0703367
0.0307457
-0.0428419
0.166157
-0.00384819
-0.201379
-0.115887
0.0617787
-0.0251436
0.0298284
0.0265862
-0.0895023
-0.0228365
0.181669
0.00959439
-0.173001
0.193829
0.314437
-0.241167
0.110972
-0.170352
-0.338579
-0.245231
-0.359199
0.149565
0.158206
-0.0577702
0.0816742
-0.22545
-0.105429
-0.0277067
-0.0675636
0.232838
0.0724548
-0.0291564
-0.0219161
-0.0486462
-0.06443
0.185694
0.280258
-0.0132948
-0.224826
-0.0885934
-0.00232201
-0.0868886
0.250557
-0.0553643
-0.026104
0.148724
0.177659
-0.00469973
0.106124
0.00109562
0.209851
0.196327
-0.105282
-0.158551
-0.162952
-0.00759058
-0.188888
0.0852377
0.0479371
0.149933
-0.164214
-0.122501
0.209519
0.206002
-0.00152731
-0.162009
0.0077338
-0.0448621
-0.123509
0.012277
0.097296
0.0845141
-0.19167
0.0197188
0.101107
-0.0955616
0.320156
-0.270158
0.0160594
-0.231161
0.0180535
0.109939
-0.0533688
-0.0247401
-0.129142
0.109444
-0.112304
-0.118667
0.0321911
0.181933
0.10539
-0.0489152
0.232302
0.160954
-0.206678
0.0462895
-0.0353077
0.00478356
-0.00865974
0.0697097
-0.0204437
-0.150683
0.149288
0.00958453
-0.0333088
0.220116
-0.0251137
-0.0896244
0.0306743
-0.0527338
-0.120613
0.0796186
-0.146352
0.114922
0.0587656
0.0789796
0.130247
-0.00711689
-0.0508208
0.0579519
0.102978
-0.0239204
-0.161949
0.0167629
-0.0926071
-0.0863982
-0.269897
-0.116841
-0.184152
-0.138011
-0.0923235
-0.0424432
-0.117505
-0.0491951
0.0436933
0.0180995
0.0347747
0.00341897
0.0404698
0.0703461
-0.076608
0.0618438
-0.109232
0.0818922
-0.159245
-0.0635815
0.00482613
0.0281879
0.0176283
0.0895798
-0.0017251
-0.128235
-0.268179
-0.0131293
0.0325447
0.114728
-0.0863521
-0.179107
0.105217
0.0547949
0.075313
0.102621
0.105651
-0.0950857
-0.183281
-0.0519637
0.015398
-0.120358
0.070842
-0.152044
0.0722721
0.015818
0.0657658
-0.148037
0.12191
0.0173397
-0.222886
0.0398561
0.208352
-0.189432
0.00674148
-0.0967872
-0.203941
0.0210239
0.25708
-0.0392111
0.0893019
0.0687438
0.0980575
-0.111395
-0.214444
-0.135138
-0.00727239
-0.0468634
-0.278501
0.0686328
0.0776808
0.108086
0.0676638
0.24643
0.151182
0.156035
-0.0930425
0.0374008
0.207167
-0.0534823
-0.122752
-0.204672
0.0988877
-0.0189765
0.0919929
0.307425
0.181358
-0.0776819
0.235904
0.147187
-0.158389
-0.0110406
0.187477
-0.0378765
0.261617
0.0951676
-0.0636662
0.156131
0.276825
-0.161038
0.363283
-0.119525
-0.00614414
0.136447
-0.0796276
-0.174274
0.0493741
-0.0867395
0.205143
-0.0040509
0.389164
0.0656716
0.0353671
-0.20612
-0.133004
-0.0166427
-0.0698241
0.0189623
0.127172
-0.14842
0.275304
0.0846865
-0.00734709
0.0907691
-0.0412639
0.457175
-0.144565
-0.0283629
-0.129255
0.00958397
0.122954
-0.151997
0.0462626
0.138041
-0.0404412
0.136981
-0.0821029
0.226425
0.0923377
0.184309
0.0256416
-0.203497
0.0724232
-0.0947225
0.26177
-0.130263
0.102649
-0.0411211
-0.151388
0.121499
-0.255884
-0.150541
0.0771051
0.149347
-0.0875824
0.116585
-0.0114364
0.0852576
0.0114281
0.0906276
0.0589336
-0.00414455
-0.0637814
0.161153
-0.206527
-0.0441388
0.192935
0.143867
0.0977755
-0.212351
0.15089
-0.102951
-0.230067
-0.0929697
0.174191
0.0472423
0.149477
0.0525812
0.0441564
0.123432
-0.109125
0.335308
0.1568
-0.231497
-0.0910107
0.0985088
0.0390499
0.178082
-0.159305
-0.0280215
0.0719195
-0.0733748
-0.0433892
-0.0145426
0.146039
0.0571982
0.230228
0.0784448
0.170553
0.133031
-0.123149
0.0462343
-0.28507
-0.170287
-0.0922225
0.0581865
-0.0239571
0.082903
0.029115
-0.0951345
-0.133545
-0.0584254
0.0748316
-0.153021
-0.00935508
-0.293363
0.0287284
-0.0398564
0.105472
-0.0747748
0.0391944
0.00707428
0.00501213
-0.359659
-0.199292
0.221683
0.187321
0.0898275
-0.281074
0.135914
-0.139863
-0.00773528
-0.00353796
-0.0610202
-0.0739647
0.0671998
0.0759156
0.120907
-0.184134
0.145455
-0.0939305
-0.165191
0.00603547
0.0791674
-0.107725
0.217545
-0.0594803
-0.0501324
0.141419
-0.132042
0.0338021
0.048193
-0.010406
0.127081
0.0983142
-0.0256292
-0.167997
0.23397
0.0337991
-0.19008
0.0503669
0.306596
-0.00436325
0.0641792
0.140978
-0.0105912
0.429621
-0.155303
-0.0816216
-0.0631378
0.0560469
0.321859
-0.119065
-0.0257265
0.0722157
-0.158365
-0.0860072
-0.163926
0.060581
0.0405291
0.0125834
-0.182761
0.186175
-0.236352
0.079257
0.0403281
0.0165384
0.013041
0.241866
0.0541833
-0.102942
0.000119114
-0.153462
0.0734106
-0.0121395
-0.0534392
0.0701239
-0.00377698
0.114713
-0.0229481
0.0337323
-0.198505
-0.0911962
-0.163807
-0.213199
0.0894107
0.0153642
0.17426
-0.295479
0.032326
-0.0239186
0.044978
-0.143636
0.0281647
-0.00320678
-0.182951
-0.0582014
-0.0611375
-0.171609
0.273838
-0.0564778
-0.127503
-0.0235483
0.224503
0.358365
-0.119191
0.114302
-0.167626
-0.116155
0.273962
0.132612
9.65974e-05
0.158418
0.0489705
0.0191527
-0.07394
0.0335015
0.0262663
-0.00471331
0.188867
-0.00597432
-0.278883
0.058247
0.245326
-0.1413
0.0627689
0.0751317
0.0528963
0.0307908
-0.267549
0.224753
-0.204775
-0.186238
0.176097
-0.0834976
0.138729
0.0487154
0.180308
-0.131694
-0.175817
-0.0428135
0.126436
-0.0517867
0.113934
0.0993702
0.106422
-0.143495
0.0190766
0.195894
0.289944
-0.0153136
0.185285
0.132518
0.138883
0.0767928
0.0387667
-0.168375
-0.158572
-0.0490298
-0.131697
-0.020571
0.0947923
-0.0212145
-0.0291801
-0.0942392
0.307487
0.0810117
0.000805358
-0.101356
0.0291545
0.227456
-0.028407
-0.065534
-0.00932764
0.022673
-0.207979
-0.0801251
0.0349767
0.0987164
-0.150454
-0.271332
-0.0182592
0.128261
-0.204978
-0.10503
0.0321725
0.10128
0.00558375
0.0656792
-0.0307442
-0.144872
0.111869
0.0926326
0.133678
-0.193801
-0.0366413
0.0175127
0.011073
0.184485
0.0770657
0.0927788
-0.0403649
0.0705451
0.00478777
0.00257187
0.0211957
0.0910223
0.249015
0.0491845
-0.0705549
0.0522829
-0.0164407
-0.0117541
0.356355
-0.0466612
0.0305393
-0.013969
-0.0868957
0.255243
-0.159905
-0.00743576
-0.135073
0.10566
0.100106
0.116073
-0.0836043
-0.0871152
0.157008
-0.0381089
-0.016693
0.0220846
0.0761077
-0.243438
0.057621
-0.133925
-0.146741
0.225197
-0.0288513
0.130727
0.0341837
-0.0721014
-0.381589
0.0518981
-0.0103765
0.0137267
-0.146262
0.225751
0.137686
0.0439075
-0.273159
0.249437
-0.106536
-0.471511
0.141345
0.0745777
-0.00373492
-0.00463441
-0.00245574
0.123177
-0.0335411
0.0794455
-0.229135
0.0465367
-0.143689
0.0592459
0.0715165
-0.0131015
0.0603439
0.103229
0.0946646
-0.0663972
-0.138729
-0.0995585
0.0268861
0.109761
-0.00400693
-0.00165062
0.343547
0.0482249
0.0187906
0.110168
0.0959507
0.113646
0.119351
-0.0453897
0.0814572
-0.204083
-0.148183
-0.144532
0.00651052
-0.254062
0.0573629
0.0234948
0.30288
0.280546
-0.151731
0.0956487
0.0649572
-0.184498
0.171512
-0.207234
-0.0608061
-0.0482826
-0.107843
0.0285935
0.14869
-0.17644
0.0425398
0.118418
0.317474
0.0647595
0.0652337
-0.061015
-0.127519
-0.249113
0.00336697
0.139807
-0.202268
-0.10353
0.33195
0.0788374
0.0983577
-0.189231
0.0662504
0.147825
0.106505
-0.162209
0.182009
0.0455665
-0.299874
-0.228927
0.0430773
-0.134992
-0.0609127
0.0426842
0.00853628
-0.071973
0.0611081
0.172574
0.303085
0.0955473
0.257104
-0.023886
-0.0651454
0.0241508
-0.0196364
-0.0635654
-0.0227606
-0.0912935
0.0286886
-0.214858
0.017523
0.0493035
-0.0546274
0.00305944
0.0555218
-0.0415111
0.218302
0.129414
-0.0286404
-0.176465
0.335064
0.204113
0.00395108
-0.0568945
0.137473
-0.0593924
0.0946118
-0.0380011
0.0707681
-0.193117
-0.0446829
0.214478
-0.0167191
0.130329
-0.140121
-0.0569458
-0.140244
0.258681
-0.380101
-0.0755417
0.26191
-0.263359
-0.0209387
0.0253781
-0.281793
0.0420376
0.125168
0.14701
-0.0474395
-0.12093
-0.0214296
-0.0541495
-0.130556
-0.0318518
0.0929726
-0.171271
-0.0670415
-0.311387
0.216752
0.00165448
0.0993131
-0.0666532
-0.00572279
0.0924134
0.0900049
-0.0278716
0.122644
0.0476286
-0.279003
0.027931
0.03334
-0.152126
0.161384
0.32311
-0.066185
0.027622
0.18267
-0.151296
0.0475591
-0.0204332
0.279102
0.33167
-0.030709
0.0656667
0.167466
-0.0481049
-0.106267
0.0892558
0.0429994
-0.0503628
0.117104
0.108822
0.121753
-0.0746942
-0.0883798
-0.0766136
0.141136
0.0743709
-0.0457133
-0.0129846
-0.211561
0.109201
-0.0543969
-0.120302
0.339367
-0.0357652
-0.157291
-0.0631719
-0.0481944
0.141256
0.0806581
0.113602
-0.162265
-0.220232
0.046771
-0.0438221
0.0741183
-0.252317
-0.00373503
0.034775
0.07053
-0.0806854
-0.307422
0.102444
0.0389352
0.0729889
-0.0291631
0.04005
0.0854165
-0.29087
0.24793
-0.126407
0.0329483
0.0349002
0.254213
-0.1108
-0.216989
-0.268816
-0.207477
0.107799
-0.0449492
-0.122971
-0.353838
0.129712
-0.121489
0.0916278
-0.10821
-0.0688037
-0.0814181
-0.0944665
0.173978
0.000277781
0.034678
0.0515958
-0.0384734
-0.0996367
0.0788378
0.397195
0.0952173
-0.0625501
-0.0092323
0.157794
0.140374
-0.0598227
0.00238575
-0.266287
-0.150873
-0.159352
-0.0404188
0.0720108
-0.0988487
0.0741982
0.0397274
0.0058829
0.061308
-0.0337353
-0.0189341
-0.0675252
-0.0715034
-0.116079
-0.13631
-0.0808506
-0.000433958
0.0864884
-0.151425
-0.198786
-0.0892061
-0.179505
0.0744848
0.105647
-0.0636861
0.0245579
0.131259
0.213348
0.0143132
0.0734518
-0.0785418
0.0129719
0.0425235
-0.0679268
-0.0441764
0.157115
0.0110012
-0.0113303
-0.0635159
0.0153526
0.113528
-0.215807
0.0216185
0.0837165
-0.143574
0.150026
-0.124237
0.228107
-0.282948
0.0742043
-0.032993
-0.0214239
-0.0454114
-0.167036
0.114671
0.195171
0.0422797
0.000668003
0.137804
-0.188554
-0.0170147
0.206335
0.00907327
0.0880419
0.0953585
-0.208674
0.0114399
-0.110597
-0.222341
0.0745694
-0.095832
0.0227912
0.042526
0.0822973
-0.0909585
0.0927908
0.33335
-0.109884
-0.00413618
-0.147428
-0.249266
-0.181806
-0.0975423
0.166648
0.212494
0.168528
0.0689398
0.0683157
-0.110539
0.0842031
0.0339523
-0.180969
-0.0297797
0.0397006
0.0686773
0.0145476
-0.193624
-0.0272208
0.194458
-0.112909
0.186915
-0.117931
-0.106374
-0.0102185
-0.0703247
0.107193
-0.00611433
0.0307865
-0.176092
0.126744
-0.0310377
0.197376
0.312025
-0.0634862
0.0389575
-0.0139567
-0.186049
0.0908204
-0.18322
-0.0635646
-0.121595
-0.0482793
0.0669777
0.177429
0.00272505
-0.230866
-0.0343059
-0.100283
-0.0502076
0.0274256
-0.166464
0.301637
0.184703
0.039646
-0.0126895
0.0441255
0.149955
-0.0236319
0.0374276
-0.00476995
-0.0978147
-0.158832
0.17178
-0.0392972
0.0402336
0.0084952
-0.123072
0.226033
0.0678487
0.0215898
-0.276609
0.0871258
0.0758485
-0.0863355
0.00926596
0.0252913
0.0689485
-0.0951297
0.228389
-0.019916
-0.157848
-0.0309871
-0.025468
-0.071207
-0.0721605
-0.211358
-0.106509
-0.00962681
0.189689
-0.0171279
0.0927822
0.0462501
-0.0344518
0.00950713
0.173438
0.0838299
0.0119976
-0.427466
0.133077
-0.0739598
0.0150202
0.134886
-0.0124712
0.285064
0.0156828
0.068439
-0.056472
-0.300855
-0.0774699
-0.141564
0.0880993
0.0349579
-0.149809
0.0503756
-0.00181026
-0.171958
0.0540979
-0.111605
0.0480481
0.097414
-0.168002
0.0366175
-0.278047
-0.253642
-0.12746
0.0825373
0.0849897
-0.106255
-0.205203
-0.182548
-0.0471173
0.095085
-0.0359712
-0.140776
0.0570363
0.129809
-0.101019
-0.127684
-0.144287
0.135166
-0.106036
-0.0552644
-0.300008
-0.0324704
0.0107846
-0.031117
0.0247071
0.0174145
0.138288
-0.149789
0.0459818
0.449331
0.0716037
-0.0506479
-0.0398036
-0.0804471
-0.179376
-0.0888191
-0.0634612
0.0849109
0.0188194
0.115429
0.0803702
0.0359711
0.0690307
0.120246
-0.205894
0.125327
0.146139
-0.010667
0.19474
0.193805
0.145065
0.109589
0.175396
0.186995
-0.168856
0.0160889
-0.0374809
0.0201091
-0.097725
-0.201233
-0.0436697
-0.0114311
0.159343
-0.0403377
-0.0508223
0.0682456
0.205249
-0.170034
0.279324
0.0983565
-0.0978567
-0.144679
-0.0924495
-0.0103784
0.107848
0.0723233
0.186241
0.0972552
-0.044772
-0.0374048
-0.124568
-0.0276271
-0.193184
-0.192418
0.122724
0.00748957
0.200298
0.162133
-0.0494001
0.0569344
-0.0333857
0.127764
-0.110502
0.127468
0.0574925
0.0725498
-0.133311
0.121506
-0.0867403
-0.0976441
0.174906
-0.201786
0.112579
-0.0645429
-0.0403097
0.27027
0.115919
0.126011
-0.0203027
0.124402
0.121122
-0.12617
-0.129554
0.125207
0.0649977
-0.171737
0.0887005
0.21297
0.148353
-0.146103
0.0499892
0.0891052
0.387743
-0.0254134
-0.0968121
-0.103806
0.00889109
-0.130314
-0.0531304
-0.306134
-0.0691536
-0.032082
-0.0843873
0.0021337
0.0328815
0.0751301
0.0545373
0.14576
-0.184918
-0.0674231
0.0164361
0.190928
-0.139558
0.0314662
0.247658
0.10347
0.0209062
-0.123064
0.0116568
-0.0775145
0.220952
-0.0295498
0.273937
-0.0824855
-0.0574248
-0.122179
0.0292225
-0.0241578
-0.1115
-0.237829
0.059641
0.0477546
-0.00116664
0.231783
-0.065873
-0.00453053
0.0621538
-0.100527
-0.00365518
-0.199578
-0.0434207
-0.137523
-0.0184452
0.268855
0.149016
0.129895
0.0354518
0.0764014
-0.0265681
0.029958
-0.0193308
-0.0562413
-0.013148
0.17802
0.102241
-0.0671473
-0.0536122
-0.103051
-0.0207488
0.0603294
0.09361
-0.189195
-0.0269286
0.0705368
-0.0882359
-0.266544
0.0129451
-0.0798729
0.0530828
-0.0770703
-0.147055
-0.061419
-0.0259647
-0.0838079
0.0552779
-0.256938
0.0969651
-0.157101
0.207295
0.272078
-0.183206
0.0151891
-0.117435
0.065635
-0.0153347
-0.0182561
-0.0903381
-0.0141566
0.151393
-0.157816
0.0228138
-0.0700454
-0.190455
0.127501
-0.29034
-0.0558258
-0.0856923
-0.0580592
0.0826887
0.212898
0.120191
-0.150097
0.0432305
-0.1042
-0.0152049
-0.0781729
-0.0825502
0.0408345
-0.113386
0.0463998
-0.00894516
-0.0646522
-0.212023
-0.0741014
-0.0202327
-0.0559597
0.441694
-0.0861176
-0.100045
-0.101415
0.022615
0.0237674
-0.0631473
0.0138712
0.152375
-0.172473
0.154271
-0.0108225
-0.01736
0.188584
0.114775
0.220521
0.175309
-0.0775835
-0.127388
-0.184248
0.0348439
-0.0830129
0.0856612
-0.183902
-0.0921702
0.0692075
-0.0697862
-0.00185571
0.0097637
0.257681
-0.0685693
0.161402
0.22905
0.265469
-0.198044
0.26709
-0.185705
-0.120081
-0.066377
-0.00758021
-0.0464714
-0.254354
0.183188
-0.0257061
0.0892879
0.0134124
-0.0252558
-0.0707234
0.00988905
-0.0255873
0.0813603
-0.053265
-0.272888
0.164052
-0.0387238
-0.0670656
0.0543844
-0.0367292
-0.202495
-0.0677139
0.240558
-0.0894386
-0.0149289
0.0453839
-0.082927
0.0334426
0.0796184
-0.026686
-0.0526503
0.0665502
-0.0535497
0.205626
-0.115908
0.110209
0.174699
-0.145937
-0.117081
-0.172235
0.18238
0.0587885
0.102036
-0.189465
-0.0243268
-0.128707
0.0381456
-0.0283125
-0.177345
-0.12844
0.00493087
-0.0820266
0.182687
0.13968
0.0713588
0.217976
-0.130266
-0.124695
-0.00333386
0.0196142
-0.281893
0.0896634
0.0430278
-0.0547284
-0.0884645
-0.116047
-0.0923753
-0.0655661
-0.209996
-0.112356
-0.148308
0.0678808
0.143403
0.163515
0.202866
-0.0247695
0.0938461
0.0413371
0.257722
0.0896561
0.152482
-0.0184339
-0.0174354
-0.0864285
-0.135519
-0.225776
0.0206739
-0.00242453
-0.0674206
-0.224362
0.023596
-0.377582
-0.384669
0.12165
0.0160088
-0.241885
-0.0630269
-0.0828102
-0.0256372
-0.110214
0.0830687
-0.0681134
0.0904021
0.0617025
-0.0542407
0.236778
0.00242292
-0.00534294
0.0624076
0.0744342
0.199616
-0.00953724
0.0446648
-0.0128388
0.288557
0.208465
0.0330461
0.150329
-0.0665639
0.0942327
-0.293904
-0.16003
-0.174667
0.0382143
0.0153778
0.019872
-0.248722
-0.0577902
0.0971687
-0.0329254
-0.0926005
-0.0175075
0.0122433
0.0718588
0.232766
-0.0356642
0.0923811
0.344162
-0.00432445
0.16067
0.0401201
0.119473
0.176055
-0.0349419
-0.296149
-0.0933695
0.256979
-0.299262
0.162235
-0.0235249
0.0644938
0.0131604
0.0861654
-0.155063
-0.0110274
0.0706386
-0.00202104
0.0558799
0.00233367
0.030197
0.192067
0.136905
0.245406
0.0793281
0.305709
0.129935
0.233493
0.048192
-0.0331433
-0.0415445
0.230995
0.0364288
-0.0974224
0.059298
0.049045
0.101209
0.0735915
-0.211217
-0.0417063
-0.0564939
0.0180974
-0.0420707
-0.0363623
-0.0914754
-0.0199983
-0.199914
-0.207664
0.11047
-0.185253
-0.000143327
0.102345
-0.129478
-0.227105
0.267265
0.0146096
0.0893134
0.171476
0.0516462
-0.0191588
-0.16522
-0.101486
0.158801
0.162222
0.138811
-0.0758069
-0.121553
0.0633714
0.00586319
-0.169061
-0.117435
-0.0213779
0.0812016
0.0631748
-0.0139226
-0.0806389
0.0212422
0.0259856
0.0593604
0.135769
0.0973148
0.114765
0.019537
-0.0946675
-0.00390554
-0.127398
0.00714667
0.0375397
-0.147887
0.0751366
0.121562
-0.110054
-0.132021
0.0950922
0.0692086
0.112571
0.00391435
-0.00423519
-0.246688
-0.0592823
-0.0289311
0.0405783
0.0780403
-0.0998269
0.218092
0.149212
-0.157588
0.0778642
0.10087
0.00152636
0.169175
-0.0929449
0.00101705
0.152675
-0.0161155
0.14839
-0.0669667
0.0320854
-0.0506077
0.187029
0.0301099
-0.034296
0.00496354
-0.00864941
-0.0450085
-0.0349043
-0.0361297
-0.0809886
0.177915
-0.02486
-0.00989165
0.0809443
-0.0446597
0.186128
-0.11648
-0.124036
0.304613
0.0191596
-0.00889494
0.101488
-0.122107
-0.169058
0.107832
-0.109718
-0.170697
0.0386728
-0.00560229
-0.0365409
0.247213
-0.10299
0.102142
0.125026
0.0487946
0.134302
-0.117698
-0.132072
-0.0495904
-0.219387
-0.133068
0.00531572
-0.0337801
0.0792198
0.0352196
0.00107278
0.0467741
-0.187055
-0.0754706
-0.119081
-0.263076
-0.111259
-0.00344134
-0.168927
0.175348
-0.153687
-0.0638016
0.0607278
0.154465
-0.165745
-0.0631159
0.0900029
-0.196498
0.0441326
-0.189012
-0.335524
0.0889294
-0.0846805
0.0549586
0.0985642
0.11559
-0.0619997
-0.0258032
0.272323
0.0376213
-0.0726516
0.183109
0.135559
0.0735337
0.122145
-0.113362
0.000924308
-0.0612282
-0.0932434
-0.157045
0.105741
0.0222408
0.0885584
-0.112552
0.0359746
0.113258
0.0487244
-0.048429
-0.0961393
-0.118701
0.0745512
0.0652681
-0.139322
-0.0316979
-0.0916745
0.169349
-0.132378
-0.117398
-0.0916954
0.132086
-0.248433
0.101121
-0.0156063
-0.0845433
0.0933925
0.0747937
-0.0615363
-0.0133696
-0.284491
-0.241674
0.0663997
-0.218026
-0.190035
-0.159157
-0.129351
0.133867
0.0255157
-0.210527
-0.139923
-0.106568
-0.180152
-0.345047
0.0668873
0.177345
-0.243768
0.0243072
0.0409493
-0.102541
0.242291
0.0766191
-0.00813184
-0.174514
-0.106
-0.0580681
-0.360356
-0.0614165
0.180198
0.0074025
0.20369
-0.0862873
0.07202
0.078173
0.0498947
0.106558
-0.159096
0.0733121
0.055562
0.286157
0.153953
0.267632
-0.0754267
-0.0959212
0.103145
0.137198
-0.073885
0.0198535
0.168429
-0.049213
0.0129582
0.043213
-0.012489
-0.0807529
-0.136259
0.21125
-0.174277
0.33752
0.252221
0.000548156
0.229315
-0.154142
-0.0295356
0.180777
0.148891
0.106917
-0.108084
0.0336711
-0.061585
0.0053914
-0.262634
-0.0823555
-0.247593
0.162285
-0.0265094
0.0352234
0.23381
-0.0546144
-0.199003
0.0175451
0.122295
0.23311
0.131012
0.0712922
-0.103239
0.192295
0.130741
-0.0615995
-0.0350933
-0.075603
0.0645407
0.0922952
0.0642056
0.0887461
0.0847513
-0.00259335
0.377714
0.277687
-0.146852
0.138218
0.04122
0.146904
0.151189
0.213436
-0.211534
0.00573573
-0.306821
-0.155776
0.0232404
0.086403
0.0838739
0.0483255
-0.124884
-0.109933
0.0167936
-0.151669
0.0109384
-0.0306779
-0.0191213
0.22147
-0.101166
0.138755
0.116967
-0.151591
0.0686885
-0.24609
0.152199
0.0823823
0.00599252
0.0569141
0.332326
-0.0297099
0.0700077
-0.181795
-0.124032
-0.0058797
0.0187095
0.0896319
0.00165903
0.0438204
-0.295312
0.0222279
-0.00769072
0.136657
0.0537596
0.0102362
-0.0759935
0.293871
0.194094
-0.193394
-0.206221
0.0347389
-0.176432
0.113641
-0.126439
-0.0438081
0.0957876
0.0184306
0.183443
-0.0278321
0.0921045
-0.113616
0.0263772
0.0597325
0.412748
-0.0433484
0.0193134
-0.251797
0.22461
0.110929
0.261676
-0.00759943
-0.0960604
0.0581094
-0.0448053
0.0347092
-0.0954764
-0.302554
0.150869
0.0512141
-0.0513986
0.132572
-0.208209
-0.0906121
-0.127464
-0.0707175
0.00584837
0.11761
-0.0308931
-0.0226373
-0.317738
-0.158033
0.139985
0.0795513
0.061816
0.082315
0.13426
0.0687487
0.256895
0.0336082
0.0391964
-0.0273672
-0.0923259
0.0752552
0.252444
-0.0533146
0.0376548
0.123617
0.224966
-0.125345
0.0577906
0.00624748
-0.00135151
-0.0609028
-0.0964918
0.169256
0.212405
0.0311641
0.088253
0.00955611
-0.267498
-0.201608
-0.266316
-0.0205038
-0.0505873
-0.0105459
0.0385499
0.0364026
0.0555952
-0.17054
0.137811
0.00139712
0.112878
-0.13391
0.0521668
-0.102816
0.27024
-0.0583705
-0.0417757
0.09724
0.299646
0.00498466
-0.0617911
-0.138333
0.184625
-0.0408066
0.132132
0.144731
-0.00353609
-0.0528383
-0.152051
0.0243208
0.239177
0.00341731
-0.0127444
0.320431
-0.0185998
0.12782
0.0788648
0.0133455
0.110338
0.0748403
0.280656
-0.135024
-0.21568
-0.0839865
-0.161406
-0.00734442
0.140327
0.0535355
-0.277908
-0.197062
-0.337325
0.143241
0.041592
-0.0863869
0.0497571
0.0685245
-0.127721
0.00310696
-0.219255
-0.0337569
0.0564538
0.0120668
-0.0133678
0.00360618
0.100888
-0.0175076
0.0154169
-0.0781121
0.0739252
0.247633
-0.233349
0.0838012
-0.161054
0.0011853
0.156927
-0.14896
-0.215844
0.133791
-0.0225666
0.137538
-0.127143
0.00883742
-0.00972792
-0.241085
0.0290921
0.0876034
-0.0929327
-0.104451
0.0135934
0.187708
-0.132099
0.200248
-0.0264231
0.074819
-0.212855
-0.27148
-0.0114522
0.109069
0.271032
-0.0118932
-0.0877149
-0.0825239
-0.113355
-0.0575483
0.0210489
-0.028592
0.12104
-0.0948786
-0.0386447
0.0101429
-0.116284
-0.0250975
-0.0159475
-0.0726504
0.130468
-0.0660227
0.000139582
0.118206
0.0909181
-0.325955
0.168609
-0.0875109
0.218476
-0.101873
0.0774539
0.106374
-0.000976781
-0.0847076
0.034854
0.066162
-0.208188
-0.00485555
0.144154
-0.128067
0.0666137
0.0984796
0.0963186
0.261909
0.00108476
-0.0444733
-0.0856133
0.158754
0.087907
0.134564
-0.130862
-0.129299
0.053806
0.0397522
-0.00594658
-0.0950082
0.133908
0.0567887
-0.106241
0.114681
0.0885208
0.170217
0.0443054
0.112708
-0.0239042
0.192412
0.186118
-0.0717875
0.0397712
-0.254824
-0.154522
-0.0455384
0.139609
-0.161467
-0.161037
0.14119
-0.230476
-0.00764123
-0.0758847
0.0655352
-0.150402
-0.0864263
0.0509064
0.0284431
-0.192796
-0.0452286
0.0571964
0.00961644
-0.0289304
0.0207709
-0.134185
-0.000636026
0.100883
-0.135538
-0.0245171
0.069725
-0.111359
0.00278779
-0.0199769
-0.132952
0.0279643
-0.120459
-0.153911
-0.312358
0.233206
-0.0207783
0.106651
0.0262643
0.139762
0.086835
-0.142312
0.0271606
-0.0311638
0.129857
0.172437
0.000558786
-0.0184492
0.0653377
0.254092
-0.146353
0.205197
0.0858493
-0.0722713
0.00642517
-0.0382322
0.0438035
0.252509
0.328548
-0.0741295
0.0370446
0.0612799
-0.0532814
-0.0283258
-0.0845837
0.0421191
-0.0116336
-0.037164
-0.196584
-0.0920457
-0.0848013
0.266729
-0.000908735
-0.0822043
0.104539
-0.0409211
-0.176962
0.0280962
0.0762426
0.191128
-0.05978
0.024165
-0.187384
-0.199986
0.180018
0.0943733
-0.0709608
0.182099
-0.156049
0.213013
0.0138435
-0.0535384
-0.206567
-0.120637
-0.298728
-0.105994
0.200984
-0.0558048
-0.170774
-0.078305
0.264129
-0.104515
-0.149683
0.0369634
0.0559652
0.057799
-0.067576
-0.0487804
-0.0856017
-0.0316619
0.216172
0.114541
0.0194838
-0.0916755
-0.00498912
0.277547
-0.0592584
0.0920457
0.0692078
0.0405678
-0.0442175
0.0724624
0.035258
0.0943761
-0.177561
-0.234245
0.012533
0.187213
0.0327039
-0.0214405
0.128709
0.0521039
-0.0481018
-0.264843
0.0687889
-0.0986638
0.187901
-0.00422176
0.201192
-0.0841323
-0.0890869
-0.106511
-0.283908
0.120381
0.0327829
-0.0931746
0.0556947
0.108507
-0.111325
-0.0702846
-0.220593
0.224518
0.174086
0.140797
-0.0537075
-0.24658
0.0344255
-0.190689
0.0369648
-0.0646598
-0.0656504
-0.0260325
-0.102812
0.02265
0.304595
0.0275966
0.0922809
-0.146452
0.13344
0.290251
0.137325
0.0208504
0.0635518
-0.179652
0.191478
-0.151714
0.175635
-0.228846
-0.0419061
-0.00506385
0.0174894
0.108329
0.202578
-0.133037
0.247201
-0.157608
-0.0353732
-0.178692
0.16816
-0.120039
-0.172082
-0.15191
-0.0418162
0.118347
-0.0587029
0.118122
0.0120145
-0.191564
0.0516897
0.0745389
0.1392
-0.0800071
0.0453334
-0.136637
-0.22363
-0.203007
0.183191
-0.0154629
0.0102872
-0.307575
-0.0419524
0.0576312
-0.0454587
-0.102212
-0.159217
-0.0324649
-0.077396
-0.143187
0.0623295
0.26189
-0.204052
-0.0912768
-0.107407
0.107737
-0.152131
-0.141383
0.0536558
-0.248209
0.175197
-0.0863216
0.265571
0.175571
-0.0086617
0.107285
-0.0983911
0.0522784
0.00484836
-0.153934
-0.0995721
0.0170697
0.125206
-0.0110888
0.119677
-0.0709645
-0.110297
0.0700066
-0.255836
-0.0138795
0.0294265
0.161371
0.100721
-0.18524
0.235917
0.0842049
-0.172868
0.113892
-0.0319945
0.109578
-0.168097
0.254619
-0.335138
0.168602
-0.0889307
0.105836
0.136667
0.26847
0.00553765
-0.0776488
-0.0884944
0.206428
0.158849
0.0692357
0.00943316
-0.020588
-0.0250059
0.284029
-0.0575812
0.0547086
0.0222385
-0.0864398
-0.094787
-0.102905
-0.353876
-0.11202
-0.295032
0.0853082
0.0886418
0.155356
0.0262486
-0.0444981
0.120984
0.171473
-0.135994
0.166071
-0.0843598
-0.121439
-0.187647
-0.146899
0.296796
0.109735
0.167022
0.0731395
0.0919873
-0.276804
0.0717136
0.00099623
-0.0308559
-0.0919278
-0.0674342
0.0844946
-0.019584
0.0857253
-0.0430594
0.331397
-0.0150064
-0.0469299
0.28394
0.0509053
-0.250297
0.033744
-0.0625835
-0.05443
0.0105815
-0.173687
0.158929
0.028768
-0.274315
-0.0228677
-0.0733727
-0.0943759
0.221836
0.0692127
-0.0657848
-0.047907
0.111361
-0.109505
0.0582901
0.19902
0.202073
0.0229004
-0.0698417
0.215471
0.0103017
-0.0318702
-0.0198726
-0.0347491
0.097719
0.258577
0.00561064
0.0724661
0.102424
-0.182554
-0.286429
-0.0207507
-0.0169169
0.239621
-0.0753701
0.0311258
0.0194936
-0.245624
-0.164638
0.0279443
0.141314
0.263919
-0.0585686
0.297318
0.061683
-0.182142
-0.0560884
0.115836
-0.195301
0.0125009
0.25177
-0.073055
0.084205
0.0596581
-0.144198
-0.111319
-0.118299
-0.00769035
0.225585
-0.0275652
0.0104464
0.0337339
-0.00470214
-0.260619
0.135192
0.0318978
0.315343
-0.0669203
-0.197934
0.0710321
-0.0717421
0.381451
-0.0143097
-0.321687
-0.0225865
0.137148
0.0587065
-0.12401
0.242128
0.196901
0.21617
0.186138
0.210187
0.32407
0.0421269
0.0285373
-0.187613
0.00152682
0.0814215
0.142904
0.102386
-0.0762034
-0.0619416
-0.0849125
0.0412689
0.109981
0.152337
-0.22761
-0.123161
-0.0769693
-0.0406965
-0.207713
-0.0428532
-0.0330324
-0.0935226
-0.00578073
0.115064
-0.182946
0.10922
-0.14303
-0.0579812
0.0566401
-0.0670116
0.0845914
-0.0228453
-0.169255
-0.0583475
0.0796909
0.0579656
0.093983
0.0544826
0.187136
-0.0542175
0.280921
0.0553845
-0.0767692
0.063487
0.0525733
0.0873998
0.267107
0.0824675
0.0570651
0.0699046
0.267931
-0.142384
-0.276548
-0.264949
-0.0672344
0.0363789
-0.00358075
0.0927709
0.14894
-0.00255388
-0.2052
-0.152085
0.0635978
-0.274573
-0.103722
-0.0415776
0.273549
-0.189642
0.249898
0.0385892
-0.0938639
-0.264293
0.147856
0.115704
-0.130319
-0.160471
0.0304566
0.143454
0.142164
0.296011
0.0182418
0.0383151
0.288478
-0.0374733
-0.027712
-0.0729521
-0.0209107
-0.141062
0.0851097
-0.0855574
-0.0460885
0.102762
-0.142173
0.0835397
0.000754385
0.0658165
0.124996
0.0934549
0.15048
0.16919
-0.00317954
-0.0435336
-0.122569
-0.0221965
-0.0319067
0.134032
0.0618248
0.04743
-0.0781621
0.351768
0.28446
0.0320862
0.0587441
0.000425458
0.00483575
-0.210143
-0.10526
0.145423
-0.104356
0.227238
0.0979505
-0.0687216
0.0102463
-0.00853868
0.0537504
-0.0259454
0.0777298
0.0783043
-0.271537
0.147465
0.255662
-0.0285253
-0.216672
-0.264322
0.144671
0.145962
-0.0756187
0.245391
-0.171256
-0.128076
-0.0630369
-0.0297504
-0.0143867
0.0688243
0.0629048
-0.0353502
0.0570423
0.160014
-0.219335
0.0379546
0.0189521
0.0313771
0.0152334
-0.156165
-0.028545
0.036734
-0.00604293
0.0807768
0.113943
0.0296691
-0.0120896
-0.0112754
-0.137718
-0.102496
-0.0766379
0.11351
-0.0612579
-0.111212
0.076014
-0.045639
-0.0311305
-0.116243
-0.129318
-0.144137
0.20186
0.0434489
-0.331276
0.0712676
-0.0357757
-0.0485123
-0.0445349
0.0825197
0.0946207
-0.117201
0.153911
0.214786
-0.268291
0.0441979
-0.149237
0.125885
0.104226
-0.0435256
0.0197347
0.226163
-0.231056
-0.0826372
0.140912
0.0807945
0.0460858
0.043128
0.303201
0.122558
0.122118
0.121204
-0.129958
-0.0716191
-0.076833
0.124495
-0.12615
-0.0563831
0.0887428
-0.0171908
0.01452
-0.0892746
0.105815
-0.00248787
0.126177
-0.145713
-0.080705
-0.226273
-0.150841
0.33322
-0.163631
-0.0842625
0.0494504
0.122506
-0.00574815
0.124843
0.0894827
0.0730867
0.151453
-0.214086
-0.0226722
-0.161971
-0.0453304
0.0613792
0.0374763
-0.0373471
-0.10045
-0.0832262
-0.12017
0.0501122
0.309741
0.148229
-0.15609
0.0786061
-0.0931503
-0.160271
0.131172
-0.0248098
0.157164
0.277631
0.127755
-0.234041
0.124324
-0.152581
0.105332
0.0675138
0.291159
-0.0893392
-0.248854
-0.0924734
-0.00134884
0.0399479
-0.126361
0.371859
0.0793419
-0.0233943
0.0517376
0.14161
-0.13855
-0.139582
-0.151495
-0.200588
0.015262
-0.00854361
0.0933698
-0.108731
-0.0463896
0.149913
0.0832513
0.086289
0.090802
0.196906
-0.0216898
-0.24179
0.0813481
-0.0195093
-0.0414557
0.00176918
0.202034
-0.022438
-0.218233
-0.0345971
-0.0896089
0.181938
-0.195633
0.100381
0.12427
-0.0444483
-0.171674
0.154324
-0.223661
-0.156944
0.0270604
0.0477227
0.116168
-0.105887
0.216974
0.0104497
0.0963359
-0.0514801
0.0219513
-0.258675
-0.0854894
-0.136231
0.0952695
-0.140918
0.107571
0.128715
-0.189573
0.155163
-0.0048942
0.069555
-0.123482
0.28319
0.15578
-0.0995421
0.0759586
0.0609245
0.0796869
-0.043191
-0.046887
-0.114698
0.179142
0.133798
-0.106104
0.350352
-0.143509
0.129608
0.212753
0.044175
0.146613
0.0752345
0.0933391
-0.0805023
0.0721434
-0.0366821
0.0495806
0.0028337
-0.014768
-0.0489144
0.0576963
0.0411427
0.10559
0.219735
0.0431659
-0.0290266
0.0569033
0.119318
0.0469325
0.0603566
0.15345
-0.235135
0.266409
0.121424
0.196725
-0.294092
-0.331335
-0.247593
-0.05661
0.0175679
0.132865
0.0164622
0.0286619
0.29628
0.00748252
-0.175309
-0.13099
0.227421
-0.238628
-0.0398081
-0.215904
0.0108037
0.134163
0.0626604
0.0997784
0.19094
-0.241349
-0.15685
0.0814585
-0.309302
0.179206
0.458665
0.0569759
0.0474973
-0.230437
-0.378217
-0.233848
-0.0270032
0.325477
0.0559823
-0.0859642
0.148133
-0.0802816
0.119662
0.114388
0.0854681
0.118112
-0.0480226
-0.0704243
-0.115161
0.325224
-0.0704538
-0.280624
-0.0615486
-0.0770503
0.187949
0.0353704
0.0475964
-0.138313
0.083275
0.167375
0.00221372
-0.13295
0.0828406
-0.0558985
0.16871
-0.327827
-0.0776698
0.053563
0.00445737
0.030357
0.188629
-0.0170721
-0.0766215
-0.0358964
-0.0691249
0.10895
0.170327
0.0649366
-0.0579884
-0.0269797
0.105714
-0.0574853
0.146461
-0.0877641
-0.0756529
-0.00236787
0.196999
0.0329468
-0.114552
0.0254332
0.0374815
-0.251649
-0.0102667
0.201658
0.0419932
-0.20481
0.00644579
-0.0298554
-0.0598584
-0.189951
0.170493
0.164004
-0.0106557
-0.0781225
-0.104374
-0.0549014
0.104079
-0.312315
0.0626275
-0.155266
-0.035573
0.0878914
0.146871
0.124053
-0.0438728
-0.186321
0.00841234
0.017096
0.0674692
0.178883
-0.15613
0.298002
0.0488581
-0.271132
-0.0776653
-0.0179223
-0.131923
-0.0929615
-0.270581
-0.0890582
-0.0903192
0.240742
-0.00603394
-0.0657138
0.15042
-0.0154452
-0.0959461
0.0376741
0.0178704
0.145981
0.101545
0.00312031
-0.235609
0.153611
-0.113274
-0.38642
-0.0956782
-0.080314
-0.027965
-0.0753371
-0.0275082
0.0560045
0.100672
0.0906226
0.0121067
0.00328484
-0.0979043
-0.0556498
-0.0192124
0.161006
0.0192524
0.0583339
-0.0487508
0.00685687
-0.307545
-0.104703
0.200134
-0.0159928
0.039471
0.0499775
-0.0954431
0.0268889
-0.0118123
0.0200749
0.233275
-0.0735252
-0.0573805
-0.081704
0.129794
-0.0700422
-0.193581
0.155281
0.0908605
-0.0887675
-0.166069
-0.127061
-0.254852
0.182393
0.0236602
0.19756
-0.0151737
0.024366
0.144528
-0.2152
-0.0102557
-0.0996931
0.0470765
-0.145457
0.072025
0.0582974
0.041221
-0.0214179
0.00868944
-0.257082
-0.131207
0.181283
-0.230323
0.363725
0.209053
-0.0341626
0.0482489
0.127363
0.0596115
-0.0345779
-0.124125
-0.0272694
0.00721453
-0.256927
-0.0016414
-0.118556
-0.0116828
-0.114535
-0.0724822
0.0258802
-0.143692
-0.0991784
-0.234998
-0.0863281
0.126306
-0.518707
-0.0410155
-0.0593885
-0.20719
0.0489462
0.123037
-0.00697365
0.0844513
-0.0733189
0.130139
0.0613697
0.232637
0.219461
0.0210479
-0.246156
-0.185632
0.098729
0.0565268
0.0883365
-0.0801515
-0.0591499
-0.216247
-0.142592
-0.0153648
-0.0431905
-0.0338489
0.187991
0.160636
0.00719683
-0.124087
-0.0490476
-0.0612003
-0.0109312
0.033079
-0.150274
0.175859
0.275475
0.00837917
0.124915
-0.0306354
0.0357509
-0.100074
-0.128906
0.134329
-0.0370283
0.12874
-0.113219
0.395639
0.0382252
-0.138454
-0.0216466
-0.0463118
0.244658
0.00623746
0.137604
-0.158206
0.0449146
0.00951805
0.11333
0.134024
-0.00962866
-0.130361
0.0282645
-0.126483
-0.0763859
0.11336
0.0942468
-0.152695
0.018113
-0.0465055
0.0147204
-0.136752
-0.101191
-0.181443
0.232939
-0.0732748
0.203253
-0.0641674
0.291591
0.0361947
-0.0476126
0.117506
-0.0434799
0.0356891
-0.0939923
-0.12525
0.265025
-0.131161
0.106381
0.0726954
0.0693973
0.0794802
-0.288944
0.0177045
0.114711
-0.080625
-0.00390428
-0.00306504
0.00925863
-0.00954524
0.0427702
0.172411
-0.0241966
0.196452
-0.169521
0.00267197
0.0431564
-0.166843
0.00728552
-0.102487
0.143498
-0.0198004
0.154207
0.0284725
-0.106024
0.00412805
0.0521496
0.0140597
-0.118401
-0.028403
0.0147757
0.0847956
0.191004
0.105214
0.154515
-0.216805
0.112639
0.0293213
0.0434808
-0.120102
-0.348448
-0.106889
-0.132293
0.039029
0.180714
-0.0206411
-0.138151
0.0905506
-0.13684
-0.0842501
0.323231
-0.0059866
-0.0923342
0.0341859
-0.207394
-0.204668
-0.128045
-0.08887
0.0702402
-0.0445257
0.101278
-0.0998564
0.0044778
-0.0687247
0.0878504
-0.0236062
0.199579
-0.242551
-0.0954337
0.0978727
0.119023
0.197646
0.229765
0.0332838
-0.171993
0.00936702
0.0577073
0.0131595
-0.163481
-0.00318624
0.0402284
0.119259
-0.0826504
0.149461
-0.182669
-0.0431706
0.102784
0.0016815
0.385931
0.11706
-0.12932
-0.0876604
-0.114541
0.00496269
0.00813811
0.20629
-0.121888
0.0731779
-0.0238423
0.130935
-0.121405
0.0289051
-0.248373
-0.0129746
-0.0546172
0.20091
-0.419063
-0.211175
0.0423374
-0.231193
0.0924772
-0.19972
-0.294405
-0.172487
0.00211006
0.10565
-0.13254
-0.0470505
0.0938903
0.0220137
0.18815
-0.0979406
0.0293983
0.0221759
-0.0533206
0.0319161
0.00386763
0.224524
-0.00122776
-0.0912984
0.0734581
-0.140266
-0.211583
-0.0388577
-0.320797
-0.00955702
-0.0668489
-0.00479909
0.00736725
-0.132764
0.0461982
0.102482
-0.0156815
0.182416
0.0274319
-0.190014
-0.210098
0.0770292
0.0131543
-0.0875589
0.0444289
-0.00924829
-0.0587926
-0.0475628
-0.123862
0.197491
0.0761106
-0.292875
-0.0759118
-0.0914734
-0.0532724
0.177826
-0.278609
0.0605916
-0.130909
-0.0142663
-0.154348
-0.0639138
-0.146699
-0.0596722
0.182059
-0.142815
-0.0545517
-0.239081
0.03711
0.241041
-0.0403285
0.151951
0.0702445
0.174382
-0.0907955
0.0157549
-0.0521713
-0.133146
0.0477518
0.00567384
-0.0624166
0.185827
-0.0531567
-0.00612265
0.20227
0.151786
0.0454273
0.0983459
-0.162437
0.0127232
-0.151929
0.140711
-0.194233
0.037922
0.0837329
0.193364
-0.0487898
0.0752311
-0.271071
0.20735
-0.0177489
-0.149579
-0.136894
0.149662
-0.0780856
0.0321807
0.0407604
-0.18281
-0.130943
-0.0478596
0.208576
-0.101924
-0.149771
0.128324
0.108313
0.251972
0.20853
0.008181
0.0635633
0.0454378
0.0237772
0.336245
0.107616
-0.0264957
-0.140715
0.230229
-0.00118118
0.146025
-0.397854
0.372304
0.215187
-0.0520112
0.00986313
0.0624273
0.0290189
-0.117045
-0.179647
0.00957201
-0.154707
0.15784
0.0991066
0.160815
-0.000986187
0.0317794
-0.0803513
-0.0299552
0.0205852
0.142522
0.0328724
0.209642
0.0634007
0.132669
0.0546409
0.0735794
-0.0423192
-0.0755183
0.134869
-0.314749
-0.135589
0.147464
0.15446
0.267558
-0.04974
-0.0186325
0.0387433
0.314378
0.0997941
0.0844476
-0.190285
0.192637
-0.109666
-0.168427
-0.0326478
-0.046603
0.112051
-0.0310971
-0.130013
-0.081629
-0.066937
0.0249739
-0.23556
-0.126412
-0.0113253
0.151925
0.0119559
0.0911364
0.290906
-0.0271835
0.205332
-0.0428973
-0.0161591
0.148118
-0.122731
-0.0134222
0.176173
-0.0244111
0.195406
-0.165418
-0.251511
-0.162572
-0.17818
-0.0317098
0.168445
0.150936
0.128433
-0.272446
-0.0795504
-0.162936
-0.137973
-0.102981
-0.105046
-0.107246
0.0493649
-0.0855826
-0.0325592
0.125699
0.134566
-0.147087
-0.0795174
0.202501
0.182162
0.0782417
0.0800464
0.0365004
0.0791099
-0.12932
0.0154734
0.0084756
-0.130066
0.118854
0.0862553
0.152066
0.257523
0.164484
-0.198363
-0.0439328
-0.238766
-0.0925283
0.108388
-0.0322908
0.0916356
-0.203025
-0.044365
0.00641609
0.0312179
-0.00461775
-0.113834
0.0538144
0.344643
0.00823933
-0.0961554
0.0127173
-0.0457273
0.0218807
0.0727596
-0.118432
-0.16731
-0.166431
0.137101
-0.128445
0.0934184
0.292331
0.0364756
-0.0886527
0.101329
0.042614
-0.219519
0.116681
-0.0801937
0.0513957
-0.115277
0.213344
-0.0867703
0.0179416
0.168322
-0.177422
-0.0481631
-0.0358992
-0.0618768
-0.0142924
-0.25842
0.178326
-0.0940916
0.128902
-0.249309
0.145505
-0.137083
-0.112062
0.056234
-0.125249
-0.233637
0.103559
-0.152304
-0.200359
-0.199817
-0.166314
0.099098
-0.0727047
0.0384848
-0.0878577
-0.0885008
-0.000999477
-0.1018
0.111802
-0.0367944
0.257715
-0.166212
-0.127635
0.147524
0.0740154
0.203862
-0.0938003
0.0922502
0.124847
0.199446
0.223152
0.0202958
0.0904433
-0.0209179
-0.0919168
0.0468097
0.142628
-0.2478
-0.0240404
-0.0538994
-0.0735838
0.203398
-0.0127424
0.29345
0.051899
0.00635533
-0.0745863
-0.0946049
-0.166098
-0.149868
-0.152969
-0.0811003
-0.123755
0.196992
-0.119015
0.0404387
0.0274062
-0.0152518
-0.194681
0.0477509
0.440793
0.0621613
-0.0457746
0.0791121
-0.206664
-0.0865979
-0.05849
-0.0261822
-0.0510459
0.113916
-0.149383
0.178425
0.0897992
-0.0103412
0.0232576
-0.0558312
0.194997
0.193745
-0.0435163
0.196468
0.0486494
-0.124499
0.0345991
-0.257471
0.0862634
-0.20469
0.0958141
0.193863
0.183385
-0.0932042
-0.275688
0.0440365
0.0633077
0.0359076
-0.0469679
0.11529
-0.107317
0.0548673
0.060093
-0.0817666
-0.00576811
0.0278663
-0.13866
0.110351
-0.129982
0.0720305
-0.158897
-0.041756
0.0650961
-0.217385
-0.145506
0.0327622
0.119688
0.131088
0.0646485
-0.0431676
-0.13886
0.0988154
0.232063
0.180812
-0.101136
0.117036
0.0507931
0.143472
0.0568718
-0.0997118
-0.162258
-0.0640873
0.0750934
0.0506991
0.143357
-0.118012
-0.216373
-0.147734
0.0527483
-0.0638817
-0.0123448
-0.0822153
0.0481922
-0.0389454
-0.136748
0.212979
0.178788
0.0966014
-0.0730808
-0.0140078
-0.105881
0.101612
0.259338
0.0584697
-0.0261817
-0.0996181
0.201905
0.0798129
0.0727408
0.0300576
0.154283
-0.12891
-0.13047
0.0220102
-0.127907
0.0137417
-0.0915357
-0.173889
0.342589
-0.26069
0.146013
0.100261
0.0141779
-0.0599161
0.07886
0.0851826
-0.108125
0.0166402
0.257823
0.0307488
-0.102865
-0.0139023
-0.0109359
0.0513345
-0.0773748
-0.0670827
-0.060894
-0.224095
0.0510011
0.0226207
-0.0038898
0.0599817
-0.00622887
-0.0310315
-0.188858
-0.214166
-0.154284
-0.177851
0.00406724
-0.107162
0.127601
-0.00955392
-0.231314
0.249999
0.196306
0.038405
-0.125782
0.115693
-0.168247
-0.0137941
-0.261931
-0.239229
0.18457
0.00964903
0.110576
-0.00706145
0.175627
0.144511
-0.0354024
-0.00196325
0.0675276
-0.0660008
-0.0557338
0.162069
0.00654897
0.258856
-0.0614302
-0.0758404
0.0625795
-0.0451269
0.0278416
-0.201307
-0.00422422
0.16666
0.029109
-0.332476
0.0332682
0.0949849
0.0856157
0.0281341
-0.198624
0.0596513
-0.169189
0.309574
-0.0303204
-0.105667
0.0495668
-0.216037
-0.247026
0.0401917
0.0874047
0.0852347
0.0996131
-0.10022
0.0891851
0.0119133
0.0894247
-0.11122
0.0168356
-0.190162
-0.121843
-0.0904066
0.021754
0.209685
0.146443
0.0867446
-0.10049
0.0542002
0.124136
0.064306
-0.0892681
0.0220416
0.0745723
0.138296
0.15288
0.0155789
-0.123488
-0.0199625
0.182344
0.125067
0.0333184
0.158062
-0.114055
0.0154268
-0.00976517
-0.102743
0.0487005
0.174801
-0.043061
-0.0395753
-0.14928
0.00711606
0.146153
0.0257067
-0.0203273
0.188949
-0.0274638
-0.122348
-0.00490572
-0.185644
-0.105521
0.00957706
0.171279
-0.147246
0.107266
0.0138716
0.136219
0.0869067
0.0489233
-0.0652857
-0.0701326
-0.00552606
-0.171295
0.107749
0.051861
0.20174
0.00693245
-0.11035
-0.0464235
-0.0263195
-0.338064
-0.101503
0.0942186
-0.201393
-0.00998775
0.060337
-0.172248
0.197743
0.134962
0.071457
0.0879004
0.143874
-0.0256507
-0.185408
-0.103332
-0.0695059
0.0862438
0.110536
0.0981693
0.066636
-0.159271
-0.35802
0.104282
-0.0679179
-0.0203121
0.0499923
0.0759074
-0.266339
-0.00649947
0.279942
0.105728
-0.00599762
0.213463
0.00525336
0.0196605
-0.0076376
0.0350144
0.109729
0.162301
-0.0820974
-0.181533
-0.204589
0.0421289
0.292929
-0.181231
0.23618
0.179126
-0.240001
0.0992118
0.129284
-0.174546
0.0484632
0.0895213
0.152863
-0.00610721
-0.20459
-0.0208158
-0.104207
0.163406
-0.0238673
0.0227556
0.0753969
-0.0411577
-0.159433
-0.243772
-0.0515668
-0.158449
-0.179837
0.00853036
0.131641
0.0294785
-0.216889
0.0450992
-0.107937
-0.115088
0.0216433
0.166655
-0.0426188
0.0906977
0.171275
-0.209368
0.0688038
-0.202775
0.0922895
-0.136262
-0.117714
-0.1909
0.233652
-0.00133629
-0.0267188
0.138577
0.115793
0.0132161
0.152338
0.126453
0.156412
0.0720321
0.115092
0.409852
-0.0190656
-0.0325245
-0.0103724
-0.0444834
-0.188851
-0.170515
0.0806216
-0.0048592
0.0987193
0.177469
-0.00956697
-0.233465
0.0877949
-0.147562
0.0230538
-0.00587998
0.0187658
0.0283422
-0.108112
0.0930038
0.0184725
-0.164404
-0.0171414
-0.159803
-0.291312
-0.0747117
-0.120519
0.0369305
-0.101354
0.0336665
0.14782
0.140233
0.00331601
-0.134183
-0.113391
-0.00140272
-0.136256
0.0687616
-0.086378
-0.0819506
0.15382
0.0057027
0.140123
-0.199627
0.0161641
-0.064693
-0.253698
-0.0603441
-0.0246688
-0.100998
-0.151218
0.221731
0.0258109
-0.0157859
-0.0794244
-0.130684
0.00305951
0.0205516
0.0233129
0.0904762
-0.199443
-0.173567
0.019877
0.0498762
0.21345
0.0420644
0.160339
-0.207434
0.099597
0.176955
0.0362871
0.0107789
-0.150691
0.032069
-0.037945
-0.149209
-0.203431
-0.0010246
-0.178261
-0.0805083
-0.161635
0.288339
0.0447541
-0.20511
-0.14688
0.117806
0.00362524
0.0735054
0.170458
0.0324835
-0.101165
-0.00134151
0.0515811
0.110054
0.0929657
-0.0861897
-0.243953
-0.00312274
-0.150846
0.10214
-0.108129
0.00766498
-0.241177
0.090066
0.00168423
-0.087275
0.112971
-0.0684317
0.0628166
0.191783
-0.0984203
0.151652
0.062779
-0.0684212
-0.0824275
-0.253816
0.150747
0.0591095
-0.17829
0.11276
0.0895964
0.00967262
0.0338674
-0.122364
0.0213397
-0.119092
-0.0428599
-0.167389
-0.152188
0.119349
0.0411465
-0.00347106
0.0164867
0.1856
0.090418
0.0505624
0.132297
0.0403832
0.136877
0.0729966
0.250176
0.131466
0.0972172
-0.15091
0.0875856
-0.155606
-0.0671898
0.0244654
-0.116645
-0.128112
0.213867
-0.089317
0.0750967
0.0122372
0.000623198
0.127625
0.0300443
0.00941171
0.0257216
-0.167504
0.268584
-0.123684
-0.0156746
-0.335338
-0.00761485
-0.0122822
0.0726904
0.0297137
-0.178197
-0.205389
0.115164
0.0930066
-0.0572204
0.122003
0.0183199
-0.146131
-0.00297618
-0.223961
-0.112178
0.0308605
-0.0537896
-0.15024
0.158649
-0.0062904
-0.201181
0.213802
-0.178167
-0.280926
0.108617
-0.224664
-0.00878126
0.10364
-0.262771
-0.132564
0.0373625
0.0422756
0.112393
0.00872661
0.139922
-0.196276
0.00370019
0.0499724
-0.108552
-0.0296141
-0.0828086
-0.178034
-0.115002
-0.23721
-0.167303
-0.221316
0.0223262
-0.0686607
-0.107524
-0.0265024
0.0811145
0.0673631
0.0135896
-0.137671
-0.0202325
-0.181216
0.220344
-0.0295209
-0.0690549
-0.0262118
0.185415
0.0787523
-0.035653
-0.0375061
-0.149596
-0.168721
-0.012713
-0.0881566
-0.204453
0.119466
-0.129329
0.11282
-0.0563942
-0.126101
-0.1572
0.045612
-0.0368961
0.0754209
-0.14799
-0.114579
-0.0512548
-0.109604
-0.122481
0.180745
0.181401
-0.157771
0.17087
0.0991686
0.0337216
0.161872
-0.0669104
-0.0631161
-0.04452
-0.0668892
-0.0198041
0.279994
0.268955
0.2271
-0.0250256
-0.0910349
-0.133971
0.0521498
-0.0962687
-0.0645089
0.00614203
-0.0823134
0.0521089
-0.0812088
0.0581462
0.135438
-0.219682
-0.181066
-0.0215978
-0.0229737
0.137857
-0.0777039
0.105283
-0.179082
0.210437
-0.176031
-0.188905
0.237817
0.0292156
-0.104255
-0.0999513
0.00862306
0.218163
0.0148046
-0.17582
-0.154166
0.0164995
0.0244106
-0.0951631
0.00110802
-0.0930184
-0.189931
-0.169378
0.00974686
0.200157
-0.0497338
-0.0498724
0.181523
-0.23259
-0.0133952
-0.190282
-0.14103
-0.213176
-0.524535
-0.235369
-0.0482541
0.0230455
-0.0287696
-0.0270107
-0.0619978
0.00748139
0.0833093
0.221275
0.019017
0.0142049
-0.0437248
0.0664954
0.108213
-0.226139
-0.156128
-0.0879729
0.370745
-0.190004
0.142406
-0.0543057
-0.0812062
0.014904
0.219479
-0.0325805
-0.0789491
-0.0487869
0.107976
-0.178361
-0.013429
-0.0715657
-0.125554
0.0305425
-0.0198661
0.0758017
-0.338156
-0.0102994
-0.0323678
0.0178613
-0.0849264
-0.0107932
0.12304
-0.233005
-0.0480875
0.130925
0.031072
-0.159174
-0.0526105
-0.182484
-0.0924969
-0.130303
0.271756
-0.0297762
-0.0804269
0.00447701
0.203662
-0.123168
0.0356873
-0.196929
0.180049
-0.147578
0.123661
0.0562649
-0.0160122
0.184049
-0.188688
0.0484447
0.128635
-0.102013
-0.0318548
-0.0852274
0.0895758
0.116065
-0.0385894
-0.0299861
0.0547995
-0.26095
0.0596792
-0.176962
0.0786103
-0.15751
0.246959
-0.01075
0.114206
-0.0448509
0.102331
0.16035
-0.0532513
0.0499658
0.0413503
0.0589566
-0.149633
0.118436
0.0629112
0.057733
0.236382
0.210062
-0.124185
-0.181322
-0.0514817
0.0084312
0.121663
0.112817
-0.00500285
0.0404995
-0.0302342
-0.239927
-0.105206
-0.137615
0.258893
-0.0998562
-0.0606806
0.0538906
-0.250475
0.023295
-0.116847
0.139092
0.149344
-0.0348104
0.0521936
0.0453112
0.0611077
0.0476184
-0.0161439
0.0189608
-0.143671
0.29208
-0.0937833
-0.185154
0.0246935
0.217947
0.280304
0.113465
-0.123828
-0.0292413
0.0522863
-0.186171
0.170123
0.156284
0.199105
0.174802
0.0406515
-0.108463
-0.000656337
0.0165104
0.0281602
0.0130175
-0.160028
0.168288
-0.284596
-0.00483883
-0.259286
-0.276371
-0.108344
0.379807
-0.00680138
-0.186195
-0.107897
-0.111667
0.0844008
-0.00474992
0.275863
0.0777811
-0.0562905
0.0249668
-0.0752256
0.254497
0.0558382
0.179987
0.0733212
-0.0465437
-0.160423
0.137605
0.246283
0.04747
-0.0454776
0.127875
-0.130378
0.187133
0.0411436
0.0107609
-0.0414005
-0.0980112
-0.0627324
0.146664
0.000610711
0.0590438
-0.119992
0.0397983
-0.035622
0.202554
-0.254156
-0.0550046
-0.00552273
0.157424
-0.155759
-0.154059
0.068428
-0.0709363
-0.108865
0.0382225
0.0978979
-0.0548641
-0.00743473
0.0267635
-0.197043
0.0299757
0.0934291
-0.134838
0.177327
0.0785454
-0.0239202
0.0359426
0.250301
0.0940613
0.164148
-0.0649931
-0.141044
-0.0502319
-0.160515
0.103974
-0.248913
0.127468
-0.158962
-0.149587
-0.0693672
-0.0456864
-0.0137984
0.175645
-0.0807167
-0.11958
-0.0637444
0.0718954
0.11619
-0.12971
-0.234058
0.119109
-0.0329253
-0.230366
-0.217754
0.105834
0.00871025
0.0198705
0.0918877
0.127928
0.139813
-0.0165291
-0.0254299
-0.067706
-0.0936851
-0.189956
0.0368311
0.000473206
-0.037587
0.0452009
-0.0308918
-0.0863456
0.263529
0.0750028
-0.24518
-0.0319161
-0.00339226
-0.0273454
0.0398399
-0.034633
-0.13048
0.0461068
-0.264077
0.0391519
0.0128713
-0.139381
0.0657064
0.0713016
-0.23838
-0.0543521
0.13416
0.0141196
0.134483
-0.182015
0.0791119
0.0574697
0.138435
0.0274094
0.211266
0.13635
0.340472
-0.210533
0.00571662
-0.0614366
0.0200486
0.0305987
0.0313223
0.311762
0.00452377
-0.0481947
-0.168353
-0.16815
-0.0921208
0.14041
0.0582962
0.0429491
0.106851
-0.0198094
-0.0351848
0.0373211
-0.0984388
0.12821
0.0430624
-0.105171
0.14797
0.142261
-0.0809847
-0.208834
-0.0262016
0.102557
-0.162653
-0.0130844
0.175705
0.0872053
0.0456056
0.18345
-0.00440863
0.131155
0.0267023
0.122948
0.144216
-0.0447393
-0.108405
0.191739
0.105085
-0.0121995
0.108109
-0.0391314
-0.0482784
-0.151465
0.265977
0.240453
-0.101129
-0.00822004
0.148493
-0.148017
-0.181292
-0.0237199
-0.011077
-0.00447362
-0.106847
-0.23955
0.150607
-0.113051
-0.0125822
-0.097976
0.308736
-0.153802
0.0849144
-0.11624
0.0921318
-0.0291192
-0.378386
-0.109939
0.255035
0.227804
0.0121714
0.0616529
-0.0951174
-0.391642
-0.00765155
-0.00333458
-0.0666346
-0.135131
0.325636
0.0180271
0.0356438
-0.0337139
0.177771
0.0610481
-0.18085
0.176155
0.178903
0.163162
0.311334
-0.0153794
-0.00670735
-0.238191
-0.403636
0.0450594
0.179055
-0.147215
-0.109943
0.0828885
-0.103195
-0.0286575
0.148735
-0.00640996
-0.202334
-0.261148
-0.157686
0.0180818
-0.218838
0.153762
0.0012965
-0.322595
-0.135865
-0.309186
0.0674069
0.0196341
-0.0628843
0.0332782
0.0561576
0.196409
-0.0814361
0.165344
0.112295
0.147568
-0.206973
0.085058
-0.10146
-0.178571
-0.192636
-0.00411305
0.272523
0.239731
-0.0722682
-0.00590394
-0.0702607
-0.193938
0.304695
-0.0783867
-0.0430632
0.0993344
0.00829402
0.0679359
0.200727
-0.0415619
0.073655
-0.0426711
0.049296
-0.25607
0.0173555
0.156346
0.257396
0.094265
-0.139012
-0.187606
0.0412815
0.096704
0.158642
-0.0896736
-0.254647
0.0919195
-0.190622
0.228876
-0.183202
0.144273
0.0635576
-0.234709
0.0622354
-0.0526804
-0.0141667
0.190093
-0.143496
0.109786
0.0849437
-0.0397131
-0.000390716
0.251707
0.0167721
-0.203476
0.157177
0.0339316
-0.00133974
-0.141967
0.166984
-0.122098
-0.0223564
0.0169042
0.0592879
0.00214801
-0.204348
0.083601
0.105026
0.135044
-0.00530568
0.0117559
0.0199261
-0.155588
-0.0379446
0.00689083
-0.0931426
-0.106362
-0.119995
0.17407
0.0136795
0.240013
0.19784
0.150918
0.0605647
-0.0221725
0.10054
0.113297
-0.191461
0.0139918
-0.0251632
0.173607
0.0681416
-0.0146913
-0.212234
-0.0280083
-0.234215
-0.19481
-0.112966
-0.101857
-0.00745228
-0.0739699
0.243568
0.0674519
-0.0600251
-0.12603
0.163212
-0.199073
-0.259555
0.10453
0.195755
0.0998069
0.0342391
-0.136422
-0.172571
0.110668
0.0058578
0.000956711
-0.0132292
0.19106
-0.289051
-0.125195
0.11015
0.081179
0.0592151
0.0355549
0.0790109
0.154735
-0.172467
0.106209
0.135585
0.0994349
0.0984156
-0.0665677
0.0394997
0.0214017
-0.0167738
0.0588998
0.0856354
-0.0525028
0.0197866
-0.00967804
-0.0337172
0.299083
0.146844
-0.0902679
0.0430633
0.13308
0.068979
0.0172179
-0.14081
-0.0510988
-0.23885
0.132089
0.100808
0.0410369
0.218687
-0.0664344
-0.0109943
0.115788
-0.165537
0.0703441
5.32942e-05
-0.0158683
-0.062965
0.0147651
-0.110796
0.274567
0.0228076
0.0052771
-0.0222513
-0.105931
-0.328245
-0.0484569
0.133851
0.154197
-0.114407
0.0625391
-0.140476
-0.205053
0.096738
0.0317712
0.0750366
-0.0194511
-0.167738
-0.0454458
-0.113847
0.229055
0.112735
0.0535236
-0.0512465
0.147429
0.171447
0.0609821
0.180368
-0.05801
-0.288011
0.160815
0.0233266
0.0250805
-0.217363
0.0477953
0.260436
-0.171398
0.0361472
-0.180484
-0.164283
0.337049
0.2152
0.17456
0.212604
0.0281775
-0.0199203
0.0048852
-0.233598
-0.015539
-0.0424439
0.0764905
-0.130853
0.024245
-0.126497
0.0804457
-0.117908
-0.119987
0.052799
0.0410019
0.0303824
-0.108144
0.0331224
0.0345332
0.0535301
-0.0535893
-0.0721827
0.00214138
-0.0341586
0.0463748
0.206003
-0.0605698
-0.0349267
0.069559
-0.116224
-0.212057
-0.0496592
-0.141862
-0.178931
-0.0213291
0.0946966
-0.189203
-0.213961
-0.224856
0.0382597
0.173933
0.209588
0.30674
-0.117636
-0.0114238
-0.312983
0.184776
0.184721
-0.0867248
-0.0244614
-0.0558711
0.0511976
-0.0491575
0.0750896
0.0869488
-0.245208
0.0164645
-0.0637397
0.0399793
-0.190669
0.159443
0.122022
0.234795
-0.373622
-0.158364
0.0419703
0.109404
0.140616
0.0348137
0.140401
0.154331
-0.288327
0.140189
-0.00434418
0.0762153
-0.169147
-0.249431
0.258034
-0.16857
0.121374
-0.0618589
0.0989515
-0.0775212
0.260952
0.0181818
0.0575787
0.103503
0.155107
-0.103201
0.0543943
-0.166761
0.00299055
0.335486
-0.00343599
0.197064
-0.0455472
0.045311
0.0337936
-0.152832
0.467465
-0.103071
0.0589472
-0.0143197
-0.0696119
0.110576
0.0111816
0.0470699
-0.00714269
-0.173484
0.0529698
0.110276
-0.0261915
0.131842
-0.0407571
0.0304085
-0.0953853
-0.0542412
0.0134553
-0.445442
-0.437225
-0.0838263
-0.19584
-0.119872
0.105209
0.0384706
-0.0454775
0.0657088
0.0781913
0.0569679
-0.12151
-0.164941
-0.0524847
-0.0841985
0.0885344
0.0578282
0.0111218
0.222976
-0.0405131
-0.0848981
-0.0323781
-0.106401
-0.086637
-0.458713
0.0582815
0.170254
-0.0974193
0.039539
-0.118458
-0.029126
0.15998
0.0814995
0.024274
0.178538
0.116706
-0.0896375
-0.241762
0.0357667
0.1811
0.248014
-0.0179929
-0.0386611
0.104322
0.114529
-0.116479
-0.131348
0.203009
-0.199632
0.0543542
-0.0552786
-0.159215
-0.00693945
-0.0325326
0.18915
0.0235061
-0.0820727
-0.0266051
-0.0724384
0.139939
-0.156986
-0.0594961
-0.0989848
-0.140698
0.184455
0.341279
-0.107692
0.283125
-0.208422
-0.213824
-0.116182
0.185283
-0.0449373
-0.258206
-0.0857441
-0.203662
0.237832
0.0327587
0.135817
0.213251
-0.018201
-0.22236
0.0431874
-0.101024
0.181112
-0.071115
-0.385911
-0.167601
0.128197
-0.0756059
-0.139376
-0.131803
-0.0923515
-0.0499321
-0.00429838
0.203061
0.215982
-0.0445226
0.0134014
-0.193304
0.0722827
0.0509309
-0.0888821
0.206559
-0.0438639
-0.0851754
-0.0277599
0.094669
0.0738812
0.0917453
0.13183
-0.0130499
0.118586
-0.0456383
0.0930727
-0.0838616
0.225882
-0.18654
-0.0113556
0.0494137
-0.204368
-0.0882819
0.167461
-0.156655
0.0200792
0.147511
0.117471
0.391213
-0.00301316
0.177397
0.112321
0.0149228
0.0660631
-0.108045
0.193272
-0.131831
0.0703474
0.166139
-0.0905589
-0.203213
0.132575
0.146004
0.0687852
0.0835707
-0.0949121
0.303143
0.118032
-0.0541114
0.0068432
-0.0073406
-0.161197
0.0502217
0.111531
0.0276194
-0.135951
0.0514211
-0.014146
0.221038
0.0953762
-0.0455513
-0.180565
-0.346917
-0.105336
0.129962
0.137487
-0.12054
-0.0710906
0.143543
0.0813619
0.160594
-0.0955155
-0.00614432
-0.0888022
0.146968
0.108579
0.18384
0.103478
-0.169776
-0.0469568
-0.172154
-0.011793
-0.329829
0.0751001
-0.141313
0.0867734
0.149674
-0.018192
0.00850685
-0.0748389
0.0096595
0.178952
-0.113254
0.113854
0.113523
-0.0633276
-0.188083
0.0486899
0.130063
-0.120329
0.145107
0.0596462
0.0536323
0.272247
-0.0286926
-0.110071
0.0137644
-0.239886
-0.0604231
-0.102353
0.216185
0.215417
-0.100687
0.0247394
-0.0143822
0.251464
0.0859617
-0.227973
-0.0216955
-0.0899903
0.14099
-0.25491
0.238531
0.0906884
0.00991927
-0.123614
0.210818
-0.0415349
-0.0219437
0.0723204
-0.358247
0.109827
-0.0938601
-0.119152
0.141332
-0.0145147
0.258269
-0.118887
-0.121201
0.124028
0.14612
-0.0950707
-0.457102
0.0277174
0.0309306
-0.00164744
-0.153049
-0.0281703
0.0209284
0.168454
0.100146
0.180926
0.162893
0.0340574
-0.136391
0.0257193
-0.0665963
-0.062056
0.183561
0.11088
0.196816
0.264015
-0.0243314
0.104777
-0.201949
0.109997
0.181188
0.0853926
-0.131118
0.0756415
0.155619
-0.149479
-0.334784
-0.12764
0.204251
0.0121733
0.0623329
0.118479
-0.12369
-0.097448
0.0759843
0.00520503
-0.0130661
0.0714912
0.0594602
0.0723868
0.0242493
0.080788
-0.218233
-0.197946
0.012109
-0.213754
-0.163637
-0.039664
-0.0105486
0.131557
-0.205539
-0.152928
0.280235
-0.106756
0.0968057
0.0461328
0.0720803
-0.0883041
-6.83464e-06
0.0660969
0.186202
-0.0405553
0.156435
-0.186632
-0.0540279
-0.0136095
0.0190267
-0.0288168
-0.0908489
0.263121
-0.222994
-0.10246
-0.0722867
-0.0752354
0.0398992
0.0749947
0.154939
-0.164769
0.0525084
-0.165789
0.0938456
-0.138773
0.0622931
0.212935
-0.0354309
-0.0946203
-0.307917
-0.11033
-0.117307
0.0130112
0.109294
-0.0145999
-0.079708
-0.13897
0.0888464
-0.0763846
-0.0552973
0.224023
0.263811
0.185844
-0.0636016
-0.0270992
-0.120694
0.0117791
0.0417424
0.111591
-0.0491753
-0.0154325
0.171889
-0.0864543
0.157371
0.00629944
0.172121
-0.105442
0.103528
-0.0173412
-0.0664911
0.00289906
-0.204928
-0.032391
-0.0712824
-0.0467027
-0.213778
-0.339312
0.139537
-0.137623
0.255985
0.106273
-0.0508612
0.0792252
-0.0218588
0.0479736
-0.0114274
0.0402939
-0.152441
-0.0172476
-0.000455411
0.190243
-0.0453175
-0.0117789
-0.0537516
0.0508593
-0.108372
-0.103977
-0.0482449
-0.126874
-0.370914
-0.0456959
-0.0590737
-0.156661
0.0603671
0.0816799
0.0527616
0.0332084
0.0402588
-0.000658135
0.0681916
0.00958951
0.0203689
-0.0631967
-0.0798892
0.136385
-0.0510899
0.179477
-0.00940635
0.0463078
0.0656974
0.204639
0.0069957
0.117814
-0.0187135
-0.0616282
0.113617
-0.0187811
-0.0634277
0.10545
-0.0394437
-0.121702
-0.0413992
0.0201779
0.199426
0.0973611
-0.245752
-0.0289437
0.036801
0.00973972
-0.0169124
-0.117892
-0.0805333
0.160685
0.0605442
-0.185951
0.119384
-0.0598334
0.0631985
-0.014565
0.145458
-0.0948629
-0.162764
-0.0269852
-0.214835
-0.201984
-0.187347
-0.115818
0.0734667
-0.20711
0.048917
-0.0192694
-0.117536
-0.0349649
0.177287
0.163395
-0.229955
0.193369
0.319116
0.271796
0.0156538
0.196737
-0.0337579
-0.153173
-0.139297
0.0903802
-0.015053
-0.0305743
0.150648
0.228063
-0.241522
-0.0149975
0.057244
0.192445
-0.0347334
0.000574802
0.155585
-0.0644102
0.0453828
-0.168266
0.0796763
0.0478012
-0.202038
0.0829316
-0.281156
0.105175
-0.220966
0.178943
-0.220351
-0.149602
-0.13332
0.290488
0.325005
-0.0195
0.0486011
-0.245748
-0.099498
0.0371714
-0.024793
0.222933
0.0237647
-0.277834
0.135433
-0.174875
0.0863499
0.170694
-0.0877644
0.0279249
0.205805
-0.0692944
-0.166215
0.19612
0.246609
0.153401
-0.112715
0.0394181
-0.116156
-0.123077
0.162054
-0.167073
0.0517545
-0.145051
-0.0588126
0.125355
0.0141428
0.0623395
0.0500664
0.0127767
-0.202002
-0.233555
-0.17204
0.170536
-0.204988
-0.0400772
-0.0608982
-0.0106488
0.181773
0.0902063
0.0398464
-0.0674284
0.0901607
0.103007
0.119787
0.0885222
-0.10648
0.0452248
0.0295391
-0.0254753
-0.0415551
-0.142607
0.0690036
-0.090919
0.0576335
0.0834755
0.061386
0.087717
-0.156254
-0.177715
-0.289046
-0.204415
-0.0251802
-0.104367
-0.081839
-0.00375185
0.222494
0.0479232
0.0411432
-0.0307813
0.00482946
0.0854903
-0.103249
-0.0803232
-0.062608
0.0509303
0.114084
0.127655
0.0930527
0.0250219
-0.0265936
0.0285373
0.0474826
0.0365943
-0.164678
0.0859886
0.225118
-0.118226
-0.107959
0.220062
0.00354793
0.165159
-0.129944
-0.138608
0.065418
-0.0944111
0.164969
-0.160695
-0.0927777
0.0942018
0.0920417
0.120536
0.102109
0.15825
0.0514368
0.121176
0.0462241
0.0819675
-0.0409186
-0.00539018
-0.266959
0.110578
0.0757253
-0.140788
0.0288122
0.0238498
0.100267
-0.191959
0.0993008
0.278461
0.204683
0.0837618
-0.0609526
-0.102304
-0.00273012
-0.215914
-0.230144
-0.118555
0.0966025
-0.02265
-0.211716
0.166868
-0.154086
-0.0287304
0.200929
-0.0513723
0.157281
-0.00771339
0.132378
-0.17544
0.0356922
0.229043
-0.145585
0.12644
-0.0329109
-0.110927
-0.172458
-0.0853974
0.0280662
0.137326
0.0137537
-0.15135
0.0167069
0.166704
0.148216
-0.125632
-0.0605906
-0.130175
0.0215998
0.0927967
-0.0849816
0.157459
0.132772
-0.169388
-0.12507
-0.00654977
-0.0979282
0.0656735
-0.160552
-0.0202308
-0.140333
-0.0866043
0.0208749
-0.226024
0.230526
0.0584942
-0.283639
-0.11124
-0.037517
-0.203516
-0.116994
-0.0128048
-0.134575
0.0554631
-0.140442
0.225986
0.102054
-0.216925
-0.149647
0.0908451
0.0158461
-0.0875095
-0.22554
-0.00961309
-0.0791935
0.334438
-0.142076
-0.0636813
0.0162585
0.0270165
0.00969545
-0.0979626
0.0253059
-0.0626752
-0.0283537
0.100133
-0.315096
0.0728702
-0.137147
-0.164906
-0.0455255
0.00311732
-0.0477559
-0.112313
-0.164111
0.0377559
0.0137566
0.189113
0.0999694
0.0658653
0.334808
-0.208117
0.288975
0.0648955
0.0571442
0.288338
0.115882
0.0854153
-0.209181
0.0854339
0.127709
-0.0465722
0.0426853
-0.0430613
-0.00271837
0.0472518
0.0506957
0.004601
0.149617
-0.0884315
-0.0780454
-0.000339029
0.0282901
-0.0305067
-0.0976559
-0.0813131
-0.0136278
-0.0392216
-0.0740374
0.0651762
0.0899998
0.150786
-0.0273669
-0.228047
0.0365346
-0.036649
0.00377536
-0.163074
-0.0864439
-0.167099
0.0785026
-0.0565907
-0.12259
0.128886
0.215662
-0.11234
-0.0613646
-0.194908
-0.0742195
-0.0836866
-0.0824429
0.00601403
-0.0640268
0.105969
0.394884
0.0388577
-0.279023
6.21374e-05
0.118495
0.0162425
-0.0622484
0.103555
0.0265202
-0.145223
0.0489697
-0.0314428
-0.155811
-0.186127
0.0867515
-0.0694708
0.104873
-0.0973484
0.177317
0.0187828
0.157093
-0.0490491
0.0400173
0.0282574
-0.133811
-0.186529
-0.254239
-0.0727015
-0.0790419
0.0291024
-0.177162
-0.163904
0.0655377
0.155762
0.0824941
-0.149693
0.0426645
-0.0782923
-0.0143806
-0.191187
-0.0622954
-0.0818757
0.0739106
-0.0773203
0.00982566
-0.212878
0.106633
0.264462
-0.0674993
-0.0840763
