-0.0912025
0.236576
-0.328369
-0.102465
0.271847
0.0650429
0.138748
0.0168996
-0.0119567
-0.347166
0.00580253
-0.10288
-0.161098
-0.107215
0.30035
0.026308
0.0888353
-0.0138703
-0.0273377
0.167175
0.037039
-0.232408
0.309976
-0.197175
0.0157721
0.0569371
-0.00324413
0.39023
0.223733
0.215125
0.12989
0.139865
-0.117769
-0.0804482
0.0947284
0.0519258
0.0769511
-0.27718
0.0589563
0.366534
-0.291475
-0.132702
-0.134727
-0.052399
0.129692
-0.0137104
-0.0578745
0.133583
-0.309342
0.0964494
-0.0922045
0.101118
-0.0488658
-0.00026986
-0.463995
0.162356
0.0853433
-0.0846172
-0.39762
0.296451
0.145955
0.151376
0.0459892
0.161496
0.0329895
0.226662
0.1192
0.237314
-0.138128
-0.161788
0.0391082
-0.434155
0.332934
0.0736291
0.183219
0.0410324
-0.172355
-0.340478
-0.4013
0.345883
-0.141321
-0.151191
0.0265649
-0.161823
-0.132912
0.594271
0.198397
-0.0281439
0.0984195
0.0141633
-0.163805
-0.102979
-0.147707
0.0567058
-0.0490984
-0.0710891
-0.176231
-0.271915
-0.00655021
0.22868
0.0740888
-0.382422
-0.296386
-0.488275
-0.176728
-0.0603114
0.303027
0.0104498
0.0670783
0.0457084
-0.188124
-0.00990406
0.00160869
0.109976
0.079901
-0.161836
0.111507
-0.454226
0.151875
-0.00873738
-0.155584
-0.0894521
0.128869
-0.259103
0.0669927
-0.147045
0.291409
0.073648
-0.13747
-0.262455
-0.331209
-0.115609
-0.166996
0.0663882
-0.112369
0.0763697
-0.0329622
-0.0700966
-0.21752
-0.0556326
-0.0143416
0.313145
-0.0383015
-0.318026
-0.295474
0.0331484
0.0923543
0.103363
0.0887741
-0.103896
0.0728792
-0.583835
0.180081
0.0591264
-0.0371578
0.297591
-0.00205699
0.0740044
0.190928
-0.0486428
0.309127
0.22022
-0.136352
0.170263
0.147333
0.571007
-0.0167725
-0.218248
0.0625559
-0.0538652
0.411819
-0.140424
0.107927
0.0275759
0.171723
0.154762
0.00617289
0.224087
-0.0901126
-0.0140328
-0.0463997
0.404148
0.282182
0.105641
-0.196513
0.0422955
-0.0172039
0.0173259
-0.0499089
-0.300028
0.00348126
-0.398632
-0.0173115
0.279699
0.0922772
-0.0593982
-0.0856865
-0.165917
0.217672
0.217769
0.0901468
0.087478
-0.150004
-0.272163
0.156195
0.254297
0.128741
-0.16153
0.108659
0.102571
0.10346
0.221851
-0.125685
-0.120024
-0.11351
-0.226436
-0.228113
-0.278885
-0.299025
0.0802051
0.0938328
0.179862
-0.161522
-0.181819
0.135091
-0.281856
-0.194665
-0.166763
-0.187542
0.112027
-0.0562031
0.0882936
0.0811948
-0.0490592
0.0859608
-0.297479
0.114266
0.107142
0.17003
0.111382
0.117349
0.30038
0.0406903
-0.18702
-0.243556
-0.341393
-0.164801
0.0169633
0.0801972
0.30394
0.337568
0.298477
0.22365
0.0347424
0.137569
-0.0171271
0.360176
0.0237777
-0.11329
0.16993
-0.180392
0.16919
0.0245807
-0.181693
0.201911
-0.267041
-0.338176
0.108957
-0.10553
-0.235358
-0.2704
-0.361184
-0.360006
-0.129199
0.00880787
-0.170119
-0.223199
-0.119077
0.180307
0.235429
0.408545
0.107165
-0.0244012
0.0243814
0.129872
0.0557489
-0.0413883
-0.324858
0.249912
-0.0389266
0.136654
-0.171101
-0.281782
0.14395
0.215551
0.565876
0.151576
-0.224454
0.145418
-0.00167275
0.102221
-0.183815
0.0281392
0.319549
0.0814243
-0.177922
-0.229925
0.345279
0.272731
0.326035
0.250261
-0.13477
-0.189483
-0.065572
0.112744
0.140689
-0.0329166
0.0681755
0.100356
0.449152
-0.0219673
-0.108141
-0.201889
-0.0169708
0.353063
-0.279917
0.176237
0.0568573
-0.282085
-0.0719337
-0.16356
0.232251
-0.174204
0.200172
0.185447
0.0462925
-0.0689198
0.146048
0.0829308
0.06717
0.32958
-0.487467
-0.208437
0.139129
0.231025
-0.217012
0.0746278
0.288235
-0.0595761
0.349158
-0.0175902
-0.435627
0.244907
0.135785
0.00628636
0.321716
0.154053
-0.192361
-0.0238626
0.0891065
0.0350369
0.0199649
0.12372
-0.100645
-0.0519817
-0.250707
0.0704799
-0.126341
-0.0878156
0.371473
0.0758993
-0.220923
-0.137007
-0.0401502
-0.114058
-0.174539
-0.143424
0.286238
0.100595
-0.09726
0.421643
-0.0503515
0.307076
0.0359203
0.186489
-0.148318
0.245525
0.0450067
0.191525
0.187602
-0.259785
0.0469142
0.45393
0.283031
-0.226561
0.213993
-0.144132
-0.146224
-0.164295
0.0227824
-0.254772
0.0818013
0.0649336
-0.00299728
0.380207
-0.00292747
0.239835
0.209781
-0.0393086
-0.0304098
0.154221
-0.628741
0.283944
-0.164556
-0.40104
-0.111971
0.266125
0.0113734
-0.0439197
-0.0695909
0.352854
-0.0648843
-0.402891
-0.00523339
-0.164842
-0.127977
-0.090119
0.265296
-0.329645
-0.0566827
0.0503832
0.277365
0.106383
0.119823
0.0863074
0.208414
0.209933
0.144962
-0.134037
0.334014
-0.380247
0.36547
-0.323751
-0.17694
-0.0323162
-0.222699
-0.380892
-0.197693
0.150697
0.00299808
0.0536636
0.1393
0.119669
0.261131
0.189084
-0.146667
-0.222262
-0.199679
-0.0806908
-0.19368
0.419077
-0.158362
0.0222663
-0.0110906
0.0595684
-0.118761
-0.175842
-0.0514827
0.0710711
-0.215547
0.100872
-0.144924
0.00332715
-0.356331
0.298186
-0.0950943
-0.210668
0.216268
0.106591
0.184317
0.0319518
-0.0526788
0.00605925
-0.172802
0.192048
0.191792
-0.28368
-0.0385873
-0.120507
0.230724
-0.0997865
-0.156652
-0.242452
-0.383064
-0.106701
-0.018224
0.0552994
0.0341235
0.125083
0.164245
-0.0522021
0.322117
0.0394278
-0.211754
-0.543989
-0.354114
-0.186043
-0.0014024
-0.039293
0.117878
0.358309
-0.0169041
0.438055
0.341649
-0.0420017
0.0427969
-0.0359238
-0.236577
-0.0801903
-0.0590789
0.191369
0.00874733
0.584648
0.0492196
0.158241
0.105088
-0.254687
0.474802
0.163713
-0.369652
0.186078
0.114271
-0.147823
0.267005
0.0851373
0.0503327
0.0361763
-0.0591693
0.182435
-0.0114484
0.0649147
0.118642
0.173327
0.278895
-0.167467
-0.0955006
0.0449877
0.0170315
-0.0895543
-0.269418
0.0213656
0.20849
0.00453331
-0.201742
0.29944
0.159635
0.413858
-0.048597
-0.264034
0.272279
-0.00964456
-0.112476
-0.259502
-0.0654095
-0.0456818
-0.124805
-0.0724153
-0.0643193
0.0730413
-0.398899
0.404088
0.401163
-0.407593
0.383755
0.207434
0.248945
-0.085932
-0.396208
0.365583
0.101329
-0.446343
0.185561
-0.0397485
0.062565
-0.0699802
0.0563082
0.310561
-0.347834
0.258694
0.131205
-0.222445
0.0251702
-0.00745988
-0.166006
0.0617984
0.0271723
-0.0248627
-0.0385731
0.254696
-0.110356
-0.179977
-0.0336298
0.0507983
-0.0107838
-0.282321
0.0400098
0.395918
0.0556474
-0.210902
-0.184409
-0.0423644
-0.116512
-0.246311
-0.0582416
-0.00754348
0.100467
0.350689
-0.0991061
-0.0296783
-0.0600534
-0.422121
-0.0622412
-0.0455587
0.152927
0.300898
-0.17524
0.185362
-0.083217
0.0601532
0.0856018
-0.119799
-0.0457252
0.126719
0.300412
-0.19759
0.210475
0.0250143
0.0307597
0.48213
-0.0447999
0.107599
-0.0344005
0.685468
-0.44649
0.148642
-0.0228432
-0.26854
-0.0842766
0.134443
0.0734472
0.0942322
-0.111795
-0.183283
-0.0686603
-0.0942023
-0.273328
0.00885966
-0.111183
0.207012
0.0264959
0.0572725
0.0956781
0.0446674
0.114332
-0.0834199
0.108698
0.084984
-0.0557988
0.161977
0.0158653
-0.0344385
-0.287799
-0.181634
0.167804
-0.0999875
0.205269
0.368549
0.323401
-0.0650202
0.16686
0.107024
0.180587
-0.144377
-0.0197328
-0.544657
-0.0273553
0.0789303
-0.501783
0.0301755
0.294881
-0.110708
0.0161203
-0.0118289
0.166419
-0.129299
0.077032
-0.0162607
-0.121166
0.319976
-0.278722
0.315621
-0.315901
-0.309133
-0.153469
0.18595
-0.283548
-0.170113
-0.0773529
0.00879727
0.323036
0.163934
0.050277
-0.239883
0.153111
0.0727311
-0.00350522
0.155696
0.147362
0.119853
0.153809
-0.236345
-0.191355
-0.292669
-0.0880957
-0.117486
0.238087
0.19247
-0.24315
-0.187338
-0.0188672
0.00463713
-0.15294
0.0655883
-0.406107
-0.199284
-0.188946
0.128879
-0.0754262
0.0987472
-0.397819
-0.0575099
-0.100766
-0.154604
-0.0203678
0.254469
0.176891
-0.280137
0.0887505
-0.294537
-0.177354
0.346186
0.0383481
-0.071378
0.0928218
-0.322353
-0.0398271
0.145677
-0.367705
-0.171754
0.195576
-0.237843
-0.00145277
-0.300257
-0.25544
-0.037981
0.071148
-0.112141
-0.300653
0.0463602
0.059668
-0.22226
-0.0582769
0.391023
-0.309295
0.333995
0.0546803
0.322321
0.25896
0.256772
-0.0137927
-0.00741919
0.0803627
0.149132
-0.323915
0.236683
0.00773866
0.0989053
0.216563
0.25713
0.402419
0.000898578
-0.334804
-0.369863
0.21961
-0.114954
0.0963915
-0.142588
0.0063036
0.18733
-0.004685
-0.0347167
0.0509735
0.387282
0.327205
-0.16204
0.290867
-0.0676578
0.0826423
-0.0655321
-0.0646879
-0.112759
0.217211
-0.0259101
0.0220732
0.382555
0.19672
-0.115618
0.141326
0.144298
-0.12535
-0.109129
0.0137425
-0.265237
0.27197
-0.084651
-0.0217869
0.142332
0.0397423
0.106589
-0.290999
-0.127239
-0.0822104
-0.01536
0.266873
-0.310932
-0.0501
0.664612
0.0131555
-0.0454772
0.218722
0.0153012
0.0329605
-0.296208
-0.129264
-0.00286845
0.127737
-0.0495333
-0.0102114
0.291646
0.185278
0.0728315
0.218981
-0.145601
0.487314
-0.0140088
0.0363916
-0.041039
0.24572
-0.211984
-0.362787
0.161158
0.0139691
-0.0365338
0.0154381
0.127319
0.151568
0.121606
-0.0140044
-0.105723
-0.278451
0.0681152
0.115821
0.164992
0.376264
-0.182826
-0.0667513
0.00438012
-0.186347
0.0851569
-0.261366
0.202439
-0.0885245
-0.346972
0.0701835
0.37399
-0.088113
0.124689
-0.0148607
-0.0734407
-0.0214287
-0.0742828
-0.103785
-0.133241
0.0253527
0.288485
-0.261694
-0.0947141
-0.200145
-0.0398575
-0.0766793
0.387143
-0.114306
-0.11343
-0.280435
-0.194517
-0.262633
0.000129156
0.253579
-0.25349
0.141664
0.0253738
-0.154863
-0.181965
-0.0188618
0.0236389
0.344301
-0.125166
-0.26257
0.0452144
-0.158927
-0.0848103
0.308437
0.0459197
0.06946
0.050109
0.0793697
-0.28893
-0.240489
-0.173481
-0.249563
0.18229
0.206489
0.400943
-0.00411535
-0.130313
0.272786
-0.202441
-0.318607
0.172546
0.17237
0.147862
0.0855597
0.180827
-0.0780007
0.0830405
-0.293775
-0.198499
0.162438
-0.150813
0.0899798
-0.309466
-0.179265
-0.024984
-0.0233631
0.105368
-0.132693
-0.145649
-0.0875462
0.0279832
-0.159834
-0.198458
-0.021004
-0.121999
0.108891
0.61382
-0.310822
-0.0974956
0.108761
-0.149909
-0.0700743
0.0343776
0.0377954
-0.0805044
0.0554375
0.205175
0.235399
-0.123766
-0.141225
0.0396605
-0.00302904
-0.0924292
-0.0421104
0.360075
-0.0482148
0.376341
0.248689
0.169807
-0.401347
0.228968
0.211797
0.199859
0.502997
-0.160813
-0.0247256
-0.177862
-0.045905
0.127213
0.254569
0.214167
-0.00211174
-0.225195
-0.247564
-0.311385
-0.0908321
-0.0110986
0.211513
-0.0392964
0.416653
0.292398
0.180917
-0.0679172
0.202939
-0.0150135
-0.193382
-0.106115
0.0778301
-0.0489887
-0.382519
0.0455533
-0.0347204
0.430308
-0.100358
-0.246242
-0.359417
-0.15174
-0.258978
-0.156841
0.281065
-0.0522953
0.376075
0.164566
0.0246493
0.402944
0.168984
-0.311226
0.18781
-0.195284
-0.593815
-0.336078
0.0756093
-0.387856
-0.309739
0.289174
-0.00134976
-0.246893
0.33437
-0.0872366
0.171965
0.0620066
0.340841
-0.103867
-0.147604
0.0516021
0.41073
0.0437701
0.335578
-0.175714
0.141067
0.0724863
-0.130722
0.0630018
-0.331628
0.175383
-0.268851
-0.00903137
-0.0406795
-0.0184518
-0.0879188
-0.180696
0.307137
0.209059
0.571894
0.345047
0.0274672
0.0237732
0.00590624
-0.253318
0.172221
-0.193736
0.332566
0.260141
0.123122
-0.218848
-0.320953
-0.20296
-0.0873743
-0.430325
0.250096
-0.0566966
-0.291755
0.105099
0.253645
0.040778
0.141945
-0.0683229
-0.0203567
-0.0398655
0.00352995
-0.166428
0.0146776
-0.162082
-0.0312942
0.122851
-0.0166968
0.145644
-0.043752
0.0300085
0.0112772
0.0931344
-0.116126
-0.0282827
0.0375155
-0.190927
-0.0883768
-0.0812671
-0.128262
0.00832146
0.11346
-0.300108
-0.043375
-0.417447
-0.252361
-0.0607067
0.0533715
0.288387
0.026356
0.0473776
0.16577
0.200975
0.187999
-0.143601
-0.0939045
0.0857837
0.0418098
-0.0560676
-0.0570995
0.0627655
-0.16297
0.19333
0.287508
-0.0577625
-0.372829
-0.156015
-0.0620316
-0.0217599
0.123159
0.165496
-0.177057
-0.178115
-0.00388739
0.092867
-0.31089
-0.0383471
0.142352
-0.00790112
-0.226182
0.282466
0.323967
0.277331
0.0121785
-0.148783
-0.0787411
-0.364488
-0.0235708
0.105434
0.00125518
-0.0502308
0.0828518
0.229274
0.0193568
0.428143
-0.0992179
0.123403
-0.486843
-0.138886
-0.0219401
0.208288
0.0330877
-0.0493981
-0.175408
0.17845
-0.0945514
0.427298
0.151226
-0.18427
-0.10171
-0.0296768
-0.205085
-0.202093
-0.0685951
-0.100333
0.0118965
0.00126463
-0.0617843
-0.189897
-0.319635
-0.173416
-0.291537
0.0793539
-0.212104
0.232795
-0.265531
0.057988
0.12477
-0.221074
-0.0306741
-0.0378899
0.475512
-0.196205
-0.169183
0.519458
-0.114404
0.234093
-0.0299692
-0.219524
0.0307991
-0.29817
0.127774
-0.0693546
-0.0908243
-0.324082
-0.0492254
0.211918
-0.301861
0.0992734
0.491026
-0.0268674
0.0334782
0.0620907
0.0574424
-0.230329
-0.299868
0.240723
-0.25426
0.439399
-0.151558
-0.224507
0.0333843
0.0427832
-0.035747
0.111021
-0.0105223
0.00833589
0.131986
0.112942
0.00956192
0.194437
0.00805459
-0.399084
0.0274756
0.0720089
-0.256242
-0.00904212
0.191384
0.223373
-0.0401658
0.0936654
0.126599
-0.0052068
-0.340588
0.146708
0.171264
0.0671715
0.0946726
-0.0575708
0.114197
0.223748
0.0445128
-0.0728816
0.308917
0.0364173
-0.214352
-0.22777
-0.20481
-0.153977
0.294215
-0.20061
0.153892
-0.509214
0.314118
0.219026
0.13734
0.0879828
-0.363627
0.106687
0.178593
-0.37882
-0.140835
0.152513
-0.174869
0.149534
-0.17145
-0.259807
-0.167984
-0.253435
-0.127824
0.182766
0.0935973
0.0353227
0.0506036
-0.0346557
-0.0551596
0.136835
-0.0259452
0.01518
-0.0171567
-0.0667418
0.00284634
-0.322984
0.410695
-0.406128
-0.0630447
0.36957
-0.329619
0.0952203
0.11025
-0.0298522
-0.0806385
-0.0414344
-0.232335
0.0699735
0.312053
-0.258236
0.305202
0.220011
-0.0320755
-0.0136011
-0.0742205
0.287427
-0.15593
-0.132487
-0.0151206
-0.424497
0.0293593
0.0441023
-0.110078
0.0671389
0.0719652
-0.172791
-0.112793
-0.127141
-0.368742
0.102909
-0.26979
-0.293144
-0.090915
-0.0654176
0.745275
-0.239596
0.162845
-0.0789696
-0.141186
-0.388591
-0.238808
-0.0996341
-0.0764435
0.00328149
0.0521782
-0.0627249
-0.0338692
0.0458997
-0.331553
-0.00758784
0.224979
-0.412517
0.0398988
-0.128095
0.323972
0.0354199
0.159741
0.38031
0.163379
-0.287967
0.0584478
-0.181676
0.0077395
0.133547
-0.114941
-0.252933
0.0940432
0.277018
-0.129665
-0.206054
-0.2051
-0.376536
0.332005
-0.251704
-0.0490252
0.108405
0.135597
-0.233669
0.168226
-0.0782258
-0.101373
-0.159972
-0.067366
-0.0501609
0.100935
-0.183433
-0.0363361
-0.022112
0.455668
0.263561
-0.0258558
0.197375
-0.332469
0.085113
0.333209
0.0563826
0.176998
-0.104675
0.351676
-0.240586
0.267999
-0.0151313
0.28978
0.235101
0.0809375
-0.335214
0.0858244
-0.192544
0.671236
-0.0126282
0.209576
-0.0249835
-0.448677
0.0535296
-0.199993
0.00988742
0.187306
0.268591
0.0169955
-0.0958684
0.105142
0.156715
-0.220242
-0.169162
-0.326255
-0.0432344
0.0257431
0.127115
0.431742
-0.419963
-0.517917
0.0286034
-0.290587
-0.317132
-0.318745
0.111573
0.0454655
-0.0606398
0.498218
0.299676
-0.156482
0.0758665
0.215732
-0.307538
-0.0373939
-0.082807
0.0929627
0.0536203
-0.00668902
0.259612
0.00563355
0.0108399
0.0675682
0.0605282
0.0651698
-0.120058
0.347581
-0.0449056
-0.169039
0.170719
0.0355207
0.449268
-0.0415704
-0.0645269
-0.283084
-0.162459
-0.179233
0.176276
-0.0831804
-0.11609
0.402215
0.102134
0.14203
-0.510395
-0.211351
0.326619
0.453249
-0.154895
-0.066123
0.154061
0.0548751
-0.295953
-0.24047
0.374114
-0.0829733
-0.102627
-0.218946
0.138177
0.33823
-0.0749635
0.134482
-0.0462969
0.158341
-0.0414967
-0.157608
0.141432
0.0724908
-0.0640744
-0.11524
